FANN_FLO_2.1
num_layers=6
learning_rate=0.700000
connection_rate=1.000000
network_type=0
learning_momentum=0.000000
training_algorithm=2
train_error_function=0
train_stop_function=0
cascade_output_change_fraction=0.010000
quickprop_decay=-0.000100
quickprop_mu=1.750000
rprop_increase_factor=1.200000
rprop_decrease_factor=0.500000
rprop_delta_min=0.000000
rprop_delta_max=50.000000
rprop_delta_zero=0.100000
cascade_output_stagnation_epochs=12
cascade_candidate_change_fraction=0.010000
cascade_candidate_stagnation_epochs=12
cascade_max_out_epochs=150
cascade_min_out_epochs=50
cascade_max_cand_epochs=150
cascade_min_cand_epochs=50
cascade_num_candidate_groups=2
bit_fail_limit=3.49999994039535522461e-01
cascade_candidate_limit=1.00000000000000000000e+03
cascade_weight_multiplier=4.00000005960464477539e-01
cascade_activation_functions_count=10
cascade_activation_functions=3 5 7 8 10 11 14 15 16 17 
cascade_activation_steepnesses_count=4
cascade_activation_steepnesses=2.50000000000000000000e-01 5.00000000000000000000e-01 7.50000000000000000000e-01 1.00000000000000000000e+00 
layer_sizes=38 61 31 31 16 2 
scale_included=0
neurons (num_inputs, activation_function, activation_steepness)=(0, 0, 0.00000000000000000000e+00) (0, 0, 0.00000000000000000000e+00) (0, 0, 0.00000000000000000000e+00) (0, 0, 0.00000000000000000000e+00) (0, 0, 0.00000000000000000000e+00) (0, 0, 0.00000000000000000000e+00) (0, 0, 0.00000000000000000000e+00) (0, 0, 0.00000000000000000000e+00) (0, 0, 0.00000000000000000000e+00) (0, 0, 0.00000000000000000000e+00) (0, 0, 0.00000000000000000000e+00) (0, 0, 0.00000000000000000000e+00) (0, 0, 0.00000000000000000000e+00) (0, 0, 0.00000000000000000000e+00) (0, 0, 0.00000000000000000000e+00) (0, 0, 0.00000000000000000000e+00) (0, 0, 0.00000000000000000000e+00) (0, 0, 0.00000000000000000000e+00) (0, 0, 0.00000000000000000000e+00) (0, 0, 0.00000000000000000000e+00) (0, 0, 0.00000000000000000000e+00) (0, 0, 0.00000000000000000000e+00) (0, 0, 0.00000000000000000000e+00) (0, 0, 0.00000000000000000000e+00) (0, 0, 0.00000000000000000000e+00) (0, 0, 0.00000000000000000000e+00) (0, 0, 0.00000000000000000000e+00) (0, 0, 0.00000000000000000000e+00) (0, 0, 0.00000000000000000000e+00) (0, 0, 0.00000000000000000000e+00) (0, 0, 0.00000000000000000000e+00) (0, 0, 0.00000000000000000000e+00) (0, 0, 0.00000000000000000000e+00) (0, 0, 0.00000000000000000000e+00) (0, 0, 0.00000000000000000000e+00) (0, 0, 0.00000000000000000000e+00) (0, 0, 0.00000000000000000000e+00) (0, 0, 0.00000000000000000000e+00) (38, 5, 5.00000000000000000000e-01) (38, 5, 5.00000000000000000000e-01) (38, 5, 5.00000000000000000000e-01) (38, 5, 5.00000000000000000000e-01) (38, 5, 5.00000000000000000000e-01) (38, 5, 5.00000000000000000000e-01) (38, 5, 5.00000000000000000000e-01) (38, 5, 5.00000000000000000000e-01) (38, 5, 5.00000000000000000000e-01) (38, 5, 5.00000000000000000000e-01) (38, 5, 5.00000000000000000000e-01) (38, 5, 5.00000000000000000000e-01) (38, 5, 5.00000000000000000000e-01) (38, 5, 5.00000000000000000000e-01) (38, 5, 5.00000000000000000000e-01) (38, 5, 5.00000000000000000000e-01) (38, 5, 5.00000000000000000000e-01) (38, 5, 5.00000000000000000000e-01) (38, 5, 5.00000000000000000000e-01) (38, 5, 5.00000000000000000000e-01) (38, 5, 5.00000000000000000000e-01) (38, 5, 5.00000000000000000000e-01) (38, 5, 5.00000000000000000000e-01) (38, 5, 5.00000000000000000000e-01) (38, 5, 5.00000000000000000000e-01) (38, 5, 5.00000000000000000000e-01) (38, 5, 5.00000000000000000000e-01) (38, 5, 5.00000000000000000000e-01) (38, 5, 5.00000000000000000000e-01) (38, 5, 5.00000000000000000000e-01) (38, 5, 5.00000000000000000000e-01) (38, 5, 5.00000000000000000000e-01) (38, 5, 5.00000000000000000000e-01) (38, 5, 5.00000000000000000000e-01) (38, 5, 5.00000000000000000000e-01) (38, 5, 5.00000000000000000000e-01) (38, 5, 5.00000000000000000000e-01) (38, 5, 5.00000000000000000000e-01) (38, 5, 5.00000000000000000000e-01) (38, 5, 5.00000000000000000000e-01) (38, 5, 5.00000000000000000000e-01) (38, 5, 5.00000000000000000000e-01) (38, 5, 5.00000000000000000000e-01) (38, 5, 5.00000000000000000000e-01) (38, 5, 5.00000000000000000000e-01) (38, 5, 5.00000000000000000000e-01) (38, 5, 5.00000000000000000000e-01) (38, 5, 5.00000000000000000000e-01) (38, 5, 5.00000000000000000000e-01) (38, 5, 5.00000000000000000000e-01) (38, 5, 5.00000000000000000000e-01) (38, 5, 5.00000000000000000000e-01) (38, 5, 5.00000000000000000000e-01) (38, 5, 5.00000000000000000000e-01) (38, 5, 5.00000000000000000000e-01) (38, 5, 5.00000000000000000000e-01) (38, 5, 5.00000000000000000000e-01) (38, 5, 5.00000000000000000000e-01) (38, 5, 5.00000000000000000000e-01) (38, 5, 5.00000000000000000000e-01) (0, 5, 0.00000000000000000000e+00) (61, 5, 5.00000000000000000000e-01) (61, 5, 5.00000000000000000000e-01) (61, 5, 5.00000000000000000000e-01) (61, 5, 5.00000000000000000000e-01) (61, 5, 5.00000000000000000000e-01) (61, 5, 5.00000000000000000000e-01) (61, 5, 5.00000000000000000000e-01) (61, 5, 5.00000000000000000000e-01) (61, 5, 5.00000000000000000000e-01) (61, 5, 5.00000000000000000000e-01) (61, 5, 5.00000000000000000000e-01) (61, 5, 5.00000000000000000000e-01) (61, 5, 5.00000000000000000000e-01) (61, 5, 5.00000000000000000000e-01) (61, 5, 5.00000000000000000000e-01) (61, 5, 5.00000000000000000000e-01) (61, 5, 5.00000000000000000000e-01) (61, 5, 5.00000000000000000000e-01) (61, 5, 5.00000000000000000000e-01) (61, 5, 5.00000000000000000000e-01) (61, 5, 5.00000000000000000000e-01) (61, 5, 5.00000000000000000000e-01) (61, 5, 5.00000000000000000000e-01) (61, 5, 5.00000000000000000000e-01) (61, 5, 5.00000000000000000000e-01) (61, 5, 5.00000000000000000000e-01) (61, 5, 5.00000000000000000000e-01) (61, 5, 5.00000000000000000000e-01) (61, 5, 5.00000000000000000000e-01) (61, 5, 5.00000000000000000000e-01) (0, 5, 0.00000000000000000000e+00) (31, 5, 5.00000000000000000000e-01) (31, 5, 5.00000000000000000000e-01) (31, 5, 5.00000000000000000000e-01) (31, 5, 5.00000000000000000000e-01) (31, 5, 5.00000000000000000000e-01) (31, 5, 5.00000000000000000000e-01) (31, 5, 5.00000000000000000000e-01) (31, 5, 5.00000000000000000000e-01) (31, 5, 5.00000000000000000000e-01) (31, 5, 5.00000000000000000000e-01) (31, 5, 5.00000000000000000000e-01) (31, 5, 5.00000000000000000000e-01) (31, 5, 5.00000000000000000000e-01) (31, 5, 5.00000000000000000000e-01) (31, 5, 5.00000000000000000000e-01) (31, 5, 5.00000000000000000000e-01) (31, 5, 5.00000000000000000000e-01) (31, 5, 5.00000000000000000000e-01) (31, 5, 5.00000000000000000000e-01) (31, 5, 5.00000000000000000000e-01) (31, 5, 5.00000000000000000000e-01) (31, 5, 5.00000000000000000000e-01) (31, 5, 5.00000000000000000000e-01) (31, 5, 5.00000000000000000000e-01) (31, 5, 5.00000000000000000000e-01) (31, 5, 5.00000000000000000000e-01) (31, 5, 5.00000000000000000000e-01) (31, 5, 5.00000000000000000000e-01) (31, 5, 5.00000000000000000000e-01) (31, 5, 5.00000000000000000000e-01) (0, 5, 0.00000000000000000000e+00) (31, 5, 5.00000000000000000000e-01) (31, 5, 5.00000000000000000000e-01) (31, 5, 5.00000000000000000000e-01) (31, 5, 5.00000000000000000000e-01) (31, 5, 5.00000000000000000000e-01) (31, 5, 5.00000000000000000000e-01) (31, 5, 5.00000000000000000000e-01) (31, 5, 5.00000000000000000000e-01) (31, 5, 5.00000000000000000000e-01) (31, 5, 5.00000000000000000000e-01) (31, 5, 5.00000000000000000000e-01) (31, 5, 5.00000000000000000000e-01) (31, 5, 5.00000000000000000000e-01) (31, 5, 5.00000000000000000000e-01) (31, 5, 5.00000000000000000000e-01) (0, 5, 0.00000000000000000000e+00) (16, 8, 5.00000000000000000000e-01) (0, 8, 0.00000000000000000000e+00) 
connections (connected_to_neuron, weight)=(0, 1.70809566974639892578e-01) (1, -7.35804617404937744141e-01) (2, -1.94648429751396179199e-01) (3, -5.95423698425292968750e-01) (4, -3.76304268836975097656e-01) (5, -2.29388308525085449219e+00) (6, -1.77882865071296691895e-01) (7, -1.79615229368209838867e-01) (8, 1.99732072651386260986e-02) (9, -4.71949368715286254883e-01) (10, 5.54133296012878417969e-01) (11, -2.14139491319656372070e-01) (12, 3.19351166486740112305e-01) (13, 2.04295441508293151855e-02) (14, 5.91046810150146484375e-01) (15, -4.02572229504585266113e-02) (16, 1.65084525942802429199e-01) (17, -8.02275896072387695312e-01) (18, -1.32898226380348205566e-01) (19, 3.33898998796939849854e-02) (20, -5.86219727993011474609e-02) (21, -5.41006982326507568359e-01) (22, -7.43084400892257690430e-03) (23, 3.40589314699172973633e-01) (24, 6.23168468475341796875e-01) (25, -6.91191017627716064453e-01) (26, 5.95969736576080322266e-01) (27, 1.73833042383193969727e-01) (28, -1.71662911772727966309e-01) (29, 2.76702195405960083008e-01) (30, 1.49685347080230712891e+00) (31, -4.30798530578613281250e-02) (32, 1.44969344139099121094e+00) (33, 2.75619566440582275391e-01) (34, 6.66602230072021484375e+00) (35, 8.51081728935241699219e-01) (36, 1.07565760612487792969e+00) (37, 1.75804257392883300781e-01) (0, 3.96398276090621948242e-01) (1, 1.56414473056793212891e+00) (2, 4.52579408884048461914e-02) (3, 8.45175445079803466797e-01) (4, 7.36224710941314697266e-01) (5, 1.75956594944000244141e+00) (6, 9.35416877269744873047e-01) (7, 1.26217913627624511719e+00) (8, 1.12728500366210937500e+00) (9, 1.15391230583190917969e+00) (10, 4.25477176904678344727e-01) (11, 2.18095332384109497070e-01) (12, -9.78944748640060424805e-02) (13, 7.56574809551239013672e-01) (14, 7.46911168098449707031e-01) (15, 3.99151742458343505859e-01) (16, 5.76587200164794921875e-01) (17, 1.20288527011871337891e+00) (18, 5.70424973964691162109e-01) (19, 1.04151678085327148438e+00) (20, 1.01226603984832763672e+00) (21, 9.46614861488342285156e-01) (22, 7.13594317436218261719e-01) (23, 6.03939056396484375000e-01) (24, 7.14298725128173828125e-01) (25, 1.12345778942108154297e+00) (26, 3.87774616479873657227e-01) (27, 9.74610626697540283203e-01) (28, 1.16295206546783447266e+00) (29, 5.84935955703258514404e-02) (30, 1.61137819290161132812e-01) (31, 1.60900995135307312012e-01) (32, -5.68627953529357910156e-01) (33, 1.35056868195533752441e-01) (34, -1.15704488754272460938e+00) (35, 9.70327973365783691406e-01) (36, 2.65277892351150512695e-01) (37, 4.59475427865982055664e-01) (0, -1.82950422167778015137e-01) (1, -8.14157351851463317871e-02) (2, 3.57007831335067749023e-01) (3, -1.23771548271179199219e+00) (4, -8.39222908020019531250e-01) (5, -2.22134292125701904297e-01) (6, 1.83111697435379028320e-01) (7, -2.99577802419662475586e-01) (8, 2.94523313641548156738e-03) (9, -2.30330452322959899902e-01) (10, 1.68552637100219726562e-01) (11, 4.22755330801010131836e-02) (12, -5.62765523791313171387e-02) (13, 7.59706974029541015625e-01) (14, 4.48355585336685180664e-01) (15, 1.54545187950134277344e-01) (16, 2.97355294227600097656e-01) (17, -1.50323539972305297852e-01) (18, 1.83241963386535644531e-01) (19, 8.98710265755653381348e-02) (20, 5.52810207009315490723e-02) (21, -4.52910326421260833740e-02) (22, 2.97426462173461914062e-01) (23, 4.72986012697219848633e-01) (24, -2.16312617063522338867e-01) (25, -2.25291296839714050293e-01) (26, 2.85484921187162399292e-02) (27, -2.42323085665702819824e-01) (28, 2.21985310316085815430e-01) (29, 1.19301691651344299316e-01) (30, 4.83077675104141235352e-01) (31, 7.61856675148010253906e-01) (32, 7.79403209686279296875e-01) (33, 7.59611502289772033691e-02) (34, 1.26650536060333251953e+00) (35, 1.26400172710418701172e+00) (36, 1.02932441234588623047e+00) (37, 1.02218307554721832275e-01) (0, 2.97782510519027709961e-01) (1, 1.28024017810821533203e+00) (2, 1.97008416056632995605e-01) (3, 1.04149127006530761719e+00) (4, 1.03396999835968017578e+00) (5, 3.38473057746887207031e+00) (6, 6.55709028244018554688e-01) (7, 6.89348280429840087891e-01) (8, 7.44436383247375488281e-01) (9, 2.13407897949218750000e+00) (10, 1.04291237890720367432e-01) (11, 5.63832938671112060547e-01) (12, -4.15028557181358337402e-02) (13, 2.06153348088264465332e-01) (14, 3.20561408996582031250e-01) (15, 8.17316532135009765625e-01) (16, 1.16782295703887939453e+00) (17, 2.97764956951141357422e-01) (18, 5.14720201492309570312e-01) (19, 9.67648029327392578125e-01) (20, 2.17810583114624023438e+00) (21, 8.57402682304382324219e-01) (22, 5.61454534530639648438e-01) (23, 1.29765820503234863281e+00) (24, 1.12692785263061523438e+00) (25, 7.81269609928131103516e-01) (26, 9.73079085350036621094e-01) (27, 1.67310953140258789062e+00) (28, 9.95977520942687988281e-01) (29, 2.06928372383117675781e-01) (30, 4.95672017335891723633e-01) (31, -5.56884557008743286133e-02) (32, -4.92198556661605834961e-01) (33, 4.72322762012481689453e-01) (34, -3.58533382415771484375e-01) (35, -7.01435387134552001953e-01) (36, -7.22353994846343994141e-01) (37, 4.47224706411361694336e-01) (0, 1.46176266670227050781e+00) (1, 4.08014923334121704102e-01) (2, 4.20657515525817871094e-01) (3, 9.33910131454467773438e-01) (4, 8.75569760799407958984e-01) (5, 6.68148577213287353516e-01) (6, 7.39473402500152587891e-01) (7, 1.20360338687896728516e+00) (8, 1.05496239662170410156e+00) (9, 5.07416665554046630859e-01) (10, 3.25737625360488891602e-01) (11, 1.49430006742477416992e-01) (12, 1.10254740715026855469e+00) (13, 2.15859368443489074707e-01) (14, 5.60495734214782714844e-01) (15, 1.19058644771575927734e+00) (16, 3.17972922325134277344e+00) (17, 2.33345001935958862305e-01) (18, 5.18728315830230712891e-01) (19, 6.84790432453155517578e-01) (20, 7.11623966693878173828e-01) (21, -2.86624193191528320312e-01) (22, 2.60293781757354736328e-01) (23, 2.04454049468040466309e-01) (24, 1.21279239654541015625e-01) (25, 2.76713132858276367188e-01) (26, 4.73743438720703125000e-01) (27, 3.00185292959213256836e-01) (28, 7.89432466030120849609e-01) (29, 2.41639807820320129395e-01) (30, 2.28696957230567932129e-01) (31, 1.41916930675506591797e-01) (32, 7.58781358599662780762e-02) (33, 8.18002149462699890137e-02) (34, -5.99443256855010986328e-01) (35, 4.52422201633453369141e-01) (36, -2.52844989299774169922e-02) (37, 6.05635941028594970703e-02) (0, 8.01663875579833984375e-01) (1, 8.12672153115272521973e-02) (2, 2.07409083843231201172e-01) (3, 1.07856357097625732422e+00) (4, 9.32658791542053222656e-01) (5, 1.40808033943176269531e+00) (6, 1.03193950653076171875e+00) (7, 7.64792263507843017578e-01) (8, -6.46426379680633544922e-01) (9, 1.90579998493194580078e+00) (10, 7.97280013561248779297e-01) (11, 1.59898415207862854004e-01) (12, 2.44312435388565063477e-02) (13, 1.37191510200500488281e+00) (14, 3.57028782367706298828e-01) (15, 1.32677304744720458984e+00) (16, 1.33694911003112792969e+00) (17, 3.14528846740722656250e+00) (18, 2.16365978121757507324e-01) (19, 1.76069056987762451172e+00) (20, 1.66286087036132812500e+00) (21, 7.62117207050323486328e-01) (22, 8.96553516387939453125e-01) (23, 1.02594721317291259766e+00) (24, 3.82156431674957275391e-01) (25, 6.55272185802459716797e-01) (26, -6.37769252061843872070e-02) (27, 1.33814597129821777344e+00) (28, 7.25426793098449707031e-01) (29, 5.17501771450042724609e-01) (30, 1.99803519248962402344e+00) (31, 3.76732766628265380859e-01) (32, 3.10111790895462036133e-01) (33, -6.29943385720252990723e-02) (34, -3.04556816816329956055e-01) (35, 1.00349195301532745361e-01) (36, 3.27297538518905639648e-01) (37, 2.02256336808204650879e-01) (0, 1.55740305781364440918e-01) (1, 1.08203575015068054199e-01) (2, 1.13448359072208404541e-01) (3, -3.77652555704116821289e-01) (4, -5.49632422626018524170e-02) (5, 8.34738239645957946777e-02) (6, 3.19445192813873291016e-01) (7, 1.11471772193908691406e+00) (8, 5.88446021080017089844e-01) (9, -3.22516858577728271484e-01) (10, 2.46745675802230834961e-01) (11, -7.05180883407592773438e-01) (12, -1.60346701741218566895e-01) (13, -1.77637100219726562500e-01) (14, 5.69464206695556640625e-01) (15, 7.98979043960571289062e-01) (16, 7.78916239738464355469e-01) (17, 6.31468415260314941406e-01) (18, 1.07424366474151611328e+00) (19, 8.14254403114318847656e-01) (20, 1.02415060997009277344e+00) (21, 1.32749736309051513672e+00) (22, 2.10200473666191101074e-01) (23, 5.94537258148193359375e-01) (24, 5.21355628967285156250e-01) (25, 1.39894723892211914062e-01) (26, 8.67546349763870239258e-02) (27, 2.48849943280220031738e-01) (28, 2.32942625880241394043e-01) (29, 1.76978766918182373047e-01) (30, 2.30917978286743164062e+00) (31, 1.61653053760528564453e+00) (32, 1.95272707939147949219e+00) (33, 1.68056190013885498047e-01) (34, 2.20301842689514160156e+00) (35, 8.80081653594970703125e-01) (36, 4.06036265194416046143e-02) (37, 1.14706940948963165283e-01) (0, -2.83701121807098388672e-01) (1, -3.50337326526641845703e-01) (2, 5.29070151969790458679e-03) (3, -4.07023608684539794922e-01) (4, -3.82216244935989379883e-01) (5, 6.60932660102844238281e-01) (6, -2.25208014249801635742e-01) (7, 2.32522398233413696289e-01) (8, 2.17235818505287170410e-01) (9, 9.89352405071258544922e-01) (10, 2.15400546789169311523e-01) (11, 3.51447433233261108398e-01) (12, 4.30103540420532226562e-01) (13, -1.85880899429321289062e+00) (14, 4.07308906316757202148e-01) (15, 3.45264911651611328125e-01) (16, 1.08412599563598632812e+00) (17, -2.25040465593338012695e-01) (18, 2.50924372673034667969e+00) (19, 1.67791759967803955078e+00) (20, 2.16484808921813964844e+00) (21, 1.99515759944915771484e+00) (22, 1.77229416370391845703e+00) (23, 1.19827377796173095703e+00) (24, 2.87080556154251098633e-01) (25, 2.01134204864501953125e-01) (26, 4.41233776509761810303e-02) (27, -2.13902354240417480469e+00) (28, -3.70686590671539306641e-01) (29, 1.00846230983734130859e-01) (30, -3.61970114707946777344e+00) (31, 1.19439446926116943359e+00) (32, -2.66168832778930664062e-01) (33, -6.73275366425514221191e-02) (34, 2.41650342941284179688e+00) (35, 7.64989480376243591309e-02) (36, 1.68159246444702148438e-01) (37, 3.26020158827304840088e-02) (0, -3.22051085531711578369e-02) (1, 1.12620174884796142578e+00) (2, 2.05409139394760131836e-01) (3, 1.01395225524902343750e+00) (4, 8.74886155128479003906e-01) (5, 3.51022100448608398438e+00) (6, 8.46761107444763183594e-01) (7, 1.16887068748474121094e+00) (8, 1.67459011077880859375e+00) (9, 1.44992768764495849609e+00) (10, 4.97590303421020507812e-01) (11, 4.64255332946777343750e-01) (12, 3.14229011535644531250e-01) (13, -5.27033448219299316406e-01) (14, 7.15975642204284667969e-01) (15, 5.44053494930267333984e-01) (16, 5.46311378479003906250e-01) (17, 7.93991923332214355469e-01) (18, 6.78719341754913330078e-01) (19, 9.86854135990142822266e-01) (20, 8.11300575733184814453e-01) (21, 1.37293326854705810547e+00) (22, 7.26324498653411865234e-01) (23, 1.01324558258056640625e+00) (24, 1.29335212707519531250e+00) (25, 2.39094644784927368164e-01) (26, 1.36114251613616943359e+00) (27, 5.82683026790618896484e-01) (28, 1.05624485015869140625e+00) (29, 5.02693951129913330078e-01) (30, 1.46342074871063232422e+00) (31, 2.45597139000892639160e-01) (32, -1.67187735438346862793e-01) (33, -5.45861542224884033203e-01) (34, -8.35289359092712402344e-01) (35, -7.33727037906646728516e-01) (36, -5.93880295753479003906e-01) (37, 4.77875769138336181641e-01) (0, 7.70158708095550537109e-01) (1, -1.73555421829223632812e+00) (2, 1.04351438581943511963e-01) (3, -3.71721595525741577148e-01) (4, 2.53742793574929237366e-04) (5, -7.01319128274917602539e-02) (6, 2.53393858671188354492e-01) (7, 3.82008194923400878906e-01) (8, -5.34714460372924804688e-01) (9, 5.76920628547668457031e-01) (10, 2.00182348489761352539e-01) (11, -5.91076835989952087402e-02) (12, -2.52653993666172027588e-02) (13, 1.95302844047546386719e-01) (14, 5.26613473892211914062e-01) (15, 5.42054295539855957031e-01) (16, 5.96384525299072265625e-01) (17, 3.03775399923324584961e-01) (18, 2.29019314050674438477e-01) (19, 1.07676994800567626953e+00) (20, 6.11480474472045898438e-01) (21, -5.33696711063385009766e-01) (22, 3.30697447061538696289e-01) (23, 9.94106352329254150391e-01) (24, 1.00066840648651123047e+00) (25, -3.45102161169052124023e-01) (26, 1.64285838603973388672e-01) (27, 1.84881895780563354492e-01) (28, 5.73765277862548828125e-01) (29, 1.81731238961219787598e-01) (30, 1.40811693668365478516e+00) (31, 2.55357575416564941406e+00) (32, 2.28396058082580566406e+00) (33, 4.59861576557159423828e-01) (34, 1.52963018417358398438e+00) (35, 7.35368824005126953125e+00) (36, 6.90242338180541992188e+00) (37, 4.85096096992492675781e-01) (0, 2.34506225585937500000e+00) (1, 2.45198345184326171875e+00) (2, 6.73084378242492675781e-01) (3, 3.93824172019958496094e+00) (4, 2.00768232345581054688e+00) (5, 1.37742489576339721680e-01) (6, 4.61132973432540893555e-02) (7, -1.53614187240600585938e+00) (8, -4.12603579461574554443e-02) (9, 8.66471529006958007812e-01) (10, -1.87857970595359802246e-01) (11, 9.53916430473327636719e-01) (12, 8.48900794982910156250e-01) (13, 5.46853363513946533203e-01) (14, -6.07784911990165710449e-02) (15, 1.18984520435333251953e+00) (16, 1.72203791141510009766e+00) (17, 1.34259596467018127441e-01) (18, 2.00666561722755432129e-01) (19, -3.90913963317871093750e-01) (20, 8.85778129100799560547e-01) (21, 1.08623534440994262695e-01) (22, 1.08106017112731933594e+00) (23, 2.01653525233268737793e-01) (24, 7.22095429897308349609e-01) (25, 6.17886900901794433594e-01) (26, 4.52347278594970703125e-01) (27, 1.03465867042541503906e+00) (28, 1.38173699378967285156e+00) (29, 3.89097183942794799805e-01) (30, -2.01961606740951538086e-01) (31, 2.29911610484123229980e-01) (32, 2.12919950485229492188e-01) (33, 2.21742197871208190918e-01) (34, 5.30447959899902343750e-01) (35, 1.16424250602722167969e+00) (36, 6.57120466232299804688e-01) (37, 5.19573807716369628906e-01) (0, 5.13831138610839843750e-01) (1, -1.72294068336486816406e+00) (2, 2.58293122053146362305e-01) (3, -7.73224681615829467773e-02) (4, -1.46348729729652404785e-01) (5, -6.62380218505859375000e-01) (6, 2.53886103630065917969e-01) (7, -8.31352993845939636230e-02) (8, -3.46350133419036865234e-01) (9, -7.22465038299560546875e-01) (10, 2.91364729404449462891e-01) (11, 2.57673929445445537567e-03) (12, -1.02678434923291206360e-02) (13, 2.62955039739608764648e-01) (14, 3.78304243087768554688e-01) (15, 1.36349990963935852051e-01) (16, 5.86792593821883201599e-03) (17, -2.02298879623413085938e-01) (18, 6.71501681208610534668e-02) (19, 2.59150445461273193359e-01) (20, 3.50607812404632568359e-01) (21, -2.28975474834442138672e-01) (22, 1.02628074586391448975e-01) (23, 1.92371740937232971191e-01) (24, 2.00946971774101257324e-01) (25, 6.81200623512268066406e-02) (26, -2.27583706378936767578e-01) (27, 4.11938279867172241211e-01) (28, 4.37158286571502685547e-01) (29, 2.85857349634170532227e-01) (30, 5.41634023189544677734e-01) (31, 2.84117054939270019531e+00) (32, 1.50939464569091796875e+00) (33, 3.37207347154617309570e-01) (34, 1.70523583889007568359e+00) (35, 1.16201102733612060547e+00) (36, 1.29209148883819580078e+00) (37, 2.58149713277816772461e-01) (0, 5.78567266464233398438e-01) (1, 3.29120188951492309570e-01) (2, 1.75568386912345886230e-01) (3, 8.01902711391448974609e-01) (4, 8.76200556755065917969e-01) (5, 3.71646463871002197266e-01) (6, 2.24718764424324035645e-01) (7, 1.08995032310485839844e+00) (8, 1.03633189201354980469e+00) (9, 2.27338984608650207520e-01) (10, 5.07496297359466552734e-01) (11, 8.06147277355194091797e-01) (12, 7.72207081317901611328e-01) (13, 2.80645936727523803711e-01) (14, 2.53056138753890991211e-01) (15, 9.39210712909698486328e-01) (16, 2.34382176399230957031e+00) (17, 1.26152276992797851562e-01) (18, 2.87393063306808471680e-01) (19, 1.02929733693599700928e-01) (20, 8.60644757747650146484e-01) (21, 1.65156461298465728760e-02) (22, 4.49754029512405395508e-01) (23, 3.93749117851257324219e-01) (24, 5.23107409477233886719e-01) (25, 4.39111471176147460938e-01) (26, 6.02134823799133300781e-01) (27, 9.93877112865447998047e-01) (28, 7.68399357795715332031e-01) (29, 3.69407832622528076172e-01) (30, 2.95818239450454711914e-01) (31, 3.28193724155426025391e-01) (32, 2.53165394067764282227e-01) (33, 1.56735613942146301270e-01) (34, 3.47131133079528808594e-01) (35, 4.70932334661483764648e-01) (36, 3.26160401105880737305e-01) (37, 2.58081018924713134766e-01) (0, 4.46210563182830810547e-01) (1, 1.60600006580352783203e-01) (2, 1.94648861885070800781e-01) (3, 8.08217167854309082031e-01) (4, 9.47375655174255371094e-01) (5, 4.52675640583038330078e-01) (6, 2.18636438250541687012e-01) (7, 8.29231858253479003906e-01) (8, 7.20650434494018554688e-01) (9, 1.86267271637916564941e-01) (10, 5.18177032470703125000e-01) (11, 8.83702933788299560547e-01) (12, 8.54539692401885986328e-01) (13, 2.97522962093353271484e-01) (14, 1.47975176572799682617e-01) (15, 8.09808254241943359375e-01) (16, 1.70788550376892089844e+00) (17, 3.01855802536010742188e-01) (18, 1.46201908588409423828e-01) (19, 3.69256436824798583984e-01) (20, 5.25422275066375732422e-01) (21, 1.62158176302909851074e-01) (22, 4.62731868028640747070e-01) (23, 5.90654253959655761719e-01) (24, 6.47674322128295898438e-01) (25, 5.88545501232147216797e-01) (26, 3.36694687604904174805e-01) (27, 8.43445897102355957031e-01) (28, 8.54211688041687011719e-01) (29, 3.57389867305755615234e-01) (30, 3.66041362285614013672e-01) (31, 3.96404922008514404297e-01) (32, 4.69731241464614868164e-01) (33, 3.23520451784133911133e-01) (34, 2.55728870630264282227e-01) (35, 5.62880218029022216797e-01) (36, 6.26000344753265380859e-01) (37, 2.39082455635070800781e-01) (0, 4.16910737752914428711e-01) (1, 1.34906888008117675781e+00) (2, 1.64011970162391662598e-01) (3, 9.26169633865356445312e-01) (4, 9.21481490135192871094e-01) (5, 2.05119013786315917969e+00) (6, 1.01372396945953369141e+00) (7, 1.05413985252380371094e+00) (8, 2.06677913665771484375e+00) (9, 2.01252055168151855469e+00) (10, 2.02318891882896423340e-01) (11, 8.13655555248260498047e-01) (12, 2.87981983274221420288e-02) (13, 4.70854550600051879883e-01) (14, 3.62794756889343261719e-01) (15, 1.06616103649139404297e+00) (16, 1.33681964874267578125e+00) (17, 6.74099385738372802734e-01) (18, 3.41306477785110473633e-01) (19, 1.39109301567077636719e+00) (20, 1.17198693752288818359e+00) (21, 8.41618001461029052734e-01) (22, 2.44858860969543457031e+00) (23, 1.04720950126647949219e+00) (24, 1.04846060276031494141e+00) (25, 1.00413107872009277344e+00) (26, 3.30483108758926391602e-01) (27, 1.19901227951049804688e+00) (28, 6.02868258953094482422e-01) (29, 4.51354771852493286133e-01) (30, 2.53493785858154296875e-01) (31, 1.17983803153038024902e-01) (32, -5.59949457645416259766e-01) (33, 4.50884103775024414062e-01) (34, -7.69818186759948730469e-01) (35, 1.38862887397408485413e-02) (36, 1.55680701136589050293e-01) (37, 2.96039074659347534180e-01) (0, 6.53499782085418701172e-01) (1, 5.21076023578643798828e-01) (2, 1.38855308294296264648e-01) (3, 9.93212342262268066406e-01) (4, 9.07155215740203857422e-01) (5, 2.80404210090637207031e-01) (6, 3.97977568209171295166e-02) (7, 6.98400676250457763672e-01) (8, 7.89815008640289306641e-01) (9, 1.44510483741760253906e+00) (10, 2.69569963216781616211e-01) (11, -6.88352882862091064453e-02) (12, 3.94668765366077423096e-02) (13, 1.70066766440868377686e-02) (14, 1.88261330127716064453e-01) (15, 1.09586521983146667480e-01) (16, 1.91603004932403564453e-01) (17, 6.74745261669158935547e-01) (18, 1.81136474013328552246e-01) (19, 2.13567519187927246094e+00) (20, 2.27665257453918457031e+00) (21, 2.49128431081771850586e-01) (22, 3.30733090639114379883e-01) (23, 1.18571317195892333984e+00) (24, 2.47464895248413085938e-01) (25, 3.79665285348892211914e-01) (26, 4.73285973072052001953e-01) (27, 7.33432829380035400391e-01) (28, 7.40117251873016357422e-01) (29, 5.07095217704772949219e-01) (30, 2.38581582903861999512e-01) (31, 2.74416595697402954102e-01) (32, 2.81643629074096679688e-01) (33, 2.40625455975532531738e-01) (34, 2.78300404548645019531e-01) (35, 5.30141115188598632812e-01) (36, 4.49250727891921997070e-01) (37, 2.07232996821403503418e-01) (0, 1.48338094353675842285e-01) (1, -1.33851432800292968750e+00) (2, 4.45669293403625488281e-01) (3, -7.75703549385070800781e-01) (4, -7.55626916885375976562e-01) (5, -1.52216970920562744141e+00) (6, 2.25894615054130554199e-01) (7, -1.37115657329559326172e-01) (8, -2.25270651280879974365e-02) (9, -5.68729996681213378906e-01) (10, 3.99104148149490356445e-01) (11, -2.91699290275573730469e-01) (12, 2.26363167166709899902e-01) (13, -4.29760813713073730469e-02) (14, 5.00469028949737548828e-01) (15, 2.47133001685142517090e-01) (16, -1.09149292111396789551e-02) (17, -3.24329525232315063477e-01) (18, -4.26356345415115356445e-02) (19, 6.32935836911201477051e-02) (20, -1.13442905247211456299e-01) (21, -2.55410730838775634766e-01) (22, 4.50399100780487060547e-01) (23, 4.93443608283996582031e-02) (24, 3.98622266948223114014e-02) (25, -5.97572982311248779297e-01) (26, 3.96571308374404907227e-01) (27, -2.97673605382442474365e-02) (28, -1.44778490066528320312e-01) (29, 3.26870858669281005859e-01) (30, 1.33333206176757812500e+00) (31, 3.16915750503540039062e-01) (32, 1.31942069530487060547e+00) (33, -5.88757544755935668945e-03) (34, 8.21830368041992187500e+00) (35, 2.29147481918334960938e+00) (36, 1.74947464466094970703e+00) (37, -9.53488051891326904297e-02) (0, 4.00262504816055297852e-01) (1, -4.84370857477188110352e-01) (2, 2.99900352954864501953e-01) (3, -1.07013511657714843750e+00) (4, -8.86709570884704589844e-01) (5, -9.40512195229530334473e-02) (6, 2.89721697568893432617e-01) (7, -2.74026036262512207031e-01) (8, 1.06356918811798095703e-01) (9, -2.32558518648147583008e-01) (10, 3.41852217912673950195e-01) (11, 2.20646709203720092773e-01) (12, 1.44212707877159118652e-01) (13, -2.18617486953735351562e+00) (14, 6.29701495170593261719e-01) (15, 1.40563130378723144531e+00) (16, 5.54885387420654296875e-01) (17, -1.00907415151596069336e-01) (18, 4.32072222232818603516e-01) (19, 1.14005672931671142578e+00) (20, 1.18908548355102539062e+00) (21, 4.24121320247650146484e-01) (22, 6.29823148250579833984e-01) (23, 1.34734821319580078125e+00) (24, 9.54530835151672363281e-01) (25, 7.00299024581909179688e-01) (26, -6.34599253535270690918e-02) (27, 4.14330601692199707031e-01) (28, 3.96144121885299682617e-01) (29, -4.12457101047039031982e-02) (30, 1.55288410186767578125e+00) (31, 1.89187884330749511719e+00) (32, 1.78502297401428222656e+00) (33, 2.82264947891235351562e-01) (34, 2.89745450019836425781e+00) (35, 3.17777609825134277344e+00) (36, 2.09104418754577636719e+00) (37, 3.89280289411544799805e-01) (0, 6.08855545520782470703e-01) (1, 4.44208383560180664062e-01) (2, 1.82386144995689392090e-01) (3, 7.31426656246185302734e-01) (4, 7.19090938568115234375e-01) (5, 3.25069338083267211914e-01) (6, 1.92111298441886901855e-01) (7, 1.06485378742218017578e+00) (8, 1.07486319541931152344e+00) (9, 1.17687809467315673828e+00) (10, 3.14334750175476074219e-01) (11, 1.12180626392364501953e+00) (12, 5.83786547183990478516e-01) (13, -1.03388249874114990234e+00) (14, 1.10588863492012023926e-01) (15, 9.11417067050933837891e-01) (16, 1.67893517017364501953e+00) (17, 1.52103972434997558594e+00) (18, 2.70051240921020507812e-01) (19, 1.07842636108398437500e+00) (20, 8.95890951156616210938e-01) (21, 2.17046245932579040527e-01) (22, 3.87013167142868041992e-01) (23, 7.40232542157173156738e-02) (24, -1.45396202802658081055e-01) (25, 3.89070034027099609375e-01) (26, 4.11971777677536010742e-01) (27, 9.46582615375518798828e-01) (28, 9.18367385864257812500e-01) (29, 3.52042853832244873047e-01) (30, 2.98972308635711669922e-01) (31, 4.97329719364643096924e-02) (32, 1.92699521780014038086e-01) (33, 2.53737419843673706055e-01) (34, 3.81496399641036987305e-01) (35, 1.00465846061706542969e+00) (36, 5.94052135944366455078e-01) (37, 2.94372975826263427734e-01) (0, 8.52424949407577514648e-02) (1, -1.41812968254089355469e+00) (2, 2.19069749116897583008e-01) (3, -6.01417481899261474609e-01) (4, -6.86985135078430175781e-01) (5, -2.34270763397216796875e+00) (6, -2.30469286441802978516e-01) (7, -1.27231374382972717285e-01) (8, 2.53694981336593627930e-01) (9, -1.41465514898300170898e-01) (10, 6.37041807174682617188e-01) (11, -3.24740618467330932617e-01) (12, 3.54209877550601959229e-02) (13, 1.81156039237976074219e-01) (14, 5.36959648132324218750e-01) (15, 1.25541701912879943848e-01) (16, 2.91791465133428573608e-02) (17, -1.34829893708229064941e-01) (18, -1.52378782629966735840e-01) (19, -2.34513059258460998535e-02) (20, -7.69461989402770996094e-02) (21, -1.25526264309883117676e-01) (22, 3.43681126832962036133e-01) (23, -5.97891025245189666748e-02) (24, -1.51686444878578186035e-01) (25, -7.06083357334136962891e-01) (26, 4.51333343982696533203e-01) (27, 2.33485370874404907227e-01) (28, 9.15677174925804138184e-02) (29, 3.80928307771682739258e-01) (30, 1.35194551944732666016e+00) (31, -2.64583639800548553467e-02) (32, 1.33725678920745849609e+00) (33, 1.40170753002166748047e-01) (34, 8.30500793457031250000e+00) (35, 1.06788599491119384766e+00) (36, 9.52996551990509033203e-01) (37, 1.59350499510765075684e-01) (0, 8.42696204781532287598e-02) (1, -1.25795054435729980469e+00) (2, 4.23544317483901977539e-01) (3, -8.01449418067932128906e-01) (4, -7.68256604671478271484e-01) (5, -1.31168758869171142578e+00) (6, 1.19113296270370483398e-01) (7, -4.11183863878250122070e-01) (8, -3.17779630422592163086e-01) (9, -1.53648793697357177734e-01) (10, 6.73670589923858642578e-01) (11, -3.58898252248764038086e-01) (12, 2.43886411190032958984e-01) (13, 2.02746495604515075684e-01) (14, 6.75730764865875244141e-01) (15, -9.51348710805177688599e-03) (16, 3.99505570530891418457e-02) (17, -3.78709971904754638672e-01) (18, 3.24919074773788452148e-01) (19, -5.99161565303802490234e-01) (20, -3.32951158285140991211e-01) (21, -2.29403793811798095703e-01) (22, 3.47987264394760131836e-01) (23, 9.14520025253295898438e-02) (24, 7.06273093819618225098e-02) (25, -7.32603311538696289062e-01) (26, 4.95302200317382812500e-01) (27, 1.30474895238876342773e-01) (28, -5.19367121160030364990e-02) (29, 2.99490422010421752930e-01) (30, 1.35483014583587646484e+00) (31, 3.32340657711029052734e-01) (32, 1.47927725315093994141e+00) (33, 2.02820241451263427734e-01) (34, 8.29993438720703125000e+00) (35, 9.23094570636749267578e-01) (36, 1.84121274948120117188e+00) (37, -6.01959303021430969238e-02) (0, -2.84456163644790649414e-01) (1, 3.56085747480392456055e-01) (2, 1.37486800551414489746e-01) (3, 8.85562062263488769531e-01) (4, -1.65954887866973876953e-01) (5, 2.23551654815673828125e+00) (6, 3.28109741210937500000e-01) (7, 4.54318851232528686523e-01) (8, 4.85485225915908813477e-01) (9, 4.22896766662597656250e+00) (10, 1.41079992055892944336e-01) (11, 3.05450826883316040039e-01) (12, 2.96454057097434997559e-02) (13, 1.17809653282165527344e+00) (14, 7.77628183364868164062e-01) (15, 1.25438892841339111328e+00) (16, 1.54239785671234130859e+00) (17, 2.93550395965576171875e+00) (18, -2.01084464788436889648e-01) (19, 2.52014327049255371094e+00) (20, 2.68657088279724121094e+00) (21, 9.91059243679046630859e-01) (22, 5.32729268074035644531e-01) (23, 1.43901348114013671875e+00) (24, 1.15427434444427490234e+00) (25, 1.03043401241302490234e+00) (26, 3.02510172128677368164e-01) (27, 2.26274871826171875000e+00) (28, 2.97959184646606445312e+00) (29, 6.69670641422271728516e-01) (30, 5.99816069006919860840e-02) (31, 1.18010170757770538330e-01) (32, 5.82914888858795166016e-01) (33, 3.27616244554519653320e-01) (34, -6.75188422203063964844e-01) (35, -9.04952287673950195312e-01) (36, -1.20529270172119140625e+00) (37, 4.53893274068832397461e-01) (0, 1.04963675141334533691e-01) (1, -2.05503749847412109375e+00) (2, 5.69672733545303344727e-02) (3, -6.01504564285278320312e-01) (4, -2.54300355911254882812e-01) (5, -3.06598162651062011719e+00) (6, 2.83413499593734741211e-01) (7, 2.10013151168823242188e-01) (8, 6.84590995311737060547e-01) (9, -6.28309667110443115234e-01) (10, 6.97528183460235595703e-01) (11, -2.39848062396049499512e-01) (12, 2.03827723860740661621e-01) (13, 4.76805083453655242920e-02) (14, 6.57738745212554931641e-01) (15, -6.00039549171924591064e-02) (16, 1.74521449953317642212e-02) (17, -5.56809067726135253906e-01) (18, -1.52341231703758239746e-01) (19, 6.70160800218582153320e-02) (20, -1.02267837524414062500e+00) (21, -3.38542550802230834961e-01) (22, 4.58334416151046752930e-01) (23, 6.27827504649758338928e-03) (24, 7.08385631442070007324e-02) (25, -6.22278451919555664062e-01) (26, 4.69873696565628051758e-01) (27, 4.84570525586605072021e-02) (28, 2.43147939443588256836e-01) (29, 3.04656594991683959961e-01) (30, 1.45324087142944335938e+00) (31, -6.12909793853759765625e-02) (32, 1.09162402153015136719e+00) (33, 2.76847541332244873047e-01) (34, 1.09488811492919921875e+01) (35, 2.26869130134582519531e+00) (36, 2.20391535758972167969e+00) (37, -8.88793990015983581543e-02) (0, 1.39538741111755371094e+00) (1, 1.29236316680908203125e+00) (2, 3.69305300712585449219e+00) (3, 3.11611104011535644531e+00) (4, 2.38903975486755371094e+00) (5, 3.81771802902221679688e+00) (6, 2.73527956008911132812e+00) (7, -2.76208817958831787109e-01) (8, 2.64143317937850952148e-01) (9, 7.18556356430053710938e+00) (10, 1.59313082695007324219e+00) (11, 3.41980904340744018555e-01) (12, -1.39220809936523437500e+00) (13, 5.60833454132080078125e-01) (14, -2.06515058875083923340e-01) (15, 2.15996623039245605469e-01) (16, 4.44498151540756225586e-01) (17, 1.25209987163543701172e+00) (18, -5.58083653450012207031e-02) (19, 1.40640127658843994141e+00) (20, 1.98430466651916503906e+00) (21, -3.39791941642761230469e+00) (22, 2.05032444000244140625e+00) (23, -1.40932470560073852539e-01) (24, -2.26460409164428710938e+00) (25, 1.48938333988189697266e+00) (26, 4.54575717449188232422e-01) (27, -5.61034965515136718750e+00) (28, -1.51670303344726562500e+01) (29, 2.79850888252258300781e+00) (30, -3.67221689224243164062e+00) (31, -5.17290592193603515625e-01) (32, -3.83445334434509277344e+00) (33, -5.81822443008422851562e+00) (34, -3.11866272240877151489e-02) (35, 1.16332376003265380859e+00) (36, 1.27267014980316162109e+00) (37, 5.37949383258819580078e-01) (0, 5.69217979907989501953e-01) (1, 9.41212594509124755859e-01) (2, 3.63141834735870361328e-01) (3, 1.62743699550628662109e+00) (4, 1.23561775684356689453e+00) (5, 5.24772167205810546875e-01) (6, 4.54172074794769287109e-01) (7, 6.95041656494140625000e-01) (8, 7.79301822185516357422e-01) (9, 1.15590596199035644531e+00) (10, 2.22699791193008422852e-01) (11, -1.32607817649841308594e-01) (12, -2.30587407946586608887e-01) (13, 5.41379988193511962891e-01) (14, 9.52909812331199645996e-02) (15, -8.57143402099609375000e-02) (16, 7.65139386057853698730e-02) (17, 1.86093664169311523438e+00) (18, 2.06578269600868225098e-01) (19, 3.48372316360473632812e+00) (20, 3.34733009338378906250e+00) (21, 5.01895844936370849609e-01) (22, 2.47172981500625610352e-01) (23, 2.59202659130096435547e-01) (24, 2.08023458719253540039e-01) (25, 5.17066240310668945312e-01) (26, 3.18352520465850830078e-01) (27, 2.68186688423156738281e-01) (28, 4.07010376453399658203e-01) (29, 5.56016623973846435547e-01) (30, 3.04708361625671386719e-01) (31, 4.82763141393661499023e-01) (32, 1.47931069135665893555e-01) (33, 5.56980907917022705078e-01) (34, 1.14671319723129272461e-01) (35, 5.57578921318054199219e-01) (36, 4.28457200527191162109e-01) (37, 3.77616345882415771484e-01) (0, 1.14431180059909820557e-01) (1, -1.10960781574249267578e+00) (2, 3.58155459165573120117e-01) (3, -7.28629112243652343750e-01) (4, -6.94994688034057617188e-01) (5, -1.06504905223846435547e+00) (6, 2.95320808887481689453e-01) (7, -1.87490805983543395996e-01) (8, -3.76880615949630737305e-02) (9, -1.08626174926757812500e+00) (10, 6.59729301929473876953e-01) (11, -3.21925073862075805664e-01) (12, -1.76429584622383117676e-01) (13, 1.15193046629428863525e-01) (14, 4.53482925891876220703e-01) (15, 1.56430136412382125854e-02) (16, 1.15708686411380767822e-01) (17, -2.71299839019775390625e-01) (18, 3.03557813167572021484e-01) (19, -2.99140900373458862305e-01) (20, -2.61157065629959106445e-01) (21, 3.38802486658096313477e-01) (22, 4.96475756168365478516e-01) (23, -2.36855149269104003906e-01) (24, -6.92506730556488037109e-02) (25, -3.10193210840225219727e-01) (26, 6.09707415103912353516e-01) (27, 6.32292106747627258301e-02) (28, -1.19639456272125244141e-01) (29, 4.24702584743499755859e-01) (30, 6.04931116104125976562e-01) (31, 3.76356273889541625977e-01) (32, 1.50940716266632080078e+00) (33, 1.81325152516365051270e-01) (34, 8.31114101409912109375e+00) (35, 1.05250108242034912109e+00) (36, 1.11230814456939697266e+00) (37, 9.74740460515022277832e-02) (0, 9.34287786483764648438e-01) (1, 8.98177433013916015625e+00) (2, -4.94493842124938964844e-01) (3, 6.78647756576538085938e-01) (4, 5.91427743434906005859e-01) (5, 3.41486239433288574219e+00) (6, 4.84659999608993530273e-01) (7, 6.96683585643768310547e-01) (8, 3.02203536033630371094e+00) (9, 1.77937209606170654297e+00) (10, 1.60283401608467102051e-01) (11, 7.16831445693969726562e-01) (12, 1.43469199538230895996e-01) (13, -2.77852952480316162109e-01) (14, 4.67274598777294158936e-02) (15, 4.51599806547164916992e-01) (16, 5.15599250793457031250e-01) (17, 2.82422018051147460938e+00) (18, 6.23183310031890869141e-01) (19, 5.73252201080322265625e+00) (20, 2.05533647537231445312e+00) (21, 1.07866084575653076172e+00) (22, -4.11470830440521240234e-01) (23, 6.55724406242370605469e-01) (24, 5.69918930530548095703e-01) (25, 9.43991541862487792969e-01) (26, -2.46406412124633789062e+00) (27, 1.02338719367980957031e+00) (28, 5.56266605854034423828e-01) (29, 5.52138209342956542969e-01) (30, 5.05616426467895507812e-01) (31, 4.87474262714385986328e-01) (32, -3.14118623733520507812e-01) (33, -2.53169871866703033447e-02) (34, -1.15918052196502685547e+00) (35, 4.01765614748001098633e-01) (36, 1.89683333039283752441e-01) (37, 5.51016330718994140625e-01) (0, 6.79477214813232421875e-01) (1, 1.09512841701507568359e+00) (2, 2.03361675143241882324e-01) (3, 6.32727861404418945312e-01) (4, 5.17383873462677001953e-01) (5, 1.09749466180801391602e-01) (6, -3.22034329175949096680e-01) (7, 3.37690174579620361328e-01) (8, 2.59621411561965942383e-01) (9, 1.24037063121795654297e+00) (10, 1.23548775911331176758e-01) (11, 1.30085840821266174316e-01) (12, 1.45490795373916625977e-01) (13, 1.85830190777778625488e-01) (14, 6.97782188653945922852e-02) (15, 1.18121966719627380371e-01) (16, 6.70617341995239257812e-01) (17, 1.06024134159088134766e+00) (18, 3.33991080522537231445e-01) (19, 2.18433547019958496094e+00) (20, 2.18414020538330078125e+00) (21, 2.08419412374496459961e-01) (22, 2.62521654367446899414e-01) (23, 6.55549049377441406250e-01) (24, -9.35980826616287231445e-02) (25, 3.85560363531112670898e-01) (26, 5.18014609813690185547e-01) (27, 4.58925455808639526367e-01) (28, 4.31077986955642700195e-01) (29, 4.38361078500747680664e-01) (30, 2.98983365297317504883e-01) (31, 2.31789633631706237793e-01) (32, 2.34988644719123840332e-01) (33, 2.74209737777709960938e-01) (34, 8.25425386428833007812e-02) (35, 3.99254411458969116211e-01) (36, 2.53480911254882812500e-01) (37, 3.64517420530319213867e-01) (0, 1.71192705631256103516e-01) (1, -1.31620252132415771484e+00) (2, 4.07909691333770751953e-01) (3, -8.33532989025115966797e-01) (4, -6.79910123348236083984e-01) (5, -2.41766071319580078125e+00) (6, 1.98141589760780334473e-01) (7, -1.61806106567382812500e-01) (8, -5.07731400430202484131e-02) (9, -2.17949777841567993164e-01) (10, 4.21682447195053100586e-01) (11, -4.36902761459350585938e-01) (12, 1.56633108854293823242e-01) (13, 8.86034667491912841797e-01) (14, 3.91121119260787963867e-01) (15, 6.58703735098242759705e-03) (16, 8.74053239822387695312e-02) (17, -3.51048976182937622070e-01) (18, -1.50655910372734069824e-01) (19, 1.30982533097267150879e-01) (20, -1.46984383463859558105e-01) (21, -1.51935324072837829590e-01) (22, 4.36166167259216308594e-01) (23, 4.03438135981559753418e-02) (24, -9.67585742473602294922e-02) (25, -5.92977523803710937500e-01) (26, 4.89819049835205078125e-01) (27, 1.19364500045776367188e-01) (28, -2.84215770661830902100e-02) (29, 4.38479900360107421875e-01) (30, 1.11423742771148681641e+00) (31, 1.01157732307910919189e-01) (32, 1.50950801372528076172e+00) (33, -3.54599915444850921631e-02) (34, 8.23084259033203125000e+00) (35, 1.79222035408020019531e+00) (36, 1.26385056972503662109e+00) (37, -5.08631952106952667236e-03) (0, 3.35135698318481445312e-01) (1, 1.17477560043334960938e+00) (2, 1.46399542689323425293e-01) (3, 1.08244979381561279297e+00) (4, 1.00099718570709228516e+00) (5, 2.24712920188903808594e+00) (6, 6.38968527317047119141e-01) (7, 5.22248744964599609375e-01) (8, 8.54804337024688720703e-01) (9, 1.03439462184906005859e+00) (10, 8.74498933553695678711e-02) (11, 3.55300009250640869141e-01) (12, -2.69520767033100128174e-02) (13, 9.32418346405029296875e-01) (14, 3.31180393695831298828e-01) (15, 1.36859333515167236328e+00) (16, 1.50109112262725830078e+00) (17, 8.88252139091491699219e-01) (18, 6.77053809165954589844e-01) (19, 1.50305211544036865234e+00) (20, 1.42239522933959960938e+00) (21, 1.06551480293273925781e+00) (22, 6.97134256362915039062e-01) (23, 6.24496459960937500000e-01) (24, 6.69670343399047851562e-01) (25, 6.11493706703186035156e-01) (26, 3.67552042007446289062e-01) (27, 1.82427704334259033203e+00) (28, 7.68933296203613281250e-01) (29, 3.18484365940093994141e-01) (30, 2.36285179853439331055e-02) (31, -2.03504841774702072144e-02) (32, -2.99003779888153076172e-01) (33, 3.34062904119491577148e-01) (34, -4.17780518531799316406e-01) (35, -2.08897650241851806641e-01) (36, -2.38004818558692932129e-01) (37, 4.13672953844070434570e-01) (0, 5.91043531894683837891e-01) (1, 3.46731066703796386719e-01) (2, 2.24187806248664855957e-01) (3, 8.11274230480194091797e-01) (4, 6.95191621780395507812e-01) (5, 3.10769826173782348633e-01) (6, 1.13780438899993896484e-01) (7, 8.09705913066864013672e-01) (8, 8.60059022903442382812e-01) (9, 5.60021698474884033203e-01) (10, 7.22568854689598083496e-02) (11, 7.67457857728004455566e-02) (12, 7.79976621270179748535e-02) (13, 2.84673899412155151367e-01) (14, -3.72957251965999603271e-02) (15, 1.07090008258819580078e+00) (16, 9.57927286624908447266e-01) (17, 3.54022383689880371094e-01) (18, 2.10720106959342956543e-01) (19, 4.12563234567642211914e-02) (20, 3.05501133203506469727e-01) (21, 3.07488232851028442383e-01) (22, 1.87577381730079650879e-01) (23, 1.78901448845863342285e-01) (24, 2.22834557294845581055e-01) (25, 7.05274343490600585938e-01) (26, 5.20720243453979492188e-01) (27, 8.90600562095642089844e-01) (28, 9.18737590312957763672e-01) (29, 1.80898830294609069824e-01) (30, 1.43634557723999023438e-01) (31, 3.98681908845901489258e-01) (32, 3.02783578634262084961e-01) (33, 1.53721377253532409668e-01) (34, 1.99189305305480957031e-01) (35, 3.77917677164077758789e-01) (36, 3.81231874227523803711e-01) (37, 2.75337249040603637695e-01) (0, 7.71810054779052734375e-01) (1, 2.28291463851928710938e+00) (2, 5.06391286849975585938e-01) (3, 8.04720282554626464844e-01) (4, 9.17421281337738037109e-01) (5, 4.43421316146850585938e+00) (6, 1.49948930740356445312e+00) (7, 1.01782989501953125000e+00) (8, 1.36005985736846923828e+00) (9, 1.81724178791046142578e+00) (10, 4.78404611349105834961e-01) (11, 3.28370600938796997070e-01) (12, 7.13730007410049438477e-02) (13, 6.99589431285858154297e-01) (14, 5.06684243679046630859e-01) (15, 1.47762441635131835938e+00) (16, 1.40492832660675048828e+00) (17, 3.58106017112731933594e+00) (18, 3.79193216562271118164e-01) (19, 2.42461371421813964844e+00) (20, 2.25705742835998535156e+00) (21, 1.24957680702209472656e+00) (22, 1.72389197349548339844e+00) (23, 2.94125437736511230469e+00) (24, 2.07006025314331054688e+00) (25, 2.35213017463684082031e+00) (26, -9.25776064395904541016e-02) (27, 1.41418147087097167969e+00) (28, 8.46474885940551757812e-01) (29, 4.15192902088165283203e-01) (30, 2.48474383354187011719e+00) (31, -3.45025062561035156250e-01) (32, -1.23215878009796142578e+00) (33, 2.25115239620208740234e-01) (34, -9.53866720199584960938e-01) (35, -8.40954065322875976562e-01) (36, -1.90854221582412719727e-01) (37, 4.59194898605346679688e-01) (0, 4.32069122791290283203e-01) (1, 1.95296120643615722656e+00) (2, 7.32851922512054443359e-01) (3, 8.17629516124725341797e-01) (4, 9.77629363536834716797e-01) (5, 2.47171545028686523438e+00) (6, 7.24397301673889160156e-01) (7, 5.52069544792175292969e-01) (8, 9.38196539878845214844e-01) (9, 1.06255507469177246094e+00) (10, 3.76124799251556396484e-01) (11, 5.50676524639129638672e-01) (12, -2.84579768776893615723e-03) (13, 8.82243096828460693359e-01) (14, 2.97130972146987915039e-01) (15, 1.33457612991333007812e+00) (16, 1.56698262691497802734e+00) (17, 1.05592286586761474609e+00) (18, 4.41431075334548950195e-01) (19, 2.05570483207702636719e+00) (20, 2.30433678627014160156e+00) (21, 8.41661393642425537109e-01) (22, 5.84695100784301757812e-01) (23, 1.02418696880340576172e+00) (24, 1.09651434421539306641e+00) (25, 7.75544643402099609375e-01) (26, 7.07613646984100341797e-01) (27, 1.25759851932525634766e+00) (28, 7.07584798336029052734e-01) (29, 1.36702761054039001465e-01) (30, 5.61100661754608154297e-01) (31, 9.41625237464904785156e-01) (32, 6.58106863498687744141e-01) (33, 1.55859753489494323730e-01) (34, -6.82092010974884033203e-01) (35, -1.18723914027214050293e-01) (36, -1.41697689890861511230e-01) (37, 3.57269257307052612305e-01) (0, -1.73373377323150634766e+00) (1, -2.61910557746887207031e-01) (2, -4.91225831210613250732e-02) (3, -3.08458179235458374023e-01) (4, -3.34282279014587402344e-01) (5, 1.15918099880218505859e+00) (6, 1.34979024529457092285e-01) (7, 3.52965414524078369141e-01) (8, -6.02502942085266113281e-01) (9, 8.92555952072143554688e-01) (10, 3.73280346393585205078e-01) (11, -2.54283881187438964844e+00) (12, -2.69114345312118530273e-01) (13, 5.17650187015533447266e-01) (14, 6.90175294876098632812e-01) (15, 1.78318047523498535156e+00) (16, 1.34163939952850341797e+00) (17, 9.45439338684082031250e-01) (18, 6.00496053695678710938e-01) (19, 1.42808890342712402344e+00) (20, 1.18240618705749511719e+00) (21, 9.87236380577087402344e-01) (22, 5.71553930640220642090e-02) (23, 2.51454323530197143555e-01) (24, -3.22187215089797973633e-01) (25, 1.20750129222869873047e+00) (26, 3.24409365653991699219e-01) (27, 8.37989628314971923828e-01) (28, 3.16202282905578613281e-01) (29, 3.32076191902160644531e-01) (30, 9.36239898204803466797e-01) (31, 5.40394496917724609375e+00) (32, 5.53190374374389648438e+00) (33, 2.31863930821418762207e-01) (34, 1.51808583736419677734e+00) (35, 4.84252786636352539062e+00) (36, 3.91337060928344726562e+00) (37, 4.95450913906097412109e-01) (0, 1.40777230262756347656e-01) (1, -6.41098201274871826172e-01) (2, 6.01933300495147705078e-02) (3, -6.91252291202545166016e-01) (4, -4.19475585222244262695e-01) (5, -4.67693746089935302734e-01) (6, 1.01418599486351013184e-01) (7, -6.26289322972297668457e-02) (8, 2.21936360001564025879e-01) (9, 7.28027582168579101562e-01) (10, 1.66765987873077392578e-01) (11, 2.28083178400993347168e-01) (12, 1.35300502181053161621e-01) (13, 6.63773536682128906250e-01) (14, 4.77632820606231689453e-01) (15, 4.17200118303298950195e-01) (16, 7.31063127517700195312e-01) (17, 4.95736658573150634766e-01) (18, 2.39432886242866516113e-01) (19, 1.17599463462829589844e+00) (20, 6.07943773269653320312e-01) (21, -9.04743298888206481934e-02) (22, 3.69192451238632202148e-01) (23, 3.19339543581008911133e-01) (24, 4.11529839038848876953e-01) (25, 2.70620793104171752930e-01) (26, 8.32535177469253540039e-02) (27, 2.31326594948768615723e-01) (28, -3.07760953903198242188e-01) (29, 2.42404192686080932617e-01) (30, 7.69903898239135742188e-01) (31, 1.43614339828491210938e+00) (32, 1.30984616279602050781e+00) (33, 5.29649496078491210938e-01) (34, -2.73555755615234375000e-01) (35, 3.02858543395996093750e+00) (36, 3.06660127639770507812e+00) (37, 5.70780396461486816406e-01) (0, 1.46005177497863769531e+00) (1, 1.21325170993804931641e+00) (2, 4.56526309251785278320e-01) (3, 8.85671317577362060547e-01) (4, 1.05049371719360351562e+00) (5, -5.36695301532745361328e-01) (6, 4.74659204483032226562e-01) (7, 3.34909372031688690186e-02) (8, 4.99157249927520751953e-01) (9, 3.41613411903381347656e+00) (10, 3.62109780311584472656e-01) (11, 9.18425381183624267578e-01) (12, 1.11157310009002685547e+00) (13, 5.40249288082122802734e-01) (14, 1.36962920427322387695e-01) (15, 2.21610140800476074219e+00) (16, 2.36331176757812500000e+00) (17, 9.83587026596069335938e-01) (18, -3.99068593978881835938e-01) (19, 1.40648150444030761719e+00) (20, 1.37412345409393310547e+00) (21, 1.76904469728469848633e-01) (22, -1.72434234619140625000e+00) (23, 1.05957336723804473877e-01) (24, -2.20592439174652099609e-01) (25, 4.29751455783843994141e-01) (26, 7.41097450256347656250e-01) (27, 6.97763264179229736328e-01) (28, 6.95973873138427734375e-01) (29, 1.57647684216499328613e-01) (30, 1.92527070641517639160e-01) (31, -2.74848341941833496094e-01) (32, 3.14400866627693176270e-02) (33, -6.73479512333869934082e-02) (34, -1.85554146766662597656e-01) (35, -2.75227501988410949707e-02) (36, 3.73495399951934814453e-01) (37, 4.17318902909755706787e-02) (0, 3.15730243921279907227e-01) (1, 1.29699397087097167969e+00) (2, 1.05421453714370727539e-01) (3, -4.81711298227310180664e-01) (4, 3.65356504917144775391e-02) (5, 5.13339377939701080322e-02) (6, 2.07534313201904296875e-01) (7, 2.23081232979893684387e-03) (8, -6.74148797988891601562e-01) (9, 3.03035318851470947266e-01) (10, 2.06928819417953491211e-01) (11, 4.71062995493412017822e-02) (12, 7.41028366610407829285e-03) (13, 2.65034288167953491211e-01) (14, 4.14244413375854492188e-01) (15, 6.76272869110107421875e-01) (16, 3.31456482410430908203e-01) (17, -3.40423732995986938477e-01) (18, 6.40528425574302673340e-02) (19, -7.09995925426483154297e-02) (20, -1.37559482827782630920e-02) (21, 6.92989826202392578125e-01) (22, 3.70212554931640625000e-01) (23, 5.00351786613464355469e-01) (24, 2.94057697057723999023e-01) (25, 4.07135896384716033936e-02) (26, 4.21221584081649780273e-01) (27, 6.39028549194335937500e-01) (28, 6.65915966033935546875e-01) (29, 2.82218009233474731445e-01) (30, -2.15724253654479980469e+00) (31, 2.71155548095703125000e+00) (32, 1.61725604534149169922e+00) (33, 4.83043968677520751953e-01) (34, -1.06513984501361846924e-01) (35, 3.76704192161560058594e+00) (36, 4.09875822067260742188e+00) (37, 3.69679689407348632812e-01) (0, -3.31012248992919921875e-01) (1, -6.00121974945068359375e-01) (2, -2.06515654921531677246e-01) (3, -7.72613763809204101562e-01) (4, -5.83941280841827392578e-01) (5, -1.14385199546813964844e+00) (6, 4.58836592733860015869e-02) (7, 3.25476340949535369873e-02) (8, -3.02625775337219238281e-01) (9, -4.36027616262435913086e-01) (10, 4.20063495635986328125e-01) (11, -3.84486228227615356445e-01) (12, 1.95672690868377685547e-01) (13, 4.75404620170593261719e-01) (14, 4.31457221508026123047e-01) (15, -1.13168716430664062500e-01) (16, 4.54595834016799926758e-02) (17, -2.68557071685791015625e-01) (18, 2.25317001342773437500e-01) (19, 1.08837813138961791992e-01) (20, -4.56551760435104370117e-01) (21, 6.28943815827369689941e-02) (22, 5.48391699790954589844e-01) (23, 1.11679539084434509277e-01) (24, 7.07752928137779235840e-02) (25, -5.51372051239013671875e-01) (26, 4.46256548166275024414e-01) (27, 3.77557456493377685547e-01) (28, 2.09591910243034362793e-01) (29, 3.19274604320526123047e-01) (30, 1.39423990249633789062e+00) (31, 8.29585611820220947266e-01) (32, 1.36299121379852294922e+00) (33, 4.84991967678070068359e-01) (34, 8.30335617065429687500e+00) (35, 1.10202801227569580078e+00) (36, 8.19210946559906005859e-01) (37, 1.31247594952583312988e-01) (0, 2.19057187438011169434e-01) (1, -2.80800104141235351562e-01) (2, 4.05816525220870971680e-01) (3, -2.28312397003173828125e+00) (4, -1.38203322887420654297e+00) (5, 2.72629648447036743164e-01) (6, 4.66797590255737304688e-01) (7, -4.84260208904743194580e-02) (8, -3.15331555902957916260e-02) (9, 3.06325763463973999023e-01) (10, 1.88653200864791870117e-01) (11, 2.77302950620651245117e-01) (12, 3.58673632144927978516e-01) (13, 4.17153418064117431641e-01) (14, 3.86023014783859252930e-01) (15, 3.74221026897430419922e-01) (16, 3.69393378496170043945e-01) (17, -3.85540157556533813477e-01) (18, 2.38388076424598693848e-01) (19, 4.83350306749343872070e-01) (20, 6.89341068267822265625e-01) (21, 7.17617422342300415039e-02) (22, 8.21893103420734405518e-03) (23, 6.95164442062377929688e-01) (24, 2.52105265855789184570e-01) (25, -1.02104675024747848511e-02) (26, 3.23756621219217777252e-03) (27, 2.14313775300979614258e-01) (28, 1.44404423236846923828e+00) (29, 1.01933382451534271240e-01) (30, 9.71798419952392578125e-01) (31, 1.29506301879882812500e+00) (32, 1.50335574150085449219e+00) (33, 1.34978160262107849121e-01) (34, 1.38330483436584472656e+00) (35, 1.69715023040771484375e+00) (36, 2.43533515930175781250e+00) (37, 2.34216824173927307129e-01) (0, 1.01813497021794319153e-02) (1, -1.80648612976074218750e+00) (2, 6.02463245391845703125e-01) (3, -6.96645319461822509766e-01) (4, -6.13532483577728271484e-01) (5, -2.30552363395690917969e+00) (6, 4.72370713949203491211e-01) (7, -4.27628979086875915527e-02) (8, -5.59463948011398315430e-02) (9, -3.71937721967697143555e-01) (10, 3.84294182062149047852e-01) (11, -5.08732683956623077393e-02) (12, 2.68059253692626953125e-01) (13, -4.02867905795574188232e-02) (14, 3.11722576618194580078e-01) (15, 8.92178341746330261230e-02) (16, -5.98616562783718109131e-02) (17, -5.28368711471557617188e-01) (18, 3.55118274688720703125e-01) (19, -3.50879967212677001953e-01) (20, -5.18878579139709472656e-01) (21, -4.24689114093780517578e-01) (22, 4.57311272621154785156e-01) (23, -2.11166068911552429199e-01) (24, -1.57738909125328063965e-01) (25, -4.62961405515670776367e-01) (26, 6.77425980567932128906e-01) (27, -1.36620640754699707031e-01) (28, -2.53259718418121337891e-01) (29, 4.80215489864349365234e-01) (30, 7.22223162651062011719e-01) (31, 6.14737644791603088379e-02) (32, 1.11624109745025634766e+00) (33, -4.11665588617324829102e-02) (34, 1.10727968215942382812e+01) (35, 1.75368654727935791016e+00) (36, 1.36965990066528320312e+00) (37, 4.98499013483524322510e-02) (0, 6.20360553264617919922e-01) (1, -1.98651179671287536621e-01) (2, 3.50472301244735717773e-01) (3, 9.93043839931488037109e-01) (4, 8.67807090282440185547e-01) (5, 8.33234608173370361328e-01) (6, 2.31304585933685302734e-01) (7, 8.23981821537017822266e-01) (8, 8.95361244678497314453e-01) (9, 3.68215918540954589844e+00) (10, 1.55440226197242736816e-01) (11, 1.50064632296562194824e-01) (12, 3.08366656303405761719e-01) (13, 3.97275507450103759766e-01) (14, 7.49155953526496887207e-02) (15, 1.04714083671569824219e+00) (16, 8.43230485916137695312e-01) (17, 7.02138721942901611328e-01) (18, -1.26659154891967773438e-01) (19, 1.38613820075988769531e+00) (20, 1.19199359416961669922e+00) (21, 4.33622211217880249023e-01) (22, 3.82099181413650512695e-01) (23, 1.02986836433410644531e+00) (24, 1.29902422428131103516e+00) (25, 4.80399042367935180664e-01) (26, 2.11573049426078796387e-01) (27, 8.58981370925903320312e-01) (28, 9.76082980632781982422e-01) (29, 2.71205097436904907227e-01) (30, 2.69109606742858886719e-01) (31, 1.27099201083183288574e-01) (32, 3.07131320238113403320e-01) (33, 1.57774925231933593750e-01) (34, 1.58974751830101013184e-01) (35, 5.64783453941345214844e-01) (36, 4.67280060052871704102e-01) (37, 1.38465046882629394531e-01) (0, 3.24463933706283569336e-01) (1, 2.46734991669654846191e-01) (2, 2.40810441970825195312e+00) (3, 9.65184867382049560547e-01) (4, 7.50332891941070556641e-01) (5, 1.33182501792907714844e+00) (6, 1.96761548519134521484e-01) (7, 8.87534379959106445312e-01) (8, 8.86337697505950927734e-01) (9, 8.99365723133087158203e-01) (10, 3.08640927076339721680e-01) (11, 5.34284710884094238281e-01) (12, 8.80463480949401855469e-01) (13, 1.86945497989654541016e-01) (14, 1.77920445799827575684e-01) (15, -1.12143896520137786865e-01) (16, -4.48842763900756835938e+00) (17, -4.05930191278457641602e-01) (18, 1.63120463490486145020e-01) (19, 1.71715998649597167969e+00) (20, 1.70882630348205566406e+00) (21, 3.16842466592788696289e-01) (22, 1.05467271804809570312e+00) (23, -8.60948413610458374023e-02) (24, 1.43681555986404418945e-01) (25, 3.82297456264495849609e-01) (26, -9.97916162014007568359e-01) (27, -5.53641378879547119141e-01) (28, -2.03815519809722900391e-01) (29, -6.03057146072387695312e-01) (30, 5.44696450233459472656e-01) (31, 2.74324536323547363281e-01) (32, 1.59517198801040649414e-01) (33, 2.55951255559921264648e-01) (34, 2.45164656639099121094e+00) (35, 1.27652418613433837891e+00) (36, 1.14935994148254394531e+00) (37, 9.82785746455192565918e-02) (0, 4.83748960494995117188e+00) (1, -3.74082297086715698242e-01) (2, 6.37788176536560058594e-01) (3, 1.35455036163330078125e+00) (4, 7.47624516487121582031e-01) (5, 3.21644335985183715820e-01) (6, 1.30018517374992370605e-01) (7, 6.83926045894622802734e-01) (8, 7.67812013626098632812e-01) (9, 9.58402216434478759766e-01) (10, 2.13247537612915039062e-01) (11, -3.24703782796859741211e-01) (12, -5.70427954196929931641e-01) (13, 1.19279123842716217041e-01) (14, 1.64091095328330993652e-01) (15, 1.03870165348052978516e+00) (16, 1.38819098472595214844e+00) (17, 1.54920756816864013672e-01) (18, 3.06891202926635742188e-01) (19, 1.09772324562072753906e+00) (20, 1.10992443561553955078e+00) (21, 2.65897393226623535156e-01) (22, 2.79128015041351318359e-01) (23, 7.67791330814361572266e-01) (24, 6.13561332225799560547e-01) (25, 2.47325316071510314941e-01) (26, 4.15984839200973510742e-01) (27, 5.32135605812072753906e-01) (28, 6.05314135551452636719e-01) (29, 3.17862600088119506836e-01) (30, 3.54460060596466064453e-01) (31, 2.63935148715972900391e-01) (32, 3.36325854063034057617e-01) (33, 2.76763498783111572266e-01) (34, 3.77632945775985717773e-01) (35, 3.93322020769119262695e-01) (36, 3.50707143545150756836e-01) (37, 3.12575101852416992188e-01) (0, 1.59943044185638427734e-01) (1, -5.75524210929870605469e-01) (2, 1.57747138291597366333e-02) (3, -6.21479630470275878906e-01) (4, -6.28280878067016601562e-01) (5, -4.06750775873661041260e-02) (6, 1.89157754182815551758e-01) (7, -7.51190334558486938477e-02) (8, -6.37853145599365234375e-01) (9, 4.60462987422943115234e-01) (10, 2.63766199350357055664e-01) (11, -2.34406776726245880127e-02) (12, -5.69783598184585571289e-02) (13, 6.92067086696624755859e-01) (14, 5.76795756816864013672e-01) (15, 8.25843691825866699219e-01) (16, 5.09445071220397949219e-01) (17, -6.71005189418792724609e-01) (18, 6.08814537525177001953e-01) (19, 6.61656737327575683594e-01) (20, 5.92049837112426757812e-01) (21, 9.89247485995292663574e-03) (22, 3.29882651567459106445e-01) (23, 5.53982734680175781250e-01) (24, 5.57880043983459472656e-01) (25, -3.96528765559196472168e-02) (26, 3.18176209926605224609e-01) (27, 5.30527941882610321045e-02) (28, 9.43801760673522949219e-01) (29, 4.14183884859085083008e-01) (30, 2.90048003196716308594e-01) (31, 1.50176167488098144531e+00) (32, 1.63039958477020263672e+00) (33, 5.90209901332855224609e-01) (34, -3.06526243686676025391e-01) (35, 3.48142051696777343750e+00) (36, 3.48708415031433105469e+00) (37, 4.17744159698486328125e-01) (0, 4.62198376655578613281e-01) (1, -5.67237883806228637695e-02) (2, 3.06972026824951171875e-01) (3, 6.75237357616424560547e-01) (4, 8.05880486965179443359e-01) (5, 4.30721670389175415039e-01) (6, 3.24344277381896972656e-01) (7, 1.27712106704711914062e+00) (8, 1.11505341529846191406e+00) (9, 1.95192039012908935547e-01) (10, 5.64085543155670166016e-01) (11, 1.07993483543395996094e+00) (12, 1.72914338111877441406e+00) (13, 9.65756714344024658203e-01) (14, 2.43891537189483642578e-01) (15, 2.00316739082336425781e+00) (16, 1.88015341758728027344e+00) (17, -3.57993654906749725342e-02) (18, 3.40329647064208984375e-01) (19, 7.14634060859680175781e-01) (20, 4.87101137638092041016e-01) (21, 1.16171911358833312988e-01) (22, 3.15368622541427612305e-01) (23, 3.34810793399810791016e-01) (24, 2.14073270559310913086e-01) (25, 4.36650216579437255859e-01) (26, 3.34659755229949951172e-01) (27, 7.67387747764587402344e-01) (28, 8.15291047096252441406e-01) (29, 1.49715051054954528809e-01) (30, 2.41405367851257324219e-01) (31, 2.85732895135879516602e-01) (32, 2.47518792748451232910e-01) (33, 2.29397267103195190430e-01) (34, 2.85683125257492065430e-01) (35, 1.56053280830383300781e+00) (36, 7.57711350917816162109e-01) (37, 2.87938326597213745117e-01) (0, 3.92336130142211914062e+00) (1, 6.24124050140380859375e-01) (2, 5.24807572364807128906e-01) (3, 1.04008340835571289062e+00) (4, 8.91622900962829589844e-01) (5, 1.16918337345123291016e+00) (6, 4.97217811644077301025e-02) (7, 9.03892874717712402344e-01) (8, 8.26044321060180664062e-01) (9, 3.55543226003646850586e-01) (10, 1.27034521102905273438e+00) (11, -3.26649934053421020508e-01) (12, 7.19655513763427734375e-01) (13, 3.52757155895233154297e-01) (14, 1.28784254193305969238e-01) (15, 1.70042723417282104492e-01) (16, 2.93455868959426879883e-01) (17, -8.60039353370666503906e-01) (18, -4.26566988229751586914e-01) (19, 4.93983626365661621094e-01) (20, 6.71954452991485595703e-01) (21, 2.05803494900465011597e-02) (22, 4.99208390712738037109e-01) (23, -2.79245686531066894531e+00) (24, -1.97237884998321533203e+00) (25, 3.36216151714324951172e-01) (26, 4.49774563312530517578e-01) (27, 6.12368941307067871094e-01) (28, 7.09898173809051513672e-01) (29, -6.15953952074050903320e-02) (30, 4.67595845460891723633e-01) (31, 1.57686993479728698730e-01) (32, 2.37717241048812866211e-01) (33, 4.47113066911697387695e-02) (34, -8.36667865514755249023e-02) (35, 4.23927575349807739258e-01) (36, 9.16193664073944091797e-01) (37, 4.01500388979911804199e-02) (0, 4.26528215408325195312e-01) (1, 4.37095135450363159180e-01) (2, 3.99530053138732910156e-01) (3, 8.88629376888275146484e-01) (4, 1.01583325862884521484e+00) (5, 3.36855918169021606445e-01) (6, 1.84951469302177429199e-01) (7, 7.76063919067382812500e-01) (8, 7.63293087482452392578e-01) (9, 1.34612560272216796875e+00) (10, 3.01201701164245605469e-01) (11, 5.16762435436248779297e-01) (12, 6.33128821849822998047e-01) (13, 3.19034636020660400391e-01) (14, -1.14405276253819465637e-02) (15, 2.39356487989425659180e-01) (16, 5.70161342620849609375e-01) (17, 4.39658761024475097656e-01) (18, 2.54944283515214920044e-02) (19, 5.40742516517639160156e-01) (20, 5.42639672756195068359e-01) (21, 1.03554666042327880859e-01) (22, 5.86976885795593261719e-01) (23, 1.69842231273651123047e+00) (24, 4.18205112218856811523e-01) (25, 3.25936466455459594727e-01) (26, 2.05085873603820800781e-01) (27, 8.53707194328308105469e-01) (28, 9.29826140403747558594e-01) (29, 3.92088741064071655273e-01) (30, 3.25736075639724731445e-01) (31, 2.81825900077819824219e-01) (32, 1.15467973053455352783e-01) (33, 2.47621431946754455566e-01) (34, 1.74254760146141052246e-01) (35, 5.39132475852966308594e-01) (36, 4.29559588432312011719e-01) (37, 2.00825542211532592773e-01) (0, 5.71316361427307128906e-01) (1, -5.89179933071136474609e-01) (2, 8.79506826400756835938e-01) (3, 1.26937747001647949219e+00) (4, 1.27006649971008300781e+00) (5, 3.31846892833709716797e-01) (6, 3.50837558507919311523e-01) (7, 6.72143161296844482422e-01) (8, 8.10647249221801757812e-01) (9, 1.35008060932159423828e+00) (10, 2.13940829038619995117e-01) (11, -2.46236145496368408203e-01) (12, -5.60142956674098968506e-02) (13, 4.41507130861282348633e-01) (14, 1.24642945826053619385e-01) (15, 6.24466896057128906250e-01) (16, 1.30913007259368896484e+00) (17, 6.24488294124603271484e-01) (18, 2.42216899991035461426e-01) (19, 2.06471180915832519531e+00) (20, 1.11894071102142333984e+00) (21, 2.21912100911140441895e-01) (22, 3.57041746377944946289e-01) (23, 3.25251907110214233398e-01) (24, 4.21792328357696533203e-01) (25, 5.22321224212646484375e-01) (26, 6.62533342838287353516e-02) (27, 6.96651816368103027344e-01) (28, 6.64929091930389404297e-01) (29, 2.38909080624580383301e-01) (30, 1.84883624315261840820e-01) (31, 2.17643693089485168457e-01) (32, 9.47500616312026977539e-02) (33, 1.55518352985382080078e-01) (34, 2.52634465694427490234e-01) (35, 2.03624784946441650391e-01) (36, 3.28591406345367431641e-01) (37, 3.21701318025588989258e-01) (0, 7.85884201526641845703e-01) (1, 6.35840296745300292969e-01) (2, 2.99673885107040405273e-01) (3, 1.31254744529724121094e+00) (4, 1.26464045047760009766e+00) (5, 1.52993738651275634766e+00) (6, 7.38426566123962402344e-01) (7, 9.22378957271575927734e-01) (8, 1.01646447181701660156e+00) (9, 9.56412255764007568359e-01) (10, 1.79891169071197509766e+00) (11, 3.44933629035949707031e-01) (12, 1.41449987888336181641e-01) (13, 5.51529407501220703125e-01) (14, 4.45711195468902587891e-01) (15, 4.46007877588272094727e-01) (16, 1.07417440414428710938e+00) (17, 1.71619844436645507812e+00) (18, 4.14167523384094238281e-01) (19, 2.33496117591857910156e+00) (20, 1.71844482421875000000e+00) (21, 8.81875991821289062500e-01) (22, 1.15629863739013671875e+00) (23, 4.07510370016098022461e-01) (24, 3.54591786861419677734e-01) (25, 6.46845519542694091797e-01) (26, -2.57152616977691650391e-02) (27, 4.79698270559310913086e-01) (28, 1.12490189075469970703e+00) (29, 5.67643582820892333984e-01) (30, 5.95608949661254882812e-01) (31, 3.61046284437179565430e-01) (32, -2.93664876371622085571e-02) (33, -3.21721211075782775879e-02) (34, -7.52015411853790283203e-01) (35, -1.44172415137290954590e-01) (36, 2.38182619214057922363e-01) (37, 4.64874595403671264648e-01) (0, -5.39301156997680664062e+00) (1, 1.92192518711090087891e+00) (2, 7.96614587306976318359e-01) (3, 3.33569854497909545898e-01) (4, 8.45047056674957275391e-01) (5, 2.69376575946807861328e-01) (6, 4.65142503380775451660e-02) (7, -1.09288299083709716797e+00) (8, -1.98499417304992675781e+00) (9, 2.42894148826599121094e+00) (10, -1.19022615253925323486e-01) (11, -3.36629956960678100586e-01) (12, -1.34990915656089782715e-01) (13, -6.84870481491088867188e-01) (14, -1.17187447845935821533e-01) (15, 3.71276959776878356934e-02) (16, 2.60458916425704956055e-01) (17, 2.48372626304626464844e+00) (18, 2.54662013053894042969e+00) (19, -1.38713568449020385742e-01) (20, 9.03472840785980224609e-01) (21, 2.36494302749633789062e-01) (22, 7.33422875404357910156e-01) (23, -1.47507339715957641602e-01) (24, 2.58075505495071411133e-01) (25, 5.71500957012176513672e-01) (26, 4.18206870555877685547e-01) (27, 4.79128062725067138672e-01) (28, 2.62872189283370971680e-01) (29, -1.68966814875602722168e-01) (30, -3.36509513854980468750e+00) (31, 1.44851967692375183105e-01) (32, -5.69690406322479248047e-01) (33, -1.80684161186218261719e+00) (34, -3.05902928113937377930e-01) (35, 1.44942939281463623047e+00) (36, 1.47746598720550537109e+00) (37, 5.88587999343872070312e-01) (0, 9.45600748062133789062e-01) (1, -2.66222745180130004883e-01) (2, 9.03077840805053710938e-01) (3, 1.32017898559570312500e+00) (4, 1.36652767658233642578e+00) (5, 2.91841566562652587891e-01) (6, 3.09760451316833496094e-01) (7, 9.49813544750213623047e-01) (8, 8.10606420040130615234e-01) (9, 3.60334801673889160156e+00) (10, 3.20818513631820678711e-01) (11, -2.59695410728454589844e-01) (12, -1.70537769794464111328e-01) (13, 1.71887183189392089844e+00) (14, 9.49280783534049987793e-02) (15, 1.20004987716674804688e+00) (16, 1.16236960887908935547e+00) (17, 1.06341981887817382812e+00) (18, -9.10930261015892028809e-02) (19, 1.29922306537628173828e+00) (20, 9.95515704154968261719e-01) (21, 5.69837212562561035156e-01) (22, -1.06858992576599121094e+00) (23, 5.60851097106933593750e-01) (24, 6.35329306125640869141e-01) (25, 4.95799928903579711914e-01) (26, -6.26631200313568115234e-01) (27, 5.00227391719818115234e-01) (28, 5.52333295345306396484e-01) (29, 1.75141587853431701660e-01) (30, -1.85854697227478027344e+00) (31, -7.05577880144119262695e-02) (32, -1.43750250339508056641e-01) (33, 2.39077508449554443359e-01) (34, 2.23722368478775024414e-01) (35, 5.23571670055389404297e-01) (36, 5.92413485050201416016e-01) (37, 4.64904069900512695312e-01) (0, 4.34307664632797241211e-01) (1, 1.84839248657226562500e-01) (2, 5.23422956466674804688e-01) (3, 8.97522628307342529297e-01) (4, 8.45333874225616455078e-01) (5, 5.41786432266235351562e-01) (6, 2.28349670767784118652e-01) (7, 9.03163075447082519531e-01) (8, 7.33974933624267578125e-01) (9, 1.17295563220977783203e+00) (10, 2.88604497909545898438e-01) (11, 4.03695970773696899414e-01) (12, 6.95733308792114257812e-01) (13, 5.20217157900333404541e-02) (14, 1.19203321635723114014e-01) (15, 7.48310685157775878906e-01) (16, 7.10269689559936523438e-01) (17, 5.77117621898651123047e-01) (18, 3.05508583784103393555e-01) (19, 1.93386065959930419922e+00) (20, 1.88848900794982910156e+00) (21, 2.56929844617843627930e-01) (22, 3.33311855792999267578e-01) (23, 3.68510067462921142578e-01) (24, 3.27031075954437255859e-01) (25, 4.08976227045059204102e-01) (26, 3.27691763639450073242e-01) (27, 9.70003306865692138672e-01) (28, 1.06909656524658203125e+00) (29, 2.42602393031120300293e-01) (30, 4.63132292032241821289e-01) (31, 2.08344727754592895508e-01) (32, 2.70062863826751708984e-01) (33, 1.66420325636863708496e-01) (34, 2.19424530863761901855e-01) (35, 3.62211823463439941406e-01) (36, 3.16619753837585449219e-01) (37, 2.39071369171142578125e-01) (0, -7.33342617750167846680e-02) (1, -7.14333951473236083984e-01) (2, -2.68303364515304565430e-01) (3, -6.87406241893768310547e-01) (4, -5.84113657474517822266e-01) (5, -1.56665468215942382812e+00) (6, -3.50235216319561004639e-02) (7, -1.97096303105354309082e-01) (8, -3.49758893251419067383e-01) (9, -1.32561469078063964844e+00) (10, 6.46038413047790527344e-01) (11, -5.49908697605133056641e-01) (12, 1.40149027109146118164e-01) (13, -4.77457702159881591797e-01) (14, 3.77180397510528564453e-01) (15, -3.60800027847290039062e-02) (16, 3.34954969584941864014e-02) (17, -3.03081691265106201172e-01) (18, -1.25017553567886352539e-01) (19, 1.33087830618023872375e-02) (20, -1.18995778262615203857e-01) (21, 4.93657380342483520508e-01) (22, 9.08450782299041748047e-02) (23, 7.89193622767925262451e-03) (24, 2.18548402190208435059e-01) (25, -5.30891656875610351562e-01) (26, 3.37489634752273559570e-01) (27, -1.55236393213272094727e-01) (28, -6.89545571804046630859e-01) (29, 1.99294582009315490723e-01) (30, 1.54900753498077392578e+00) (31, 5.01105010509490966797e-01) (32, 2.04653501510620117188e+00) (33, 6.12582802772521972656e-01) (34, 8.80829429626464843750e+00) (35, 3.46818834543228149414e-01) (36, 7.49461710453033447266e-01) (37, -9.18180420994758605957e-02) (0, -1.70397058129310607910e-01) (1, -7.08683490753173828125e-01) (2, -4.94047075510025024414e-01) (3, -7.39612996578216552734e-01) (4, -5.91860532760620117188e-01) (5, -1.67131435871124267578e+00) (6, -1.24774709343910217285e-01) (7, -7.88938999176025390625e-01) (8, -2.96568810939788818359e-01) (9, -7.76779770851135253906e-01) (10, 4.99017715454101562500e-01) (11, -3.63586634397506713867e-01) (12, 2.40828558802604675293e-01) (13, 2.17042982578277587891e-01) (14, 5.86879432201385498047e-01) (15, 5.40961474180221557617e-02) (16, 1.34404480457305908203e-01) (17, -2.75167673826217651367e-01) (18, -3.65583486855030059814e-02) (19, -9.59377139806747436523e-02) (20, -2.28769674897193908691e-01) (21, -1.18140898644924163818e-01) (22, 6.25039637088775634766e-01) (23, 1.97062417864799499512e-01) (24, 4.69214290380477905273e-01) (25, -6.56792342662811279297e-01) (26, 4.75846707820892333984e-01) (27, 3.18832039833068847656e-01) (28, 2.79808044433593750000e-01) (29, 3.06160807609558105469e-01) (30, 1.38071858882904052734e+00) (31, 1.98225900530815124512e-01) (32, 1.33186364173889160156e+00) (33, 7.24997460842132568359e-01) (34, 8.22079944610595703125e+00) (35, 1.00882089138031005859e+00) (36, 9.42743301391601562500e-01) (37, 1.77154809236526489258e-01) (0, 5.39359748363494873047e-01) (1, 2.27008938789367675781e+00) (2, 8.29246342182159423828e-02) (3, 1.15449023246765136719e+00) (4, 1.03053486347198486328e+00) (5, 8.93328428268432617188e-01) (6, 8.28316807746887207031e-02) (7, 5.27437388896942138672e-01) (8, 9.51063275337219238281e-01) (9, 1.17968618869781494141e+00) (10, 1.12752109766006469727e-01) (11, 2.47234389185905456543e-01) (12, 5.98586648702621459961e-02) (13, 6.81920170783996582031e-01) (14, 7.56165683269500732422e-01) (15, 1.28628182411193847656e+00) (16, 1.49611771106719970703e+00) (17, 8.89033734798431396484e-01) (18, 2.35666349530220031738e-01) (19, 9.26325440406799316406e-01) (20, 2.17780089378356933594e+00) (21, 8.98467361927032470703e-01) (22, 5.47580361366271972656e-01) (23, 4.92934942245483398438e-01) (24, 1.30806267261505126953e+00) (25, 6.02731466293334960938e-01) (26, 3.63128691911697387695e-01) (27, 1.32981944084167480469e+00) (28, 8.17858695983886718750e-01) (29, 4.19585704803466796875e-01) (30, 3.48049193620681762695e-01) (31, -1.08762219548225402832e-01) (32, -2.64772742986679077148e-01) (33, 5.04845082759857177734e-01) (34, -2.14731350541114807129e-01) (35, -7.26629644632339477539e-02) (36, 6.91426023840904235840e-02) (37, 2.19168096780776977539e-01) (0, -2.93026477098464965820e-01) (1, -3.23802971839904785156e+00) (2, 9.35985207557678222656e-01) (3, -3.18466842174530029297e-01) (4, -2.95193847268819808960e-02) (5, -1.84935259819030761719e+00) (6, 3.43235939741134643555e-01) (7, -2.14258238673210144043e-01) (8, -1.85937881469726562500e-01) (9, -4.66704487800598144531e-01) (10, 7.02202916145324707031e-01) (11, -3.72666329145431518555e-01) (12, 1.62148684263229370117e-01) (13, 1.63328438997268676758e-01) (14, 4.15957868099212646484e-01) (15, -3.35092574357986450195e-01) (16, -1.28645468503236770630e-02) (17, -4.16397273540496826172e-01) (18, 6.72244191169738769531e-01) (19, -1.71820744872093200684e-01) (20, -4.17974978685379028320e-01) (21, -5.95700085163116455078e-01) (22, 4.69828397035598754883e-01) (23, -2.97543928027153015137e-02) (24, -8.43734517693519592285e-02) (25, -1.45483291149139404297e+00) (26, 8.42877507209777832031e-01) (27, 1.00974768400192260742e-01) (28, -3.33026677370071411133e-01) (29, 5.52995443344116210938e-01) (30, 7.23966062068939208984e-01) (31, -1.01634049788117408752e-02) (32, 1.05990505218505859375e+00) (33, 3.25753360986709594727e-01) (34, 1.10418176651000976562e+01) (35, 1.36469697952270507812e+00) (36, 2.03694438934326171875e+00) (37, 1.47266566753387451172e-01) (0, -7.42016127333045005798e-03) (1, -9.55925762653350830078e-01) (2, -2.65865594148635864258e-01) (3, -8.15229296684265136719e-01) (4, -7.82011628150939941406e-01) (5, -1.64337491989135742188e+00) (6, 6.68196678161621093750e-02) (7, -1.91774927079677581787e-02) (8, 1.24247502535581588745e-02) (9, -5.02840816974639892578e-01) (10, 4.50880140066146850586e-01) (11, -3.10872733592987060547e-01) (12, 2.10762813687324523926e-01) (13, 3.22747707366943359375e-01) (14, 4.23098921775817871094e-01) (15, 9.89492088556289672852e-02) (16, 1.24959498643875122070e-01) (17, -2.86630690097808837891e-01) (18, 2.98504114151000976562e-01) (19, 1.71224623918533325195e-01) (20, -1.05197533965110778809e-01) (21, -8.84393602609634399414e-02) (22, 4.77338850498199462891e-01) (23, 1.56922280788421630859e-01) (24, 1.32155314087867736816e-01) (25, -5.60304701328277587891e-01) (26, 5.10238528251647949219e-01) (27, 4.27974388003349304199e-02) (28, -9.75240245461463928223e-02) (29, 2.32157036662101745605e-01) (30, 1.42442739009857177734e+00) (31, -4.08293455839157104492e-02) (32, 1.41425204277038574219e+00) (33, 8.15997794270515441895e-02) (34, 6.75669908523559570312e+00) (35, 2.45960521697998046875e+00) (36, 1.78605484962463378906e+00) (37, -1.86229690909385681152e-01) (0, 1.54568850994110107422e-01) (1, -1.01346075534820556641e+00) (2, 5.86295902729034423828e-01) (3, -5.81525564193725585938e-01) (4, -2.93930679559707641602e-01) (5, -2.61417484283447265625e+00) (6, 3.37901890277862548828e-01) (7, 9.50396526604890823364e-03) (8, -6.69525116682052612305e-02) (9, -2.16661155223846435547e-01) (10, 6.05103731155395507812e-01) (11, -3.96772891283035278320e-01) (12, 9.15765538811683654785e-02) (13, 2.05161362886428833008e-01) (14, 4.57390427589416503906e-01) (15, 2.86656618118286132812e-01) (16, 2.09022402763366699219e-01) (17, 8.01283214241266250610e-03) (18, -1.34227275848388671875e-01) (19, 1.77598223090171813965e-02) (20, 1.09322322532534599304e-02) (21, 3.96586991846561431885e-02) (22, 4.57896471023559570312e-01) (23, 8.41471087187528610229e-03) (24, 5.53699210286140441895e-03) (25, -5.18679857254028320312e-01) (26, 5.93249619007110595703e-01) (27, 2.52296209335327148438e-01) (28, -5.87897002696990966797e-02) (29, 3.67810249328613281250e-01) (30, 8.20902168750762939453e-01) (31, -2.19239406287670135498e-02) (32, 1.20978295803070068359e+00) (33, 2.66218811273574829102e-01) (34, 2.26836514472961425781e+00) (35, 9.27884280681610107422e-01) (36, 1.45700943470001220703e+00) (37, 8.08368101716041564941e-02) (0, 1.67084777355194091797e+00) (1, 4.28388804197311401367e-01) (2, -2.98577528446912765503e-02) (3, 1.48823797702789306641e+00) (4, 1.34292423725128173828e+00) (5, 1.46783387660980224609e+00) (6, 1.16337037086486816406e+00) (7, 9.58165824413299560547e-01) (8, 8.05624783039093017578e-01) (9, 1.72356939315795898438e+00) (10, 6.07119977474212646484e-01) (11, 3.13311874866485595703e-01) (12, -1.12097747623920440674e-02) (13, 1.52362596988677978516e+00) (14, 8.04066419601440429688e-01) (15, 4.60464686155319213867e-01) (16, 4.35675621032714843750e-01) (17, 2.45733118057250976562e+00) (18, 6.00759208202362060547e-01) (19, 1.06131362915039062500e+00) (20, 1.02345907688140869141e+00) (21, 9.50852334499359130859e-01) (22, 2.42935955524444580078e-01) (23, 3.25516641139984130859e-01) (24, 3.56768190860748291016e-01) (25, 6.28128111362457275391e-01) (26, -2.50389337539672851562e-01) (27, 9.06710565090179443359e-01) (28, 1.04152870178222656250e+00) (29, 7.27546095848083496094e-01) (30, 1.44349232316017150879e-01) (31, 1.17521233856678009033e-01) (32, -5.29407620429992675781e-01) (33, 7.22378790378570556641e-02) (34, 1.94115519523620605469e+00) (35, 6.07076525688171386719e-01) (36, 1.52017563581466674805e-01) (37, 7.16281831264495849609e-01) (0, 4.36188429594039916992e-01) (1, -6.33473247289657592773e-02) (2, 5.06570301949977874756e-02) (3, -7.26829648017883300781e-01) (4, -5.72996675968170166016e-01) (5, -4.50465321540832519531e-01) (6, 1.71031385660171508789e-01) (7, 3.07673335075378417969e-01) (8, 4.49828982353210449219e-01) (9, 6.57502934336662292480e-02) (10, 3.30559790134429931641e-01) (11, 3.13153229653835296631e-02) (12, 1.23570524156093597412e-01) (13, 8.05443644523620605469e-01) (14, 3.27626258134841918945e-01) (15, 4.02005523443222045898e-01) (16, 2.08806321024894714355e-01) (17, -5.41077852249145507812e-02) (18, 3.09405952692031860352e-01) (19, 3.56235116720199584961e-01) (20, 3.10227006673812866211e-01) (21, 1.91422879695892333984e-01) (22, 3.03493082523345947266e-01) (23, 2.33752414584159851074e-01) (24, 3.55542719364166259766e-01) (25, 2.29959324002265930176e-01) (26, 2.65123844146728515625e-01) (27, 2.18012273311614990234e-01) (28, 4.01593327522277832031e-01) (29, 2.25999519228935241699e-01) (30, 5.27212321758270263672e-01) (31, 7.67119348049163818359e-01) (32, 9.24186825752258300781e-01) (33, 2.87935674190521240234e-01) (34, 1.52005875110626220703e+00) (35, 3.19419413805007934570e-01) (36, 2.88424670696258544922e-01) (37, 1.55039772391319274902e-01) (38, 9.31875705718994140625e-01) (39, 3.15208248794078826904e-02) (40, 9.43180561065673828125e-01) (41, 8.31677764654159545898e-02) (42, 1.56520441174507141113e-01) (43, -1.81042909622192382812e-01) (44, -2.99570846557617187500e+00) (45, 3.88388186693191528320e-01) (46, -2.91833020746707916260e-02) (47, 5.26308000087738037109e-01) (48, -1.62926658987998962402e-01) (49, 6.82104349136352539062e-01) (50, 1.14041253924369812012e-01) (51, -5.91282099485397338867e-02) (52, 5.53380995988845825195e-02) (53, -1.39427170157432556152e-01) (54, -7.72114098072052001953e-01) (55, 5.31875014305114746094e-01) (56, -4.04917448759078979492e-02) (57, 8.46779048442840576172e-01) (58, 6.44215285778045654297e-01) (59, -7.82528370618820190430e-02) (60, 1.10608324408531188965e-01) (61, -1.82982251048088073730e-01) (62, -1.48178115487098693848e-01) (63, -6.09205305576324462891e-01) (64, 4.88821625709533691406e-01) (65, -5.82583807408809661865e-02) (66, 7.68723845481872558594e-01) (67, 1.87155194580554962158e-02) (68, -1.68940015137195587158e-02) (69, -4.92388047277927398682e-02) (70, 1.10057137906551361084e-01) (71, -1.66718006134033203125e+00) (72, -6.18793308734893798828e-01) (73, 1.71290598809719085693e-02) (74, 3.67167502641677856445e-01) (75, 1.13814055919647216797e+00) (76, 5.09198367595672607422e-01) (77, -1.74580347537994384766e+00) (78, -9.30538773536682128906e-02) (79, -1.80697113275527954102e-01) (80, -1.60244088619947433472e-02) (81, 6.72135829925537109375e-01) (82, 1.04333445429801940918e-01) (83, -7.37814605236053466797e-01) (84, -1.21265808120369911194e-02) (85, 1.86062939465045928955e-02) (86, 5.01714162528514862061e-02) (87, -1.55447256565093994141e+00) (88, 9.06286016106605529785e-02) (89, -1.82785987854003906250e-02) (90, 1.81774723529815673828e+00) (91, 2.06070208549499511719e+00) (92, 1.16427600383758544922e-01) (93, 7.47586250305175781250e-01) (94, 1.94114243984222412109e+00) (95, 6.64305746555328369141e-01) (96, -2.74412840604782104492e-01) (97, 5.43770015239715576172e-01) (98, 1.15579150617122650146e-01) (38, 5.98252773284912109375e-01) (39, -2.22069751471281051636e-02) (40, 3.20153713226318359375e-01) (41, -6.05294853448867797852e-03) (42, 5.29657769948244094849e-03) (43, -4.63074803352355957031e-01) (44, -3.78328472375869750977e-01) (45, 2.36357021331787109375e+00) (46, -2.53229618072509765625e-01) (47, 1.12519621849060058594e+00) (48, 1.00856161117553710938e+00) (49, 8.52872252464294433594e-01) (50, 8.17551910877227783203e-01) (51, 9.43113207817077636719e-01) (52, -9.97636541724205017090e-02) (53, -9.69377875328063964844e-01) (54, 6.64783596992492675781e-01) (55, 2.89067745208740234375e+00) (56, -4.13047456741333007812e+00) (57, 1.26616561412811279297e+00) (58, 6.47694826126098632812e-01) (59, 1.40217006206512451172e+00) (60, 1.06496429443359375000e+00) (61, -2.05711245536804199219e+00) (62, -1.37472069263458251953e+00) (63, -9.18383777141571044922e-01) (64, 2.80203193426132202148e-01) (65, -2.45841002464294433594e+00) (66, 9.31768894195556640625e-01) (67, -1.79356157779693603516e-01) (68, 6.43931448459625244141e-01) (69, -4.53543752431869506836e-01) (70, -2.03578338027000427246e-01) (71, 9.40771460533142089844e-01) (72, 4.38286662101745605469e-01) (73, 9.26578417420387268066e-02) (74, 7.14705049991607666016e-01) (75, -3.64943712949752807617e-01) (76, -2.14622569084167480469e+00) (77, 8.31458508968353271484e-01) (78, -4.22193241119384765625e+00) (79, 7.69163429737091064453e-01) (80, 2.07584953308105468750e+00) (81, -6.66880607604980468750e+00) (82, 1.97779715061187744141e-01) (83, 5.76645731925964355469e-01) (84, 1.13913965225219726562e+00) (85, -1.81794911623001098633e-02) (86, -1.50345191359519958496e-01) (87, 8.43673050403594970703e-01) (88, -3.73104363679885864258e-02) (89, 1.24433267116546630859e+00) (90, -1.17522830963134765625e+01) (91, 2.27467942237854003906e+00) (92, -2.57349997758865356445e-01) (93, 7.96063125133514404297e-01) (94, 8.00776660442352294922e-01) (95, 9.22943830490112304688e-01) (96, -3.20491731166839599609e-01) (97, -5.27954161167144775391e-01) (98, -1.50558018684387207031e+00) (38, 2.08922576904296875000e+00) (39, -1.50329336524009704590e-01) (40, 9.64313626289367675781e-01) (41, -2.06693723797798156738e-01) (42, -5.13300485908985137939e-02) (43, -1.75885736942291259766e-01) (44, 5.56924223899841308594e-01) (45, 3.52029383182525634766e-01) (46, -1.31814762949943542480e-01) (47, 6.23126924037933349609e-01) (48, 3.95093634724617004395e-02) (49, 6.80267333984375000000e-01) (50, 1.11817523837089538574e-01) (51, 1.21058270335197448730e-01) (52, -2.40496754646301269531e-01) (53, -1.63833662867546081543e-01) (54, 1.36640679836273193359e+00) (55, 6.53882622718811035156e-01) (56, -2.86984685808420181274e-02) (57, 1.27217841148376464844e+00) (58, 9.11154925823211669922e-01) (59, -2.36301407217979431152e-01) (60, 8.21677744388580322266e-01) (61, -2.74168580770492553711e-01) (62, 9.73216965794563293457e-02) (63, 8.12417447566986083984e-01) (64, -1.84587895870208740234e-01) (65, -1.47112488746643066406e-01) (66, 1.03553998470306396484e+00) (67, -2.04460039734840393066e-01) (68, 2.37764436751604080200e-02) (69, -2.17436537146568298340e-01) (70, -2.76231914758682250977e-01) (71, 8.47655892372131347656e-01) (72, -1.02719627320766448975e-02) (73, 1.26792825758457183838e-02) (74, 5.51453292369842529297e-01) (75, 3.30887579917907714844e+00) (76, 6.37135088443756103516e-01) (77, 1.04898428916931152344e+00) (78, 2.06236205995082855225e-02) (79, 1.59888863563537597656e-01) (80, 7.47333932667970657349e-03) (81, 7.26012527942657470703e-01) (82, 4.00600321590900421143e-02) (83, -6.35702684521675109863e-02) (84, -4.60899807512760162354e-02) (85, -4.58870269358158111572e-02) (86, -2.52053856849670410156e-01) (87, 8.54744076728820800781e-01) (88, -4.27005030214786529541e-02) (89, -1.58345904201269149780e-02) (90, 1.64641427993774414062e+00) (91, 1.94312322139739990234e+00) (92, -2.50414937734603881836e-01) (93, 1.11843776702880859375e+00) (94, 2.08014082908630371094e+00) (95, 1.19826292991638183594e+00) (96, -2.17997685074806213379e-01) (97, 1.75445890426635742188e+00) (98, 1.54907092452049255371e-01) (38, 3.50557386875152587891e-01) (39, 4.40445095300674438477e-01) (40, 1.56998947262763977051e-01) (41, 4.80627179145812988281e-01) (42, 5.16333401203155517578e-01) (43, 6.67110145092010498047e-01) (44, -1.78770110011100769043e-01) (45, 2.89959383010864257812e+00) (46, -2.78162002563476562500e+00) (47, 2.23431944847106933594e-01) (48, 3.20835971832275390625e+00) (49, -1.50056304410099983215e-02) (50, -3.94684910774230957031e-01) (51, 8.54460144042968750000e+00) (52, 1.49947553873062133789e-01) (53, 6.25726640224456787109e-01) (54, 4.30536448955535888672e-01) (55, 2.34710901975631713867e-01) (56, 6.19990944862365722656e-01) (57, 5.72008490562438964844e-01) (58, 2.35551640391349792480e-01) (59, 1.06101727485656738281e+00) (60, 5.50819039344787597656e-02) (61, -3.16143417358398437500e+00) (62, 1.35883975028991699219e+00) (63, 2.32504308223724365234e-01) (64, 7.60834646224975585938e+00) (65, 4.81791138648986816406e-01) (66, 5.43777108192443847656e-01) (67, 4.27607208490371704102e-01) (68, 7.68915891647338867188e-01) (69, 5.20760416984558105469e-01) (70, 4.68074083328247070312e-01) (71, -1.92420399188995361328e+00) (72, -1.45681172609329223633e-01) (73, 7.63911724090576171875e-01) (74, 1.07513964176177978516e-01) (75, 1.64375796914100646973e-01) (76, -1.23621158301830291748e-01) (77, 3.05772751569747924805e-01) (78, 9.71849381923675537109e-01) (79, -5.30676078796386718750e+00) (80, 7.37386322021484375000e+00) (81, -1.47706698626279830933e-02) (82, 5.47546148300170898438e-01) (83, 1.08471698760986328125e+01) (84, 1.24350316822528839111e-01) (85, 2.06919884681701660156e+00) (86, 1.30016160011291503906e+00) (87, -4.51191139221191406250e+00) (88, 3.46714782714843750000e+00) (89, 7.37078130245208740234e-01) (90, 1.53800785541534423828e-01) (91, 3.05435210466384887695e-01) (92, 6.12592816352844238281e-01) (93, 2.91497290134429931641e-01) (94, 3.42512071132659912109e-01) (95, 2.85826623439788818359e-01) (96, 5.16891479492187500000e+00) (97, -8.29973667860031127930e-02) (98, 7.79769003391265869141e-01) (38, 5.93264865875244140625e+00) (39, -2.02086776494979858398e-01) (40, 2.18161153793334960938e+00) (41, -1.77811741828918457031e-01) (42, -1.48155516944825649261e-03) (43, -2.51972228288650512695e-01) (44, 1.46480917930603027344e+00) (45, 4.94779974222183227539e-01) (46, -2.53069609403610229492e-01) (47, 7.86710321903228759766e-01) (48, -2.23134886473417282104e-02) (49, 6.73060536384582519531e-01) (50, -1.01012602448463439941e-01) (51, -1.06966026127338409424e-01) (52, -2.95729818753898143768e-03) (53, -1.78108826279640197754e-01) (54, -5.44524252414703369141e-01) (55, 6.28015339374542236328e-01) (56, -1.75728853791952133179e-02) (57, 1.33819222450256347656e+00) (58, 1.10731554031372070312e+00) (59, -1.19259631633758544922e+00) (60, 7.94815599918365478516e-01) (61, 3.80030795931816101074e-02) (62, -1.80614396929740905762e-01) (63, 6.62177860736846923828e-01) (64, -1.14298236370086669922e+00) (65, -1.62535488605499267578e-01) (66, 3.30349117517471313477e-01) (67, -1.69824779033660888672e-01) (68, 6.73901960253715515137e-02) (69, -2.97183752059936523438e-01) (70, -2.40530371665954589844e-01) (71, 2.16085076332092285156e+00) (72, 8.56468260288238525391e-01) (73, -7.69382417201995849609e-02) (74, 2.79887855052947998047e-01) (75, 1.88844287395477294922e+00) (76, 5.76883316040039062500e-01) (77, 1.21357083320617675781e+00) (78, -7.00038969516754150391e-02) (79, 9.74354326725006103516e-01) (80, -9.12494063377380371094e-02) (81, 5.38590371608734130859e-01) (82, -1.17354869842529296875e+00) (83, 4.60459515452384948730e-02) (84, 2.74034473113715648651e-03) (85, -1.42584487795829772949e-01) (86, -1.56630903482437133789e-01) (87, 4.59442090988159179688e+00) (88, -6.50108337402343750000e-01) (89, -6.30922913551330566406e-02) (90, 9.81895864009857177734e-01) (91, 1.98615598678588867188e+00) (92, -5.66522441804409027100e-02) (93, 1.08358335494995117188e+00) (94, 1.59347391128540039062e+00) (95, 1.02469325065612792969e+00) (96, -2.49665081501007080078e-01) (97, 4.39393854141235351562e+00) (98, 2.65635699033737182617e-01) (38, 1.21574378013610839844e+00) (39, -5.15206716954708099365e-02) (40, 1.05590379238128662109e+00) (41, 1.30785867571830749512e-01) (42, 7.34444037079811096191e-02) (43, -1.11241132020950317383e-01) (44, -3.12348675727844238281e+00) (45, 4.95090216398239135742e-01) (46, 1.08068566769361495972e-02) (47, 4.96742695569992065430e-01) (48, -8.86735245585441589355e-02) (49, 6.22622847557067871094e-01) (50, -8.64231120795011520386e-03) (51, -8.81178900599479675293e-02) (52, 1.04298315942287445068e-01) (53, -7.53773301839828491211e-02) (54, -2.20363664627075195312e+00) (55, 4.69018191099166870117e-01) (56, -9.35068726539611816406e-02) (57, 8.69351208209991455078e-01) (58, 7.06599295139312744141e-01) (59, -4.61722053587436676025e-02) (60, 5.36317229270935058594e-01) (61, -1.37271746993064880371e-01) (62, -2.03614026308059692383e-01) (63, 6.60912632942199707031e-01) (64, 6.65666997432708740234e-01) (65, -1.55664265155792236328e-01) (66, 7.39212155342102050781e-01) (67, -2.64892112463712692261e-02) (68, 4.73195388913154602051e-02) (69, -1.83942750096321105957e-01) (70, -3.71465906500816345215e-02) (71, -1.53714585304260253906e+00) (72, -4.03534650802612304688e-01) (73, -9.74737778306007385254e-02) (74, 5.12882411479949951172e-01) (75, 9.03020381927490234375e-01) (76, 6.98063015937805175781e-01) (77, -1.03205609321594238281e+00) (78, -9.49701219797134399414e-02) (79, -2.87832409143447875977e-01) (80, 2.92976647615432739258e-02) (81, 3.86892825365066528320e-01) (82, 8.15309822559356689453e-01) (83, -4.51772987842559814453e-01) (84, -5.00031933188438415527e-02) (85, -7.60885924100875854492e-02) (86, -8.33545327186584472656e-02) (87, -8.13312530517578125000e-01) (88, -5.96394576132297515869e-02) (89, -1.12859554588794708252e-01) (90, 1.68467307090759277344e+00) (91, 2.35022902488708496094e+00) (92, 9.87657383084297180176e-02) (93, 8.50170373916625976562e-01) (94, 1.96499061584472656250e+00) (95, 7.25929677486419677734e-01) (96, -2.73577332496643066406e-01) (97, 6.65131151676177978516e-01) (98, -6.46344944834709167480e-03) (38, 1.44906073808670043945e-01) (39, 1.81497767567634582520e-01) (40, 9.09913703799247741699e-02) (41, 4.89119887351989746094e-01) (42, -5.04238486289978027344e-01) (43, 6.54151499271392822266e-01) (44, 1.31442606449127197266e-01) (45, -4.83657407760620117188e+00) (46, 2.71904206275939941406e+00) (47, 4.37229096889495849609e-01) (48, 3.93691241741180419922e-01) (49, -1.60795766860246658325e-02) (50, 8.29262495040893554688e-01) (51, 1.61841905117034912109e+00) (52, 5.23748755455017089844e-01) (53, 7.44306087493896484375e-01) (54, -3.64806801080703735352e-02) (55, 2.67133533954620361328e-01) (56, -8.58637809753417968750e+00) (57, 1.52691736817359924316e-01) (58, 9.69922989606857299805e-02) (59, 3.59500145912170410156e+00) (60, -7.04344809055328369141e-01) (61, 3.61143803596496582031e+00) (62, -9.41745936870574951172e-01) (63, 1.13370291888713836670e-01) (64, 1.22332967817783355713e-01) (65, -5.58622419834136962891e-01) (66, 9.95836704969406127930e-02) (67, 6.05250298976898193359e-01) (68, -2.39202547073364257812e+00) (69, 6.12584531307220458984e-01) (70, 5.66358149051666259766e-01) (71, 6.85300636291503906250e+00) (72, -1.30957752466201782227e-01) (73, 6.47338390350341796875e+00) (74, 2.38608860969543457031e+00) (75, 2.90137920528650283813e-02) (76, -2.02642753720283508301e-01) (77, 1.87363862991333007812e-01) (78, 1.56367921829223632812e+00) (79, 1.36474180221557617188e+00) (80, 2.69348442554473876953e-01) (81, 3.00050854682922363281e-01) (82, -2.79790449142456054688e+00) (83, -2.34242343902587890625e+00) (84, 9.62922573089599609375e-01) (85, 8.35980713367462158203e-01) (86, 8.61133992671966552734e-01) (87, -7.13605880737304687500e-01) (88, -8.73714566230773925781e-01) (89, 1.52789564132690429688e+01) (90, 7.95041248202323913574e-02) (91, 6.76027685403823852539e-03) (92, -5.73768615722656250000e-01) (93, 3.25839161872863769531e-01) (94, -9.21193584799766540527e-02) (95, 2.63676077127456665039e-01) (96, 1.19347330182790756226e-02) (97, 5.65825663506984710693e-02) (98, -1.12206757068634033203e+00) (38, 1.92788958549499511719e+00) (39, -3.61130870878696441650e-02) (40, 1.86551723480224609375e+01) (41, -2.38033961504697799683e-02) (42, 1.12885773181915283203e-01) (43, 9.86094772815704345703e-02) (44, -1.13335285186767578125e+01) (45, 4.59721946716308593750e+00) (46, -2.10355576127767562866e-02) (47, 7.20581293106079101562e-01) (48, 6.28058791160583496094e-01) (49, 1.00170624256134033203e+00) (50, 1.55778336524963378906e+00) (51, 5.54457426071166992188e-01) (52, 5.46474695205688476562e-01) (53, 3.52357715368270874023e-01) (54, 1.05719268321990966797e+00) (55, 6.53180778026580810547e-01) (56, 5.27735769748687744141e-01) (57, 7.12342321872711181641e-01) (58, 6.24061405658721923828e-01) (59, -8.57383683323860168457e-02) (60, 3.98203909397125244141e-01) (61, -2.52019619941711425781e+00) (62, 8.72848927974700927734e-02) (63, -5.03450202941894531250e+00) (64, 4.57421094179153442383e-01) (65, 4.48800399899482727051e-02) (66, 1.44278824329376220703e+00) (67, 2.39883914589881896973e-01) (68, 3.85466665029525756836e-01) (69, 9.44099724292755126953e-02) (70, 3.50558966398239135742e-01) (71, -3.36434698104858398438e+00) (72, 5.28056812286376953125e+00) (73, 3.32242339849472045898e-01) (74, -1.15449676513671875000e+01) (75, 3.86719655990600585938e+00) (76, 9.08741593360900878906e-01) (77, 8.75451326370239257812e-01) (78, 3.85234862565994262695e-01) (79, -3.32951259613037109375e+00) (80, 6.31767392158508300781e-01) (81, 2.05673542022705078125e+01) (82, 2.37780976295471191406e+00) (83, -2.17026543617248535156e+00) (84, 3.26192259788513183594e-01) (85, 1.24762589111924171448e-02) (86, -5.05858063697814941406e-02) (87, -2.02712383270263671875e+01) (88, -6.44217524677515029907e-03) (89, 4.91824448108673095703e-01) (90, 1.39183893203735351562e+01) (91, 3.72167778015136718750e+00) (92, 3.08986872434616088867e-01) (93, 1.12784206867218017578e+00) (94, -2.34987425804138183594e+00) (95, -2.75711107254028320312e+00) (96, -2.04944580793380737305e-01) (97, 5.40759444236755371094e-01) (98, 4.27557992935180664062e+00) (38, 1.13575696945190429688e-01) (39, 4.27471756935119628906e-01) (40, -5.67240975797176361084e-02) (41, 5.38148760795593261719e-01) (42, 3.11302185058593750000e-01) (43, 1.18509721755981445312e+00) (44, -1.10326251015067100525e-02) (45, 4.08410042524337768555e-01) (46, 3.40932399034500122070e-01) (47, 2.46000856161117553711e-01) (48, 1.13501477241516113281e+00) (49, 3.98390516638755798340e-02) (50, -4.74077403545379638672e-01) (51, 1.28930521011352539062e+00) (52, 4.66760754585266113281e-01) (53, 9.91679668426513671875e-01) (54, 1.76933556795120239258e-01) (55, 4.02886830270290374756e-02) (56, 1.11307883262634277344e+00) (57, 2.48607784509658813477e-01) (58, 2.33927547931671142578e-01) (59, 1.70667064189910888672e+00) (60, 2.91482895612716674805e-01) (61, 1.34335660934448242188e+00) (62, -2.53417789936065673828e-01) (63, 1.00621223449707031250e-01) (64, -5.28258681297302246094e-01) (65, 2.27494359016418457031e-01) (66, 