FANN_FLO_2.1
num_layers=6
learning_rate=0.700000
connection_rate=1.000000
network_type=0
learning_momentum=0.000000
training_algorithm=2
train_error_function=0
train_stop_function=0
cascade_output_change_fraction=0.010000
quickprop_decay=-0.000100
quickprop_mu=1.750000
rprop_increase_factor=1.200000
rprop_decrease_factor=0.500000
rprop_delta_min=0.000000
rprop_delta_max=50.000000
rprop_delta_zero=0.100000
cascade_output_stagnation_epochs=12
cascade_candidate_change_fraction=0.010000
cascade_candidate_stagnation_epochs=12
cascade_max_out_epochs=150
cascade_min_out_epochs=50
cascade_max_cand_epochs=150
cascade_min_cand_epochs=50
cascade_num_candidate_groups=2
bit_fail_limit=3.49999994039535522461e-01
cascade_candidate_limit=1.00000000000000000000e+03
cascade_weight_multiplier=4.00000005960464477539e-01
cascade_activation_functions_count=10
cascade_activation_functions=3 5 7 8 10 11 14 15 16 17 
cascade_activation_steepnesses_count=4
cascade_activation_steepnesses=2.50000000000000000000e-01 5.00000000000000000000e-01 7.50000000000000000000e-01 1.00000000000000000000e+00 
layer_sizes=38 61 31 31 16 2 
scale_included=0
neurons (num_inputs, activation_function, activation_steepness)=(0, 0, 0.00000000000000000000e+00) (0, 0, 0.00000000000000000000e+00) (0, 0, 0.00000000000000000000e+00) (0, 0, 0.00000000000000000000e+00) (0, 0, 0.00000000000000000000e+00) (0, 0, 0.00000000000000000000e+00) (0, 0, 0.00000000000000000000e+00) (0, 0, 0.00000000000000000000e+00) (0, 0, 0.00000000000000000000e+00) (0, 0, 0.00000000000000000000e+00) (0, 0, 0.00000000000000000000e+00) (0, 0, 0.00000000000000000000e+00) (0, 0, 0.00000000000000000000e+00) (0, 0, 0.00000000000000000000e+00) (0, 0, 0.00000000000000000000e+00) (0, 0, 0.00000000000000000000e+00) (0, 0, 0.00000000000000000000e+00) (0, 0, 0.00000000000000000000e+00) (0, 0, 0.00000000000000000000e+00) (0, 0, 0.00000000000000000000e+00) (0, 0, 0.00000000000000000000e+00) (0, 0, 0.00000000000000000000e+00) (0, 0, 0.00000000000000000000e+00) (0, 0, 0.00000000000000000000e+00) (0, 0, 0.00000000000000000000e+00) (0, 0, 0.00000000000000000000e+00) (0, 0, 0.00000000000000000000e+00) (0, 0, 0.00000000000000000000e+00) (0, 0, 0.00000000000000000000e+00) (0, 0, 0.00000000000000000000e+00) (0, 0, 0.00000000000000000000e+00) (0, 0, 0.00000000000000000000e+00) (0, 0, 0.00000000000000000000e+00) (0, 0, 0.00000000000000000000e+00) (0, 0, 0.00000000000000000000e+00) (0, 0, 0.00000000000000000000e+00) (0, 0, 0.00000000000000000000e+00) (0, 0, 0.00000000000000000000e+00) (38, 5, 5.00000000000000000000e-01) (38, 5, 5.00000000000000000000e-01) (38, 5, 5.00000000000000000000e-01) (38, 5, 5.00000000000000000000e-01) (38, 5, 5.00000000000000000000e-01) (38, 5, 5.00000000000000000000e-01) (38, 5, 5.00000000000000000000e-01) (38, 5, 5.00000000000000000000e-01) (38, 5, 5.00000000000000000000e-01) (38, 5, 5.00000000000000000000e-01) (38, 5, 5.00000000000000000000e-01) (38, 5, 5.00000000000000000000e-01) (38, 5, 5.00000000000000000000e-01) (38, 5, 5.00000000000000000000e-01) (38, 5, 5.00000000000000000000e-01) (38, 5, 5.00000000000000000000e-01) (38, 5, 5.00000000000000000000e-01) (38, 5, 5.00000000000000000000e-01) (38, 5, 5.00000000000000000000e-01) (38, 5, 5.00000000000000000000e-01) (38, 5, 5.00000000000000000000e-01) (38, 5, 5.00000000000000000000e-01) (38, 5, 5.00000000000000000000e-01) (38, 5, 5.00000000000000000000e-01) (38, 5, 5.00000000000000000000e-01) (38, 5, 5.00000000000000000000e-01) (38, 5, 5.00000000000000000000e-01) (38, 5, 5.00000000000000000000e-01) (38, 5, 5.00000000000000000000e-01) (38, 5, 5.00000000000000000000e-01) (38, 5, 5.00000000000000000000e-01) (38, 5, 5.00000000000000000000e-01) (38, 5, 5.00000000000000000000e-01) (38, 5, 5.00000000000000000000e-01) (38, 5, 5.00000000000000000000e-01) (38, 5, 5.00000000000000000000e-01) (38, 5, 5.00000000000000000000e-01) (38, 5, 5.00000000000000000000e-01) (38, 5, 5.00000000000000000000e-01) (38, 5, 5.00000000000000000000e-01) (38, 5, 5.00000000000000000000e-01) (38, 5, 5.00000000000000000000e-01) (38, 5, 5.00000000000000000000e-01) (38, 5, 5.00000000000000000000e-01) (38, 5, 5.00000000000000000000e-01) (38, 5, 5.00000000000000000000e-01) (38, 5, 5.00000000000000000000e-01) (38, 5, 5.00000000000000000000e-01) (38, 5, 5.00000000000000000000e-01) (38, 5, 5.00000000000000000000e-01) (38, 5, 5.00000000000000000000e-01) (38, 5, 5.00000000000000000000e-01) (38, 5, 5.00000000000000000000e-01) (38, 5, 5.00000000000000000000e-01) (38, 5, 5.00000000000000000000e-01) (38, 5, 5.00000000000000000000e-01) (38, 5, 5.00000000000000000000e-01) (38, 5, 5.00000000000000000000e-01) (38, 5, 5.00000000000000000000e-01) (38, 5, 5.00000000000000000000e-01) (0, 5, 0.00000000000000000000e+00) (61, 5, 5.00000000000000000000e-01) (61, 5, 5.00000000000000000000e-01) (61, 5, 5.00000000000000000000e-01) (61, 5, 5.00000000000000000000e-01) (61, 5, 5.00000000000000000000e-01) (61, 5, 5.00000000000000000000e-01) (61, 5, 5.00000000000000000000e-01) (61, 5, 5.00000000000000000000e-01) (61, 5, 5.00000000000000000000e-01) (61, 5, 5.00000000000000000000e-01) (61, 5, 5.00000000000000000000e-01) (61, 5, 5.00000000000000000000e-01) (61, 5, 5.00000000000000000000e-01) (61, 5, 5.00000000000000000000e-01) (61, 5, 5.00000000000000000000e-01) (61, 5, 5.00000000000000000000e-01) (61, 5, 5.00000000000000000000e-01) (61, 5, 5.00000000000000000000e-01) (61, 5, 5.00000000000000000000e-01) (61, 5, 5.00000000000000000000e-01) (61, 5, 5.00000000000000000000e-01) (61, 5, 5.00000000000000000000e-01) (61, 5, 5.00000000000000000000e-01) (61, 5, 5.00000000000000000000e-01) (61, 5, 5.00000000000000000000e-01) (61, 5, 5.00000000000000000000e-01) (61, 5, 5.00000000000000000000e-01) (61, 5, 5.00000000000000000000e-01) (61, 5, 5.00000000000000000000e-01) (61, 5, 5.00000000000000000000e-01) (0, 5, 0.00000000000000000000e+00) (31, 5, 5.00000000000000000000e-01) (31, 5, 5.00000000000000000000e-01) (31, 5, 5.00000000000000000000e-01) (31, 5, 5.00000000000000000000e-01) (31, 5, 5.00000000000000000000e-01) (31, 5, 5.00000000000000000000e-01) (31, 5, 5.00000000000000000000e-01) (31, 5, 5.00000000000000000000e-01) (31, 5, 5.00000000000000000000e-01) (31, 5, 5.00000000000000000000e-01) (31, 5, 5.00000000000000000000e-01) (31, 5, 5.00000000000000000000e-01) (31, 5, 5.00000000000000000000e-01) (31, 5, 5.00000000000000000000e-01) (31, 5, 5.00000000000000000000e-01) (31, 5, 5.00000000000000000000e-01) (31, 5, 5.00000000000000000000e-01) (31, 5, 5.00000000000000000000e-01) (31, 5, 5.00000000000000000000e-01) (31, 5, 5.00000000000000000000e-01) (31, 5, 5.00000000000000000000e-01) (31, 5, 5.00000000000000000000e-01) (31, 5, 5.00000000000000000000e-01) (31, 5, 5.00000000000000000000e-01) (31, 5, 5.00000000000000000000e-01) (31, 5, 5.00000000000000000000e-01) (31, 5, 5.00000000000000000000e-01) (31, 5, 5.00000000000000000000e-01) (31, 5, 5.00000000000000000000e-01) (31, 5, 5.00000000000000000000e-01) (0, 5, 0.00000000000000000000e+00) (31, 5, 5.00000000000000000000e-01) (31, 5, 5.00000000000000000000e-01) (31, 5, 5.00000000000000000000e-01) (31, 5, 5.00000000000000000000e-01) (31, 5, 5.00000000000000000000e-01) (31, 5, 5.00000000000000000000e-01) (31, 5, 5.00000000000000000000e-01) (31, 5, 5.00000000000000000000e-01) (31, 5, 5.00000000000000000000e-01) (31, 5, 5.00000000000000000000e-01) (31, 5, 5.00000000000000000000e-01) (31, 5, 5.00000000000000000000e-01) (31, 5, 5.00000000000000000000e-01) (31, 5, 5.00000000000000000000e-01) (31, 5, 5.00000000000000000000e-01) (0, 5, 0.00000000000000000000e+00) (16, 8, 5.00000000000000000000e-01) (0, 8, 0.00000000000000000000e+00) 
connections (connected_to_neuron, weight)=(0, 1.35547424316406250000e+03) (1, 2.78661926269531250000e+02) (2, 1.49975219726562500000e+03) (3, 1.39596899414062500000e+03) (4, 1.39596899414062500000e+03) (5, -5.13089843750000000000e+02) (6, 1.49951916503906250000e+03) (7, -8.05167480468750000000e+02) (8, -1.13098547363281250000e+03) (9, -1.49943786621093750000e+03) (10, 5.24590942382812500000e+02) (11, -1.24064953613281250000e+03) (12, -1.24064953613281250000e+03) (13, -1.49891674804687500000e+03) (14, -1.41879835128784179688e+01) (15, -1.38664941406250000000e+03) (16, -1.38664941406250000000e+03) (17, 1.24161291503906250000e+03) (18, 1.49863903808593750000e+03) (19, -1.34517712402343750000e+03) (20, -1.42418872070312500000e+03) (21, 1.43417199707031250000e+03) (22, -5.04110870361328125000e+02) (23, 1.44222692871093750000e+03) (24, 1.04245007324218750000e+03) (25, -2.62689483642578125000e+02) (26, -2.25064575195312500000e+02) (27, 1.44226269531250000000e+03) (28, 1.44226269531250000000e+03) (29, -6.29575500488281250000e+02) (30, 1.26557409667968750000e+03) (31, 3.65314483642578125000e+01) (32, 3.65314483642578125000e+01) (33, 7.60696289062500000000e+02) (34, 2.84125946044921875000e+02) (35, 1.89899139404296875000e+02) (36, 1.89899139404296875000e+02) (37, 1.36633496093750000000e+03) (0, -1.21554821777343750000e+03) (1, -6.49628829956054687500e+01) (2, -1.49944067382812500000e+03) (3, -1.21554821777343750000e+03) (4, -1.21554821777343750000e+03) (5, 8.46227416992187500000e+02) (6, -9.28848144531250000000e+02) (7, 1.41376171875000000000e+03) (8, 1.41376171875000000000e+03) (9, 1.49979553222656250000e+03) (10, -7.03645019531250000000e+01) (11, 1.39964123535156250000e+03) (12, 1.39964123535156250000e+03) (13, 1.49940527343750000000e+03) (14, -1.62039978027343750000e+02) (15, 1.47080126953125000000e+03) (16, 1.47080126953125000000e+03) (17, -1.44126293945312500000e+03) (18, 1.19613500976562500000e+03) (19, 1.23474243164062500000e+03) (20, 1.36168041992187500000e+03) (21, -1.42292553710937500000e+03) (22, 5.60494750976562500000e+02) (23, -6.47890319824218750000e+02) (24, -3.86101318359375000000e+02) (25, 4.98958801269531250000e+02) (26, 5.50070068359375000000e+02) (27, -1.38093408203125000000e+03) (28, -1.42047863769531250000e+03) (29, 8.73295043945312500000e+02) (30, -1.04657897949218750000e+03) (31, 5.51798767089843750000e+02) (32, 7.73927734375000000000e+02) (33, -8.19575561523437500000e+02) (34, -1.32307220458984375000e+02) (35, -1.06162915039062500000e+03) (36, -1.26127758789062500000e+03) (37, 4.67661895751953125000e+02) (0, -1.21554821777343750000e+03) (1, -2.07509490966796875000e+02) (2, -1.49944067382812500000e+03) (3, -1.31605249023437500000e+03) (4, -1.27100952148437500000e+03) (5, 9.91004882812500000000e+02) (6, -1.29135546875000000000e+03) (7, 1.35634558105468750000e+03) (8, 1.41424450683593750000e+03) (9, 1.49979553222656250000e+03) (10, -4.83940277099609375000e+02) (11, 1.39964123535156250000e+03) (12, 1.39964123535156250000e+03) (13, 1.49940527343750000000e+03) (14, -1.14139755249023437500e+02) (15, 1.47080126953125000000e+03) (16, 1.47080126953125000000e+03) (17, -8.85090698242187500000e+02) (18, -1.13704711914062500000e+03) (19, 7.55036010742187500000e+02) (20, 1.50000000000000000000e+03) (21, -1.39125549316406250000e+03) (22, 2.75152801513671875000e+02) (23, -8.23082214355468750000e+02) (24, 5.59366798400878906250e+01) (25, 4.38340362548828125000e+02) (26, 1.39083056640625000000e+03) (27, -1.47021313476562500000e+03) (28, -1.42863977050781250000e+03) (29, 9.30999328613281250000e+02) (30, -1.10297436523437500000e+03) (31, 5.61430969238281250000e+02) (32, 5.87801025390625000000e+02) (33, -6.79366821289062500000e+02) (34, 5.33250732421875000000e+02) (35, -2.58269653320312500000e+02) (36, -2.16516723632812500000e+02) (37, -1.19247851562500000000e+03) (0, 1.24089831542968750000e+03) (1, 2.44353302001953125000e+02) (2, 1.49975219726562500000e+03) (3, 1.25583935546875000000e+03) (4, 1.24089831542968750000e+03) (5, 3.87843688964843750000e+02) (6, 1.05318450927734375000e+02) (7, 7.69216079711914062500e+01) (8, -1.06427954101562500000e+03) (9, -1.07234094238281250000e+03) (10, -5.22720756530761718750e+01) (11, -1.30516955566406250000e+03) (12, -9.43602966308593750000e+02) (13, -1.49891674804687500000e+03) (14, -6.23359794616699218750e+01) (15, -1.38664941406250000000e+03) (16, -1.38664941406250000000e+03) (17, 1.39246826171875000000e+03) (18, 1.48918164062500000000e+03) (19, 6.15960510253906250000e+02) (20, 8.34434387207031250000e+02) (21, 1.48609741210937500000e+03) (22, -1.35408264160156250000e+03) (23, 5.44162170410156250000e+02) (24, 9.50652847290039062500e+01) (25, -6.37079711914062500000e+02) (26, -1.48928869628906250000e+03) (27, 1.16072863769531250000e+03) (28, 1.07576855468750000000e+03) (29, -8.48878295898437500000e+02) (30, 1.26173681640625000000e+03) (31, -1.49928161621093750000e+03) (32, -1.49928161621093750000e+03) (33, 1.39397790527343750000e+03) (34, -5.45212463378906250000e+02) (35, 1.11531750488281250000e+03) (36, 7.87776000976562500000e+02) (37, -1.13162219238281250000e+03) (0, 1.26611621093750000000e+03) (1, 2.43950119018554687500e+02) (2, 1.49975219726562500000e+03) (3, 1.37431628417968750000e+03) (4, 1.36667065429687500000e+03) (5, 4.36399871826171875000e+02) (6, 1.02362249755859375000e+03) (7, 7.45567703247070312500e+01) (8, 2.58286468505859375000e+02) (9, -1.49943786621093750000e+03) (10, 1.78920793533325195312e+00) (11, -1.30516955566406250000e+03) (12, -1.30516955566406250000e+03) (13, -1.49891674804687500000e+03) (14, 3.26680053710937500000e+02) (15, -1.38664941406250000000e+03) (16, -1.38664941406250000000e+03) (17, 1.47956787109375000000e+03) (18, 1.49863903808593750000e+03) (19, 3.08889251708984375000e+02) (20, 4.70328613281250000000e+02) (21, 1.48732421875000000000e+03) (22, -1.13193005371093750000e+03) (23, 1.24262268066406250000e+03) (24, 5.79304687500000000000e+02) (25, -5.84289398193359375000e+01) (26, -1.32761242675781250000e+03) (27, 1.44226269531250000000e+03) (28, 1.47129687500000000000e+03) (29, -9.83017517089843750000e+02) (30, 1.03690600585937500000e+03) (31, 7.58163330078125000000e+02) (32, 5.29099548339843750000e+02) (33, 1.44517297363281250000e+03) (34, 8.59074645996093750000e+02) (35, 7.32257507324218750000e+02) (36, 4.49828277587890625000e+02) (37, 1.30044631958007812500e+02) (0, -1.24496667480468750000e+03) (1, 3.17808898925781250000e+02) (2, -1.49944067382812500000e+03) (3, -1.25054162597656250000e+03) (4, -1.25054162597656250000e+03) (5, -4.83433341979980468750e+01) (6, -8.46859863281250000000e+02) (7, 1.78373138427734375000e+02) (8, 3.18474456787109375000e+02) (9, 1.41594335937500000000e+03) (10, 1.47589147949218750000e+03) (11, 1.39964123535156250000e+03) (12, 1.39964123535156250000e+03) (13, 1.49979553222656250000e+03) (14, -5.60019348144531250000e+02) (15, 1.47080126953125000000e+03) (16, 1.47080126953125000000e+03) (17, -1.49751416015625000000e+03) (18, -1.42781591796875000000e+03) (19, -7.61881652832031250000e+02) (20, -3.29251861572265625000e+02) (21, -1.13134094238281250000e+03) (22, 1.35426953125000000000e+03) (23, -8.59317077636718750000e+02) (24, -4.71643096923828125000e+02) (25, 1.41094433593750000000e+03) (26, 4.96315673828125000000e+02) (27, -1.36595959472656250000e+03) (28, -1.38864685058593750000e+03) (29, 9.04595275878906250000e+02) (30, -4.88951782226562500000e+02) (31, 8.11358276367187500000e+02) (32, 8.11358276367187500000e+02) (33, -1.31451904296875000000e+03) (34, 1.14713000488281250000e+03) (35, -7.72569152832031250000e+02) (36, -1.17092883300781250000e+03) (37, 1.36424121093750000000e+03) (0, 1.38057446289062500000e+03) (1, 4.60394287109375000000e+02) (2, 1.49975219726562500000e+03) (3, 1.27095300292968750000e+03) (4, 1.27095300292968750000e+03) (5, -2.88917427062988281250e+01) (6, 1.03998107910156250000e+03) (7, 1.48556642532348632812e+01) (8, -9.11881774902343750000e+02) (9, -1.49943786621093750000e+03) (10, 2.46283523559570312500e+02) (11, -1.30516955566406250000e+03) (12, -1.30516955566406250000e+03) (13, -1.49891674804687500000e+03) (14, 1.34645898437500000000e+03) (15, -1.38664941406250000000e+03) (16, -1.38664941406250000000e+03) (17, 1.49200195312500000000e+03) (18, 1.49863903808593750000e+03) (19, 4.25412536621093750000e+02) (20, 4.85523315429687500000e+02) (21, 1.49604272460937500000e+03) (22, -3.75460357666015625000e+02) (23, 1.41503210449218750000e+03) (24, 7.39813537597656250000e+02) (25, -1.38898278808593750000e+03) (26, 9.19258728027343750000e+01) (27, 1.44118786621093750000e+03) (28, 1.41520617675781250000e+03) (29, -9.15110046386718750000e+02) (30, 1.25088830566406250000e+03) (31, -3.58515739440917968750e+01) (32, -4.04313598632812500000e+02) (33, 2.20100479125976562500e+02) (34, -4.15052825927734375000e+02) (35, 7.64366516113281250000e+02) (36, 1.85868011474609375000e+02) (37, 5.81058105468750000000e+02) (0, 1.24089831542968750000e+03) (1, 1.24675226211547851562e+00) (2, 1.49975219726562500000e+03) (3, 1.38481677246093750000e+03) (4, 1.28935961914062500000e+03) (5, -5.50472045898437500000e+02) (6, 1.49951916503906250000e+03) (7, -1.00835241699218750000e+03) (8, -1.17293505859375000000e+03) (9, -1.49943786621093750000e+03) (10, 2.78741119384765625000e+02) (11, -1.30516955566406250000e+03) (12, -1.30516955566406250000e+03) (13, -1.49891674804687500000e+03) (14, -1.54348402023315429688e+01) (15, -1.38664941406250000000e+03) (16, -1.38664941406250000000e+03) (17, 1.47855493164062500000e+03) (18, 1.49863903808593750000e+03) (19, -1.01372784423828125000e+03) (20, -1.11224011230468750000e+03) (21, 1.37437084960937500000e+03) (22, -4.62110870361328125000e+02) (23, 1.44222692871093750000e+03) (24, 7.05382812500000000000e+02) (25, -2.26732177734375000000e+02) (26, 9.19258728027343750000e+01) (27, 1.44226269531250000000e+03) (28, 1.44226269531250000000e+03) (29, -6.29575134277343750000e+02) (30, 1.22211718750000000000e+03) (31, 4.49274993896484375000e+02) (32, 4.46348968505859375000e+02) (33, 1.24421972656250000000e+03) (34, -3.89105081558227539062e+00) (35, 8.91520080566406250000e+01) (36, 8.91520080566406250000e+01) (37, 1.49773730468750000000e+03) (0, -1.36464343261718750000e+03) (1, -1.43763244628906250000e+03) (2, -6.91050964355468750000e+02) (3, -1.32909167480468750000e+03) (4, -1.36904309082031250000e+03) (5, 5.97237060546875000000e+02) (6, 7.09750610351562500000e+02) (7, -4.75821228027343750000e+02) (8, 1.07646240234375000000e+03) (9, 3.49859802246093750000e+02) (10, 1.49759997558593750000e+03) (11, 9.44123291015625000000e+02) (12, 1.12308679199218750000e+03) (13, 1.74677047729492187500e+02) (14, 4.73145355224609375000e+02) (15, 9.69731384277343750000e+02) (16, 9.18469909667968750000e+02) (17, -1.49907629394531250000e+03) (18, -1.36753625488281250000e+03) (19, 3.95253417968750000000e+02) (20, 5.87222290039062500000e+02) (21, -1.49471362304687500000e+03) (22, 1.49947583007812500000e+03) (23, 8.13886108398437500000e+02) (24, 9.60666503906250000000e+02) (25, 6.57938049316406250000e+02) (26, 1.49991333007812500000e+03) (27, -6.73399963378906250000e+01) (28, 3.37480621337890625000e+01) (29, 7.74921569824218750000e+02) (30, 9.12603942871093750000e+02) (31, 4.34124898910522460938e+00) (32, 4.34124898910522460938e+00) (33, -1.36834729003906250000e+03) (34, 1.41428796386718750000e+03) (35, -1.49876416015625000000e+03) (36, -1.49876416015625000000e+03) (37, 1.47313525390625000000e+03) (0, -1.21554821777343750000e+03) (1, -2.07509490966796875000e+02) (2, -1.49944067382812500000e+03) (3, -1.40977978515625000000e+03) (4, -1.28382397460937500000e+03) (5, 1.17014862060546875000e+02) (6, -1.49907629394531250000e+03) (7, 1.08830395507812500000e+03) (8, 1.41403295898437500000e+03) (9, 1.49979553222656250000e+03) (10, -3.68140289306640625000e+02) (11, 1.39964123535156250000e+03) (12, 1.39964123535156250000e+03) (13, 1.49940527343750000000e+03) (14, -2.44056930541992187500e+01) (15, 1.47149084472656250000e+03) (16, 1.47149084472656250000e+03) (17, -1.44334448242187500000e+03) (18, -1.18292089843750000000e+03) (19, -5.05872993469238281250e+01) (20, -1.92421188354492187500e+02) (21, -1.48169982910156250000e+03) (22, 2.96752777099609375000e+02) (23, -1.38087512207031250000e+03) (24, -1.26505969238281250000e+03) (25, 5.92573852539062500000e+02) (26, -2.83885192871093750000e+01) (27, -1.38093408203125000000e+03) (28, -1.38093408203125000000e+03) (29, 7.07284606933593750000e+02) (30, -8.44421508789062500000e+02) (31, 1.23841148376464843750e+02) (32, 1.23841148376464843750e+02) (33, -9.20676391601562500000e+02) (34, 5.09325164794921875000e+02) (35, 1.19047489166259765625e+01) (36, -6.27693634033203125000e+01) (37, 2.36600051879882812500e+02) (0, -1.22060290527343750000e+03) (1, -4.89518615722656250000e+02) (2, -1.49944067382812500000e+03) (3, -1.32816174316406250000e+03) (4, -1.32816174316406250000e+03) (5, 1.02286810302734375000e+03) (6, 4.57156143188476562500e+01) (7, 1.38401538085937500000e+03) (8, 1.41548583984375000000e+03) (9, 1.28058398437500000000e+03) (10, -1.25890075683593750000e+02) (11, 1.39964123535156250000e+03) (12, 1.39964123535156250000e+03) (13, 1.49940527343750000000e+03) (14, -1.18235913085937500000e+03) (15, 1.47080126953125000000e+03) (16, 1.47080126953125000000e+03) (17, -1.49336474609375000000e+03) (18, -1.19181652832031250000e+03) (19, -8.47222717285156250000e+02) (20, -3.94273193359375000000e+02) (21, -1.47937475585937500000e+03) (22, 6.74484680175781250000e+02) (23, -7.96119384765625000000e+02) (24, 1.45421173095703125000e+02) (25, 1.41199353027343750000e+03) (26, 1.37996057128906250000e+03) (27, -1.38093408203125000000e+03) (28, -8.48257812500000000000e+02) (29, 9.04911926269531250000e+02) (30, -7.66840209960937500000e+02) (31, 4.39048400878906250000e+02) (32, 4.39048400878906250000e+02) (33, 3.00129623413085937500e+01) (34, -6.08817504882812500000e+02) (35, -1.99335174560546875000e+02) (36, -8.76037841796875000000e+02) (37, -3.35621185302734375000e+02) (0, 1.24089831542968750000e+03) (1, 2.43867340087890625000e+02) (2, 1.49975219726562500000e+03) (3, 1.36667065429687500000e+03) (4, 1.24089831542968750000e+03) (5, 6.45369140625000000000e+02) (6, 8.45312500000000000000e+02) (7, 8.66063415527343750000e+02) (8, 3.14721710205078125000e+02) (9, -1.49943786621093750000e+03) (10, 5.23437500000000000000e+02) (11, -1.38664941406250000000e+03) (12, -1.38664941406250000000e+03) (13, -1.49907629394531250000e+03) (14, 1.08801489257812500000e+03) (15, -1.38664941406250000000e+03) (16, -1.38664941406250000000e+03) (17, 1.24396704101562500000e+03) (18, 1.49863903808593750000e+03) (19, 2.16067718505859375000e+02) (20, 2.99190460205078125000e+02) (21, 1.49458081054687500000e+03) (22, -3.87955657958984375000e+02) (23, 1.44222692871093750000e+03) (24, 1.44222692871093750000e+03) (25, 3.06665283203125000000e+02) (26, -8.83005859375000000000e+02) (27, 1.44226269531250000000e+03) (28, 1.44226269531250000000e+03) (29, -9.20449096679687500000e+02) (30, 1.09888208007812500000e+03) (31, 4.23509307861328125000e+02) (32, -1.04804626464843750000e+02) (33, 1.24402685546875000000e+03) (34, 3.04977302551269531250e+01) (35, -1.65674209594726562500e+02) (36, -1.65674209594726562500e+02) (37, 1.43957934570312500000e+03) (0, -1.37019372558593750000e+03) (1, -1.38461456298828125000e+02) (2, -1.49944067382812500000e+03) (3, -1.37019372558593750000e+03) (4, -1.27100952148437500000e+03) (5, -5.36431465148925781250e+01) (6, -6.59654785156250000000e+02) (7, 7.65386840820312500000e+02) (8, 2.14423889160156250000e+02) (9, 1.49979553222656250000e+03) (10, -3.98079010009765625000e+02) (11, 1.39964123535156250000e+03) (12, 1.42791564941406250000e+03) (13, 1.48018652343750000000e+03) (14, 8.02227478027343750000e+02) (15, 1.47080126953125000000e+03) (16, 1.47080126953125000000e+03) (17, -1.36328979492187500000e+03) (18, -1.35541625976562500000e+03) (19, -1.92502639770507812500e+02) (20, -1.08324790954589843750e+02) (21, -1.49498730468750000000e+03) (22, 6.74484680175781250000e+02) (23, -4.60699493408203125000e+02) (24, 5.36958557128906250000e+02) (25, 1.16115832519531250000e+03) (26, 1.49033190917968750000e+03) (27, -1.38093408203125000000e+03) (28, -1.38093408203125000000e+03) (29, 1.22774328613281250000e+03) (30, -2.29871536254882812500e+02) (31, -2.17111572265625000000e+02) (32, 3.11210052490234375000e+02) (33, -3.38915710449218750000e+02) (34, 1.19785388183593750000e+03) (35, -3.83827850341796875000e+02) (36, -4.04942413330078125000e+02) (37, 1.22896228027343750000e+03) (0, -1.22060290527343750000e+03) (1, 1.86482192993164062500e+02) (2, -1.49944067382812500000e+03) (3, -1.43727001953125000000e+03) (4, -1.34980090332031250000e+03) (5, -1.91262710571289062500e+02) (6, -1.23865393066406250000e+03) (7, 7.26586975097656250000e+02) (8, 1.26030651855468750000e+03) (9, 1.49979553222656250000e+03) (10, -2.94256500244140625000e+02) (11, 1.39964123535156250000e+03) (12, 1.41653747558593750000e+03) (13, 1.49940527343750000000e+03) (14, -1.10335864257812500000e+03) (15, 1.49996130371093750000e+03) (16, 1.49996130371093750000e+03) (17, -1.43171862792968750000e+03) (18, -5.44672424316406250000e+02) (19, 5.40059631347656250000e+02) (20, 6.93061462402343750000e+02) (21, -1.37009179687500000000e+03) (22, 2.75152801513671875000e+02) (23, -1.33208020019531250000e+03) (24, -9.23555603027343750000e+02) (25, 1.07076977539062500000e+03) (26, 4.75243011474609375000e+02) (27, -1.33213916015625000000e+03) (28, -1.33213916015625000000e+03) (29, 7.05881286621093750000e+02) (30, -1.16042431640625000000e+03) (31, -1.45747848510742187500e+02) (32, -1.45649368286132812500e+02) (33, -8.55613403320312500000e+02) (34, 2.06859344482421875000e+02) (35, -9.04567718505859375000e+01) (36, -3.36997344970703125000e+02) (37, -1.15653479003906250000e+03) (0, 1.24089831542968750000e+03) (1, 2.44353302001953125000e+02) (2, 1.49975219726562500000e+03) (3, 1.24089831542968750000e+03) (4, 1.24089831542968750000e+03) (5, -3.19854644775390625000e+02) (6, 1.49951916503906250000e+03) (7, -1.34695410156250000000e+03) (8, -1.30454589843750000000e+03) (9, -1.49943786621093750000e+03) (10, 4.41259033203125000000e+02) (11, -1.30516955566406250000e+03) (12, -1.30516955566406250000e+03) (13, -1.49891674804687500000e+03) (14, 1.33511962890625000000e+03) (15, -1.38664941406250000000e+03) (16, -1.38664941406250000000e+03) (17, 1.24211645507812500000e+03) (18, 1.49863903808593750000e+03) (19, -1.50483947753906250000e+02) (20, -5.87541931152343750000e+02) (21, 1.39036767578125000000e+03) (22, -1.47038391113281250000e+02) (23, 1.44222692871093750000e+03) (24, 1.35785302734375000000e+03) (25, -5.90428100585937500000e+02) (26, -1.72495742797851562500e+02) (27, 1.44226269531250000000e+03) (28, 1.46010766601562500000e+03) (29, -6.30784057617187500000e+02) (30, 1.04750170898437500000e+03) (31, 1.58013626098632812500e+02) (32, 3.86328887939453125000e+01) (33, 7.60696289062500000000e+02) (34, -5.88896850585937500000e+02) (35, 2.94751739501953125000e+02) (36, 1.85868011474609375000e+02) (37, 1.49999682617187500000e+03) (0, 1.24089831542968750000e+03) (1, 8.28619918823242187500e+01) (2, 1.49975219726562500000e+03) (3, 1.44245739746093750000e+03) (4, 1.36176049804687500000e+03) (5, -1.18154284667968750000e+03) (6, 6.37034721374511718750e+01) (7, 1.12233471679687500000e+03) (8, -1.42728271484375000000e+02) (9, -1.49943786621093750000e+03) (10, 3.91837432861328125000e+02) (11, -1.30516955566406250000e+03) (12, -1.30516955566406250000e+03) (13, -1.49891674804687500000e+03) (14, 1.38412744140625000000e+03) (15, -1.38664941406250000000e+03) (16, -1.38664941406250000000e+03) (17, 1.45544750976562500000e+03) (18, 1.49863903808593750000e+03) (19, 5.40100402832031250000e+02) (20, 3.21924407958984375000e+02) (21, 1.48839636230468750000e+03) (22, -6.25695129394531250000e+02) (23, 1.44222692871093750000e+03) (24, 1.44222692871093750000e+03) (25, -3.45721038818359375000e+02) (26, -1.15260070800781250000e+03) (27, 1.48013977050781250000e+03) (28, 1.49351733398437500000e+03) (29, -7.77527832031250000000e+02) (30, 1.02933056640625000000e+03) (31, -2.23240518569946289062e+00) (32, -2.27693847656250000000e+02) (33, 7.60927001953125000000e+02) (34, -1.80471939086914062500e+02) (35, 7.65375183105468750000e+02) (36, 2.94751739501953125000e+02) (37, -1.35382171630859375000e+02) (0, -1.34428283691406250000e+03) (1, -3.80048637390136718750e+01) (2, -1.49944067382812500000e+03) (3, -1.21554821777343750000e+03) (4, -1.21554821777343750000e+03) (5, 5.40417541503906250000e+02) (6, 1.91343490600585937500e+02) (7, 7.80477478027343750000e+02) (8, 1.41548583984375000000e+03) (9, 1.00213568115234375000e+03) (10, 8.89779205322265625000e+01) (11, 1.39964123535156250000e+03) (12, 1.39964123535156250000e+03) (13, 1.29947985839843750000e+03) (14, 7.00188415527343750000e+02) (15, 1.47080126953125000000e+03) (16, 1.47080126953125000000e+03) (17, -1.49541296386718750000e+03) (18, -1.22366540527343750000e+03) (19, 8.77140319824218750000e+02) (20, 1.31420751953125000000e+03) (21, -1.50000000000000000000e+03) (22, 1.15722326660156250000e+03) (23, 1.20173535156250000000e+03) (24, 1.07024475097656250000e+03) (25, 9.22946716308593750000e+02) (26, 1.47817004394531250000e+03) (27, -1.12128796386718750000e+03) (28, -5.30037994384765625000e+01) (29, 8.40216796875000000000e+02) (30, -1.64089172363281250000e+02) (31, 6.65457092285156250000e+02) (32, 7.38131286621093750000e+02) (33, -1.14800976562500000000e+03) (34, 1.14375097656250000000e+03) (35, -1.29524389648437500000e+03) (36, -1.19664880371093750000e+03) (37, 7.66625732421875000000e+02) (0, 1.24502648925781250000e+03) (1, 7.60811865329742431641e-01) (2, 1.49964306640625000000e+03) (3, 1.33599206542968750000e+03) (4, 1.24085302734375000000e+03) (5, 1.08009651184082031250e+02) (6, 1.49925756835937500000e+03) (7, -8.58299743652343750000e+02) (8, -1.23001696777343750000e+03) (9, -1.49907629394531250000e+03) (10, 5.23437500000000000000e+02) (11, -1.30516955566406250000e+03) (12, -1.28702551269531250000e+03) (13, -1.49943786621093750000e+03) (14, -2.48839141845703125000e+02) (15, -1.38713513183593750000e+03) (16, -1.38713513183593750000e+03) (17, 1.39117529296875000000e+03) (18, 1.49863903808593750000e+03) (19, 3.00456512451171875000e+02) (20, 3.71772186279296875000e+02) (21, 1.48406384277343750000e+03) (22, -1.85312316894531250000e+02) (23, 1.36106262207031250000e+03) (24, 7.20556640625000000000e+02) (25, -6.36768615722656250000e+02) (26, -3.18626647949218750000e+02) (27, 1.44226269531250000000e+03) (28, 1.44226269531250000000e+03) (29, -8.64993957519531250000e+02) (30, 8.46092651367187500000e+02) (31, 1.61015655517578125000e+02) (32, -6.44457931518554687500e+01) (33, 1.39380346679687500000e+03) (34, 6.31007690429687500000e+02) (35, 2.96721710205078125000e+02) (36, 2.94751739501953125000e+02) (37, 2.43059936523437500000e+02) (0, -1.21554821777343750000e+03) (1, -2.08504974365234375000e+02) (2, -1.49944067382812500000e+03) (3, -1.21554821777343750000e+03) (4, -1.21554821777343750000e+03) (5, 6.69156217575073242188e+00) (6, -8.70976257324218750000e+02) (7, 1.42270825195312500000e+03) (8, 1.41721594238281250000e+03) (9, 1.49951916503906250000e+03) (10, -4.02703094482421875000e+01) (11, 1.39957666015625000000e+03) (12, 1.39961340332031250000e+03) (13, 1.49979553222656250000e+03) (14, 8.80997192382812500000e+02) (15, 1.47080126953125000000e+03) (16, 1.47080126953125000000e+03) (17, -9.12855346679687500000e+02) (18, 6.96379516601562500000e+02) (19, 1.27108435058593750000e+03) (20, 1.47864904785156250000e+03) (21, -1.42525695800781250000e+03) (22, 4.49005218505859375000e+02) (23, -1.23235729980468750000e+03) (24, -1.56294036865234375000e+02) (25, 7.00691711425781250000e+02) (26, 7.32465576171875000000e+02) (27, -1.41109460449218750000e+03) (28, -1.49133007812500000000e+03) (29, 7.07524353027343750000e+02) (30, -6.42871704101562500000e+02) (31, 4.16568634033203125000e+02) (32, 5.31029968261718750000e+02) (33, -1.18077014160156250000e+03) (34, 1.23073449707031250000e+03) (35, -6.05991638183593750000e+02) (36, -3.75564422607421875000e+02) (37, 1.03024768066406250000e+03) (0, 1.24089831542968750000e+03) (1, 2.44353302001953125000e+02) (2, 1.49975219726562500000e+03) (3, 1.33603735351562500000e+03) (4, 1.24089831542968750000e+03) (5, -6.70979064941406250000e+02) (6, 1.30068823242187500000e+03) (7, -7.00058044433593750000e+02) (8, -1.75332855224609375000e+02) (9, -1.49943786621093750000e+03) (10, 4.73437469482421875000e+02) (11, -1.38664941406250000000e+03) (12, -1.30516955566406250000e+03) (13, -1.49891674804687500000e+03) (14, 6.35826416015625000000e+02) (15, -1.38664941406250000000e+03) (16, -1.38664941406250000000e+03) (17, 1.00037921142578125000e+03) (18, 1.49863903808593750000e+03) (19, -6.39101142883300781250e+01) (20, -3.81831512451171875000e+01) (21, 1.46695092773437500000e+03) (22, -1.85312316894531250000e+02) (23, 1.44222692871093750000e+03) (24, 9.17866088867187500000e+02) (25, -1.27094641113281250000e+03) (26, -3.14152709960937500000e+02) (27, 1.44226269531250000000e+03) (28, 1.44226269531250000000e+03) (29, -8.50414428710937500000e+02) (30, 1.28143713378906250000e+03) (31, 2.98368957519531250000e+02) (32, 2.98368957519531250000e+02) (33, 7.35545654296875000000e+02) (34, -2.51872009277343750000e+02) (35, 2.94751739501953125000e+02) (36, 1.85868011474609375000e+02) (37, 1.02267889404296875000e+03) (0, 1.24502648925781250000e+03) (1, 1.24675226211547851562e+00) (2, 1.49975219726562500000e+03) (3, 1.36667065429687500000e+03) (4, 1.36667065429687500000e+03) (5, 4.25929748535156250000e+02) (6, 1.49951916503906250000e+03) (7, 2.80964294433593750000e+02) (8, -1.08405566406250000000e+03) (9, -1.49943786621093750000e+03) (10, 5.73889404296875000000e+02) (11, -1.30516955566406250000e+03) (12, -1.30516955566406250000e+03) (13, -1.49891674804687500000e+03) (14, 3.09564086914062500000e+02) (15, -1.28702551269531250000e+03) (16, -1.28702551269531250000e+03) (17, 1.24100866699218750000e+03) (18, 1.08169921875000000000e+03) (19, 6.02694213867187500000e+02) (20, 6.87088439941406250000e+02) (21, 1.49865490722656250000e+03) (22, -8.33582702636718750000e+02) (23, 1.44222692871093750000e+03) (24, 1.09778857421875000000e+03) (25, -2.93711761474609375000e+02) (26, 2.64077819824218750000e+02) (27, 1.44226269531250000000e+03) (28, 1.44226269531250000000e+03) (29, -7.04187072753906250000e+02) (30, 1.24919262695312500000e+03) (31, 2.52363952636718750000e+02) (32, 1.35909240722656250000e+02) (33, 1.48228186035156250000e+03) (34, -8.90839843750000000000e+01) (35, 2.94751739501953125000e+02) (36, 2.94751739501953125000e+02) (37, 1.46991894531250000000e+03) (0, -1.22060290527343750000e+03) (1, -4.19662292480468750000e+02) (2, -1.49944067382812500000e+03) (3, -1.25125244140625000000e+03) (4, -1.21554821777343750000e+03) (5, 8.36901916503906250000e+02) (6, -1.48542810058593750000e+03) (7, 1.06595581054687500000e+03) (8, 1.31279443359375000000e+03) (9, 1.49979553222656250000e+03) (10, -2.52340255737304687500e+02) (11, 1.39964123535156250000e+03) (12, 1.39964123535156250000e+03) (13, 1.49940527343750000000e+03) (14, 3.40419921875000000000e+02) (15, 1.47080126953125000000e+03) (16, 1.47080126953125000000e+03) (17, -1.44025451660156250000e+03) (18, -1.22508996582031250000e+03) (19, 1.17736889648437500000e+03) (20, 1.50000000000000000000e+03) (21, -1.49505273437500000000e+03) (22, -1.17890386581420898438e+01) (23, -1.38087512207031250000e+03) (24, -1.04659851074218750000e+03) (25, 1.00596697998046875000e+03) (26, 3.80924133300781250000e+02) (27, -1.38093408203125000000e+03) (28, -1.38093408203125000000e+03) (29, 7.05788330078125000000e+02) (30, -4.39340850830078125000e+02) (31, 2.58109375000000000000e+02) (32, 2.54129150390625000000e+02) (33, -1.18119555664062500000e+03) (34, 1.04188452148437500000e+03) (35, -3.80503143310546875000e+02) (36, -3.80503143310546875000e+02) (37, -4.85676940917968750000e+02) (0, 1.24089831542968750000e+03) (1, 2.29559421539306640625e+00) (2, 1.49975219726562500000e+03) (3, 1.24089831542968750000e+03) (4, 1.24093676757812500000e+03) (5, 5.67490905761718750000e+02) (6, 1.30931359863281250000e+03) (7, 7.07677246093750000000e+02) (8, -1.37833114624023437500e+02) (9, -1.49943786621093750000e+03) (10, 6.29657592773437500000e+02) (11, -1.38657348632812500000e+03) (12, -1.30509362792968750000e+03) (13, -1.49891674804687500000e+03) (14, 1.49759997558593750000e+03) (15, -1.38664941406250000000e+03) (16, -1.38664941406250000000e+03) (17, 1.39031359863281250000e+03) (18, 7.66995117187500000000e+02) (19, 7.84618606567382812500e+01) (20, 1.93553649902343750000e+02) (21, 1.47196520996093750000e+03) (22, -3.75460357666015625000e+02) (23, 1.44222692871093750000e+03) (24, 1.29548596191406250000e+03) (25, -3.54017211914062500000e+02) (26, -3.18626647949218750000e+02) (27, 1.44226269531250000000e+03) (28, 1.44226269531250000000e+03) (29, -9.81921997070312500000e+02) (30, 1.28143713378906250000e+03) (31, 1.70232849121093750000e+02) (32, 1.70232849121093750000e+02) (33, 1.39327429199218750000e+03) (34, 3.40944000244140625000e+02) (35, 2.96875244140625000000e+02) (36, 2.96875244140625000000e+02) (37, 1.49991345214843750000e+03) (0, 1.24089831542968750000e+03) (1, 3.70762084960937500000e+02) (2, 1.49975219726562500000e+03) (3, 1.24089831542968750000e+03) (4, 1.24089831542968750000e+03) (5, -1.07841760253906250000e+03) (6, 1.49951916503906250000e+03) (7, -9.19671081542968750000e+02) (8, -1.21947692871093750000e+03) (9, -1.49943786621093750000e+03) (10, 5.23437500000000000000e+02) (11, -1.30516955566406250000e+03) (12, -1.24307568359375000000e+03) (13, -1.49891674804687500000e+03) (14, 1.09460192871093750000e+03) (15, -1.38664941406250000000e+03) (16, -1.38664941406250000000e+03) (17, 1.39261120605468750000e+03) (18, 1.49863903808593750000e+03) (19, -7.71212387084960937500e+01) (20, 3.14456024169921875000e+02) (21, 1.43416833496093750000e+03) (22, -1.85312316894531250000e+02) (23, 1.44222692871093750000e+03) (24, 1.39837902832031250000e+03) (25, -3.21784820556640625000e+01) (26, 9.19258728027343750000e+01) (27, 1.44226269531250000000e+03) (28, 1.44226269531250000000e+03) (29, -6.96585266113281250000e+02) (30, 1.30661413574218750000e+03) (31, 2.05505310058593750000e+02) (32, 2.05505310058593750000e+02) (33, 7.60696289062500000000e+02) (34, 1.80753845214843750000e+02) (35, -2.66479740142822265625e+01) (36, -2.66479740142822265625e+01) (37, 1.49928430175781250000e+03) (0, 1.38441430664062500000e+03) (1, 2.45402160644531250000e+02) (2, 1.49975219726562500000e+03) (3, 1.25583935546875000000e+03) (4, 1.25583935546875000000e+03) (5, -2.79415313720703125000e+02) (6, 1.49951916503906250000e+03) (7, 9.15971755981445312500e+01) (8, -1.22033300781250000000e+03) (9, -1.49943786621093750000e+03) (10, 5.23437500000000000000e+02) (11, -1.30516955566406250000e+03) (12, -1.30516955566406250000e+03) (13, -1.49943786621093750000e+03) (14, 9.54840759277343750000e+02) (15, -1.38664941406250000000e+03) (16, -1.38664941406250000000e+03) (17, 1.24161291503906250000e+03) (18, 1.49863903808593750000e+03) (19, 2.29249938964843750000e+02) (20, 2.80536560058593750000e+02) (21, 1.43571386718750000000e+03) (22, -1.85312316894531250000e+02) (23, 1.44222692871093750000e+03) (24, 1.44222692871093750000e+03) (25, -2.10919906616210937500e+02) (26, 9.19258728027343750000e+01) (27, 1.44226269531250000000e+03) (28, 1.44226269531250000000e+03) (29, -6.29581298828125000000e+02) (30, 1.28190515136718750000e+03) (31, -9.27464447021484375000e+01) (32, -9.27464447021484375000e+01) (33, 1.00168280029296875000e+03) (34, -2.67345672607421875000e+02) (35, -2.17079753875732421875e+01) (36, -2.17079753875732421875e+01) (37, 1.49925244140625000000e+03) (0, 1.24089831542968750000e+03) (1, 3.70762084960937500000e+02) (2, 1.49975219726562500000e+03) (3, 1.24089831542968750000e+03) (4, 1.24089831542968750000e+03) (5, -5.06045471191406250000e+02) (6, 1.49951916503906250000e+03) (7, 9.05009155273437500000e+01) (8, -1.16096508789062500000e+03) (9, -1.49943786621093750000e+03) (10, 1.46376007080078125000e+02) (11, -1.30516955566406250000e+03) (12, -1.30516955566406250000e+03) (13, -1.49891674804687500000e+03) (14, 1.99392120361328125000e+02) (15, -1.38664941406250000000e+03) (16, -1.38664941406250000000e+03) (17, 1.21519995117187500000e+03) (18, -4.97620513916015625000e+02) (19, -9.13375610351562500000e+02) (20, -1.18579394531250000000e+03) (21, 1.46671313476562500000e+03) (22, -1.85312316894531250000e+02) (23, 1.44222692871093750000e+03) (24, 1.44222692871093750000e+03) (25, -7.26480560302734375000e+01) (26, -5.63954833984375000000e+02) (27, 1.44226269531250000000e+03) (28, 1.44226269531250000000e+03) (29, -1.01377716064453125000e+03) (30, 9.45778991699218750000e+02) (31, 7.03834228515625000000e+01) (32, -4.54165458679199218750e+01) (33, 9.76495117187500000000e+02) (34, -4.23190155029296875000e+01) (35, 1.85868011474609375000e+02) (36, 1.85868011474609375000e+02) (37, -6.09531936645507812500e+01) (0, 1.45029663085937500000e+03) (1, 3.63354980468750000000e+02) (2, 1.49975219726562500000e+03) (3, 1.44450341796875000000e+03) (4, 1.39285510253906250000e+03) (5, 9.81573638916015625000e+01) (6, 1.49951916503906250000e+03) (7, -4.34116455078125000000e+02) (8, -8.91061706542968750000e+02) (9, -1.49943786621093750000e+03) (10, 4.57637481689453125000e+02) (11, -1.30516955566406250000e+03) (12, -1.30516955566406250000e+03) (13, -1.49891674804687500000e+03) (14, 9.44455871582031250000e+02) (15, -1.38664941406250000000e+03) (16, -1.38664941406250000000e+03) (17, 1.38948193359375000000e+03) (18, 1.49863903808593750000e+03) (19, -2.60358166694641113281e+00) (20, 1.67047744750976562500e+02) (21, 1.43413623046875000000e+03) (22, -2.99993804931640625000e+02) (23, 1.44222692871093750000e+03) (24, 1.44222692871093750000e+03) (25, -2.34841339111328125000e+02) (26, 2.11343444824218750000e+02) (27, 1.44226269531250000000e+03) (28, 1.46010766601562500000e+03) (29, -6.30769714355468750000e+02) (30, 1.25891271972656250000e+03) (31, 1.39192398071289062500e+02) (32, 1.39192398071289062500e+02) (33, 7.60696289062500000000e+02) (34, -5.01753997802734375000e+02) (35, -2.66479740142822265625e+01) (36, -2.66479740142822265625e+01) (37, 1.49989880371093750000e+03) (0, 1.35547424316406250000e+03) (1, 2.43832717895507812500e+02) (2, 1.49975219726562500000e+03) (3, 1.38481677246093750000e+03) (4, 1.38481677246093750000e+03) (5, 2.67580780029296875000e+02) (6, 1.29714831542968750000e+03) (7, 1.54855300903320312500e+02) (8, 4.42401161193847656250e+01) (9, -1.49943786621093750000e+03) (10, 1.38504260253906250000e+03) (11, -1.24064953613281250000e+03) (12, -1.24064953613281250000e+03) (13, -1.49891674804687500000e+03) (14, 1.49759997558593750000e+03) (15, -1.38664941406250000000e+03) (16, -1.38664941406250000000e+03) (17, 1.23715222167968750000e+03) (18, 1.25455407714843750000e+03) (19, 9.24437683105468750000e+02) (20, 6.42061889648437500000e+02) (21, 9.20805175781250000000e+02) (22, -8.61651550292968750000e+02) (23, 2.16996963500976562500e+02) (24, -5.76726196289062500000e+02) (25, -1.33673999023437500000e+03) (26, -1.28596875000000000000e+03) (27, 1.44226269531250000000e+03) (28, 1.44226269531250000000e+03) (29, -7.02315124511718750000e+02) (30, 4.84728698730468750000e+02) (31, -5.49209106445312500000e+02) (32, -5.49187988281250000000e+02) (33, 1.97210510253906250000e+02) (34, -9.72688064575195312500e+01) (35, -1.77339115142822265625e+01) (36, 1.71875457763671875000e+02) (37, 1.49487133789062500000e+03) (0, 1.44846398925781250000e+03) (1, 1.76473297119140625000e+02) (2, 1.49975219726562500000e+03) (3, 1.24089831542968750000e+03) (4, 1.24089831542968750000e+03) (5, 7.10136184692382812500e+01) (6, 1.49951916503906250000e+03) (7, 1.34857910156250000000e+03) (8, 1.09625341796875000000e+03) (9, -1.49943786621093750000e+03) (10, 2.86506561279296875000e+02) (11, -7.25039245605468750000e+02) (12, -7.42011596679687500000e+02) (13, -1.49891674804687500000e+03) (14, 1.49759997558593750000e+03) (15, -1.38664941406250000000e+03) (16, -1.38664941406250000000e+03) (17, 1.47961035156250000000e+03) (18, 1.49863903808593750000e+03) (19, 2.35628372192382812500e+02) (20, -8.47731781005859375000e+01) (21, 1.49535351562500000000e+03) (22, -2.06587463378906250000e+02) (23, 1.44222692871093750000e+03) (24, 1.20481750488281250000e+03) (25, -1.31923937988281250000e+03) (26, 1.19367401123046875000e+02) (27, 1.45014733886718750000e+03) (28, 1.45014733886718750000e+03) (29, -7.77301818847656250000e+02) (30, 1.22053637695312500000e+03) (31, 8.75940795898437500000e+02) (32, 8.10741882324218750000e+02) (33, 8.72023239135742187500e+01) (34, -1.13748645019531250000e+03) (35, 1.41197705078125000000e+03) (36, 1.36328430175781250000e+03) (37, 1.45459240722656250000e+03) (0, -1.21554821777343750000e+03) (1, -6.19762695312500000000e+02) (2, -1.49944067382812500000e+03) (3, -1.21554821777343750000e+03) (4, -1.21554821777343750000e+03) (5, 2.64007415771484375000e+02) (6, -4.06509590148925781250e+01) (7, 2.07060058593750000000e+02) (8, 7.38392822265625000000e+02) (9, 6.06018737792968750000e+02) (10, 1.16896801757812500000e+03) (11, 1.39964123535156250000e+03) (12, 1.39964123535156250000e+03) (13, 1.41510900878906250000e+03) (14, -3.60570495605468750000e+02) (15, 1.47080126953125000000e+03) (16, 1.47080126953125000000e+03) (17, -1.44350085449218750000e+03) (18, -1.28605944824218750000e+03) (19, 4.14094482421875000000e+02) (20, 1.20488256835937500000e+03) (21, -1.50000000000000000000e+03) (22, 1.14548278808593750000e+03) (23, -1.89704101562500000000e+02) (24, 4.52919769287109375000e+02) (25, 9.69737548828125000000e+02) (26, 3.90816162109375000000e+02) (27, -1.33916979980468750000e+03) (28, -1.33916979980468750000e+03) (29, 8.39738037109375000000e+02) (30, 2.70767761230468750000e+02) (31, 5.06750976562500000000e+02) (32, 5.57750854492187500000e+02) (33, -1.28871520996093750000e+03) (34, 6.65753540039062500000e+02) (35, -8.55818176269531250000e+02) (36, -7.64745422363281250000e+02) (37, 5.99311279296875000000e+02) (0, 1.38057446289062500000e+03) (1, 1.26206718444824218750e+02) (2, 1.49975219726562500000e+03) (3, 1.36667065429687500000e+03) (4, 1.24089831542968750000e+03) (5, 2.81331085205078125000e+02) (6, 9.81061767578125000000e+02) (7, 8.56880737304687500000e+02) (8, 5.25617919921875000000e+02) (9, -1.49943786621093750000e+03) (10, 1.49759997558593750000e+03) (11, -1.30516955566406250000e+03) (12, -1.30516955566406250000e+03) (13, -1.49891674804687500000e+03) (14, 1.49759997558593750000e+03) (15, -1.38664941406250000000e+03) (16, -1.38664941406250000000e+03) (17, 1.48175280761718750000e+03) (18, 1.49863903808593750000e+03) (19, 1.33928878784179687500e+02) (20, 1.02837677001953125000e+02) (21, 1.49963854980468750000e+03) (22, -6.24577209472656250000e+02) (23, 1.44222692871093750000e+03) (24, 1.13817834472656250000e+03) (25, -1.43084960937500000000e+03) (26, -5.84460693359375000000e+02) (27, 1.44226269531250000000e+03) (28, 1.44226269531250000000e+03) (29, -8.49203857421875000000e+02) (30, 1.28143713378906250000e+03) (31, 2.90907867431640625000e+02) (32, 6.54464492797851562500e+01) (33, 8.84540100097656250000e+02) (34, -2.97853729248046875000e+02) (35, 1.24552258300781250000e+03) (36, 1.07299218750000000000e+03) (37, 1.49983032226562500000e+03) (0, -1.21554821777343750000e+03) (1, 4.90529975891113281250e+01) (2, -1.49944067382812500000e+03) (3, -1.22696154785156250000e+03) (4, -1.21554821777343750000e+03) (5, 5.26296386718750000000e+02) (6, -1.16782324218750000000e+03) (7, 1.44279809570312500000e+03) (8, 1.47668579101562500000e+03) (9, 1.49979553222656250000e+03) (10, -1.44008483886718750000e+02) (11, 1.47080126953125000000e+03) (12, 1.39964123535156250000e+03) (13, 1.49979553222656250000e+03) (14, -3.68940521240234375000e+02) (15, 1.47083703613281250000e+03) (16, 1.47083703613281250000e+03) (17, -6.51908691406250000000e+02) (18, -1.11795068359375000000e+03) (19, 1.34710778808593750000e+03) (20, 1.42554602050781250000e+03) (21, -1.43555029296875000000e+03) (22, 4.94732513427734375000e+02) (23, -1.38093408203125000000e+03) (24, -8.87432006835937500000e+02) (25, 3.05543762207031250000e+02) (26, 7.62295532226562500000e+02) (27, -1.38093408203125000000e+03) (28, -1.38093408203125000000e+03) (29, 7.07280395507812500000e+02) (30, -8.72001892089843750000e+02) (31, 4.31952758789062500000e+02) (32, 5.47752624511718750000e+02) (33, -6.79366821289062500000e+02) (34, 7.44021728515625000000e+02) (35, 2.30093460083007812500e+02) (36, 3.29603576660156250000e+02) (37, -1.64555755615234375000e+02) (0, 1.24089831542968750000e+03) (1, 2.43867340087890625000e+02) (2, 1.49940527343750000000e+03) (3, 1.36667065429687500000e+03) (4, 1.24089831542968750000e+03) (5, 6.63920654296875000000e+02) (6, 5.28491882324218750000e+02) (7, 8.31585571289062500000e+02) (8, 5.75971923828125000000e+02) (9, -1.49943786621093750000e+03) (10, 3.74305694580078125000e+02) (11, -1.30565527343750000000e+03) (12, -1.30565527343750000000e+03) (13, -1.49891674804687500000e+03) (14, 1.11274035644531250000e+03) (15, -1.47209509277343750000e+03) (16, -1.38713513183593750000e+03) (17, 9.94765930175781250000e+02) (18, 1.49863903808593750000e+03) (19, 3.42023773193359375000e+01) (20, -1.80071945190429687500e+01) (21, 1.43262353515625000000e+03) (22, -1.70440597534179687500e+02) (23, 1.44222692871093750000e+03) (24, 1.44222692871093750000e+03) (25, -5.14178100585937500000e+02) (26, -1.41050659179687500000e+02) (27, 1.44226269531250000000e+03) (28, 1.44226269531250000000e+03) (29, -6.30784057617187500000e+02) (30, 1.28143713378906250000e+03) (31, 1.05189643859863281250e+02) (32, 1.05189643859863281250e+02) (33, 1.39346325683593750000e+03) (34, -5.10972991943359375000e+02) (35, 5.26890075683593750000e+02) (36, 5.26890075683593750000e+02) (37, 1.49931384277343750000e+03) (0, 1.25053063964843750000e+03) (1, 2.44353302001953125000e+02) (2, 1.49975219726562500000e+03) (3, 1.38481677246093750000e+03) (4, 1.25053063964843750000e+03) (5, -8.39918090820312500000e+02) (6, 1.49951916503906250000e+03) (7, -8.60081665039062500000e+02) (8, -1.37827685546875000000e+03) (9, -1.49943786621093750000e+03) (10, 5.23437500000000000000e+02) (11, -1.38664941406250000000e+03) (12, -1.30516955566406250000e+03) (13, -1.49891674804687500000e+03) (14, 8.26694030761718750000e+02) (15, -1.38664941406250000000e+03) (16, -1.38664941406250000000e+03) (17, 1.39076098632812500000e+03) (18, 1.49863903808593750000e+03) (19, 1.90519439697265625000e+02) (20, 2.49643157958984375000e+02) (21, 1.43416833496093750000e+03) (22, -3.75460357666015625000e+02) (23, 1.44222692871093750000e+03) (24, 1.44222692871093750000e+03) (25, -5.36311626434326171875e+00) (26, -3.18272705078125000000e+02) (27, 1.44226269531250000000e+03) (28, 1.44226269531250000000e+03) (29, -6.30783508300781250000e+02) (30, 9.75764221191406250000e+02) (31, -2.50319152832031250000e+02) (32, -2.50319152832031250000e+02) (33, 7.60696289062500000000e+02) (34, 6.67926391601562500000e+02) (35, 1.85868011474609375000e+02) (36, 1.85868011474609375000e+02) (37, 1.49993444824218750000e+03) (0, -1.22060290527343750000e+03) (1, -3.67629203796386718750e+01) (2, -1.49944067382812500000e+03) (3, -1.21554821777343750000e+03) (4, -1.21554821777343750000e+03) (5, 1.49963317871093750000e+03) (6, -6.62823059082031250000e+02) (7, 4.87226318359375000000e+02) (8, 1.35161120605468750000e+03) (9, 1.30085974121093750000e+03) (10, 1.20380627441406250000e+03) (11, 1.43264123535156250000e+03) (12, 1.43264123535156250000e+03) (13, 1.49940527343750000000e+03) (14, 2.86472381591796875000e+02) (15, 1.47080126953125000000e+03) (16, 1.47080126953125000000e+03) (17, -1.48999011230468750000e+03) (18, -1.41043981933593750000e+03) (19, 2.26201843261718750000e+02) (20, 3.42550231933593750000e+02) (21, -1.49273315429687500000e+03) (22, 1.15581457519531250000e+03) (23, -1.38087512207031250000e+03) (24, -7.83130798339843750000e+02) (25, 8.32070251464843750000e+02) (26, 7.43973632812500000000e+02) (27, -1.38093408203125000000e+03) (28, -9.51972534179687500000e+02) (29, 9.13078002929687500000e+02) (30, -3.44246765136718750000e+02) (31, 6.68641281127929687500e+01) (32, 8.12032394409179687500e+01) (33, -7.97671997070312500000e+02) (34, 1.46434582519531250000e+03) (35, -1.11184106445312500000e+03) (36, -5.63348022460937500000e+02) (37, 8.42042480468750000000e+02) (0, 1.32798388671875000000e+03) (1, 1.90272693634033203125e+01) (2, 1.49975219726562500000e+03) (3, 1.24089831542968750000e+03) (4, 1.24089831542968750000e+03) (5, -5.07941650390625000000e+02) (6, 6.78349380493164062500e+01) (7, 5.65823913574218750000e+02) (8, -9.31393249511718750000e+02) (9, -1.49943786621093750000e+03) (10, -2.44939422607421875000e+02) (11, -1.30516955566406250000e+03) (12, -1.30516955566406250000e+03) (13, -1.49891674804687500000e+03) (14, -2.33653411865234375000e+02) (15, -1.38664941406250000000e+03) (16, -1.38664941406250000000e+03) (17, 1.47647558593750000000e+03) (18, 1.48991577148437500000e+03) (19, -3.87481689453125000000e+02) (20, 5.63487281799316406250e+01) (21, 1.49216894531250000000e+03) (22, -3.60190216064453125000e+02) (23, 8.13060241699218750000e+02) (24, -3.53874664306640625000e+02) (25, -6.62995986938476562500e+01) (26, -7.16472778320312500000e+02) (27, 6.21755249023437500000e+02) (28, -7.28281616210937500000e+02) (29, -7.02350585937500000000e+02) (30, 8.84921020507812500000e+02) (31, -9.20215511322021484375e+00) (32, -9.20215511322021484375e+00) (33, 1.48211315917968750000e+03) (34, 4.91104064941406250000e+02) (35, 1.21418188476562500000e+03) (36, 1.18001440429687500000e+03) (37, -1.01210357666015625000e+03) (0, 1.24089831542968750000e+03) (1, 3.70762084960937500000e+02) (2, 1.49975219726562500000e+03) (3, 1.24502648925781250000e+03) (4, 1.24089831542968750000e+03) (5, 2.69719451904296875000e+02) (6, 1.28481005859375000000e+03) (7, -1.16934997558593750000e+03) (8, -6.80534667968750000000e+02) (9, -1.39966101074218750000e+03) (10, 1.29551239013671875000e+02) (11, -1.30516955566406250000e+03) (12, -1.05384460449218750000e+03) (13, -1.49891674804687500000e+03) (14, 1.13683813476562500000e+03) (15, -1.38664941406250000000e+03) (16, -1.38664941406250000000e+03) (17, 1.39076733398437500000e+03) (18, 1.26412780761718750000e+03) (19, 3.51082641601562500000e+02) (20, 1.82082962036132812500e+02) (21, 1.48731982421875000000e+03) (22, 1.63023925781250000000e+02) (23, 1.44222692871093750000e+03) (24, 1.34190319824218750000e+03) (25, -5.33697326660156250000e+02) (26, -9.00772705078125000000e+02) (27, 1.44226269531250000000e+03) (28, 1.44226269531250000000e+03) (29, -8.49102111816406250000e+02) (30, 1.01219873046875000000e+03) (31, -1.61363067626953125000e+01) (32, -1.61363067626953125000e+01) (33, 1.39104028320312500000e+03) (34, -2.52039413452148437500e+02) (35, 7.25194030761718750000e+02) (36, 5.85149108886718750000e+02) (37, 1.63298858642578125000e+02) (0, 1.25053063964843750000e+03) (1, 3.99647888183593750000e+02) (2, 1.49975219726562500000e+03) (3, 1.24089831542968750000e+03) (4, 1.24089831542968750000e+03) (5, -1.92511627197265625000e+02) (6, 9.30920349121093750000e+02) (7, -8.60739135742187500000e+02) (8, -5.86317626953125000000e+02) (9, -1.49943786621093750000e+03) (10, 3.87265655517578125000e+02) (11, -1.30516955566406250000e+03) (12, -1.14375109863281250000e+03) (13, -1.49891674804687500000e+03) (14, 2.66213226318359375000e+02) (15, -1.38664941406250000000e+03) (16, -1.35136950683593750000e+03) (17, 9.94763977050781250000e+02) (18, 1.35808874511718750000e+03) (19, 4.35002441406250000000e+02) (20, 4.41716491699218750000e+02) (21, 1.36613134765625000000e+03) (22, -3.56431304931640625000e+02) (23, 1.44222692871093750000e+03) (24, 8.32170104980468750000e+02) (25, -9.56016302108764648438e-01) (26, -1.42498962402343750000e+03) (27, 1.45200354003906250000e+03) (28, 1.48351660156250000000e+03) (29, -6.70625610351562500000e+02) (30, 9.37320617675781250000e+02) (31, -1.00628532409667968750e+02) (32, -1.00628532409667968750e+02) (33, 1.39329187011718750000e+03) (34, 3.66032684326171875000e+02) (35, 9.98409667968750000000e+02) (36, 7.63408264160156250000e+02) (37, 9.41144836425781250000e+02) (0, 1.24090661621093750000e+03) (1, 8.20683479309082031250e+00) (2, 1.49975219726562500000e+03) (3, 1.24089831542968750000e+03) (4, 1.24089831542968750000e+03) (5, 7.64837341308593750000e+01) (6, 1.49951916503906250000e+03) (7, 1.01250236511230468750e+02) (8, -1.24137097167968750000e+03) (9, -1.49943786621093750000e+03) (10, 5.23437500000000000000e+02) (11, -1.38662158203125000000e+03) (12, -1.38664941406250000000e+03) (13, -1.49891674804687500000e+03) (14, 3.98051544189453125000e+02) (15, -1.38664941406250000000e+03) (16, -1.38664941406250000000e+03) (17, 1.24161291503906250000e+03) (18, 5.94727539062500000000e+02) (19, -6.48719726562500000000e+02) (20, -3.58910766601562500000e+02) (21, 1.43513928222656250000e+03) (22, -1.85312316894531250000e+02) (23, 1.44222692871093750000e+03) (24, 1.25504626464843750000e+03) (25, -5.72268905639648437500e+01) (26, 9.34417419433593750000e+01) (27, 1.44226269531250000000e+03) (28, 1.44226269531250000000e+03) (29, -6.30784057617187500000e+02) (30, 1.28143713378906250000e+03) (31, -1.47412490844726562500e+02) (32, -1.65772476196289062500e+02) (33, 7.60696289062500000000e+02) (34, -1.46307205200195312500e+02) (35, -1.92286117553710937500e+02) (36, -1.92286117553710937500e+02) (37, 1.49929187011718750000e+03) (0, 1.24089831542968750000e+03) (1, 3.70762084960937500000e+02) (2, 1.49975219726562500000e+03) (3, 1.24089831542968750000e+03) (4, 1.24089831542968750000e+03) (5, -9.21376403808593750000e+02) (6, 1.49951916503906250000e+03) (7, -4.00530303955078125000e+02) (8, -8.09144042968750000000e+02) (9, -1.49943786621093750000e+03) (10, 5.23437500000000000000e+02) (11, -1.28702551269531250000e+03) (12, -1.28702551269531250000e+03) (13, -1.49891674804687500000e+03) (14, 8.58986633300781250000e+02) (15, -1.38664941406250000000e+03) (16, -1.38664941406250000000e+03) (17, 9.94732727050781250000e+02) (18, 1.49863903808593750000e+03) (19, -5.41356872558593750000e+02) (20, -5.91564758300781250000e+02) (21, 1.43411877441406250000e+03) (22, -2.51112304687500000000e+02) (23, 1.41503210449218750000e+03) (24, 1.41503210449218750000e+03) (25, -5.28182487487792968750e+01) (26, 2.64077819824218750000e+02) (27, 1.44226269531250000000e+03) (28, 1.44226269531250000000e+03) (29, -6.30784057617187500000e+02) (30, 1.34260839843750000000e+03) (31, 1.10899787902832031250e+02) (32, 1.07388313293457031250e+02) (33, 5.19807495117187500000e+02) (34, 1.13280419921875000000e+03) (35, 9.40920028686523437500e+01) (36, 9.40920028686523437500e+01) (37, 1.49968945312500000000e+03) (0, -1.21554821777343750000e+03) (1, -1.41489593505859375000e+02) (2, -1.49944067382812500000e+03) (3, -1.21554821777343750000e+03) (4, -1.21554821777343750000e+03) (5, 2.41677749633789062500e+02) (6, -2.43433242797851562500e+02) (7, 1.41424450683593750000e+03) (8, 1.41424450683593750000e+03) (9, 1.49979553222656250000e+03) (10, -8.29684219360351562500e+01) (11, 1.39964123535156250000e+03) (12, 1.39964123535156250000e+03) (13, 1.49940527343750000000e+03) (14, -1.49753771972656250000e+03) (15, 1.47080126953125000000e+03) (16, 1.47080126953125000000e+03) (17, -1.36340283203125000000e+03) (18, -1.48404296875000000000e+03) (19, 8.82618469238281250000e+02) (20, 1.13852416992187500000e+03) (21, -1.48672033691406250000e+03) (22, 6.84485656738281250000e+02) (23, -1.76944229125976562500e+02) (24, -2.27924606323242187500e+02) (25, 9.28115051269531250000e+02) (26, 1.41475903320312500000e+03) (27, -1.38093408203125000000e+03) (28, -9.95380096435546875000e+01) (29, 7.71969787597656250000e+02) (30, -7.44733581542968750000e+02) (31, 8.93235839843750000000e+02) (32, 1.01261865234375000000e+03) (33, -1.31961108398437500000e+03) (34, 7.27129882812500000000e+02) (35, 8.74225540161132812500e+01) (36, 1.46903934478759765625e+01) (37, -3.40029907226562500000e+02) (0, -1.22060290527343750000e+03) (1, 9.31169509887695312500e+01) (2, -1.49944067382812500000e+03) (3, -1.36953344726562500000e+03) (4, -1.28382397460937500000e+03) (5, 6.04819885253906250000e+02) (6, -1.35445385742187500000e+03) (7, 2.31522491455078125000e+02) (8, 1.04378771972656250000e+03) (9, 1.49979553222656250000e+03) (10, -3.18140289306640625000e+02) (11, 1.47080126953125000000e+03) (12, 1.47080126953125000000e+03) (13, 1.49940527343750000000e+03) (14, -5.72095886230468750000e+02) (15, 1.47080126953125000000e+03) (16, 1.47080126953125000000e+03) (17, -9.17875610351562500000e+02) (18, -1.49826306152343750000e+03) (19, 2.15167877197265625000e+02) (20, 3.95450408935546875000e+02) (21, -1.40352087402343750000e+03) (22, 2.75152801513671875000e+02) (23, -1.38087512207031250000e+03) (24, -9.96699035644531250000e+02) (25, 9.28803222656250000000e+02) (26, 1.31966598510742187500e+02) (27, -1.38093408203125000000e+03) (28, -1.38093408203125000000e+03) (29, 7.71869323730468750000e+02) (30, -1.04342431640625000000e+03) (31, -9.89219741821289062500e+01) (32, 2.62780189514160156250e+01) (33, -9.20715209960937500000e+02) (34, 6.66878662109375000000e+01) (35, -4.94938621520996093750e+01) (36, -2.52034530639648437500e+02) (37, -1.43863327026367187500e+02) (0, 1.35547424316406250000e+03) (1, 3.61202117919921875000e+02) (2, 1.49975219726562500000e+03) (3, 1.44450341796875000000e+03) (4, 1.39285510253906250000e+03) (5, -8.07011474609375000000e+02) (6, 1.15764721679687500000e+03) (7, 3.90206565856933593750e+01) (8, -6.74427551269531250000e+02) (9, -1.44363964843750000000e+03) (10, 1.62777053833007812500e+02) (11, -1.19006433105468750000e+03) (12, -1.00744934082031250000e+03) (13, -1.49943786621093750000e+03) (14, 1.00430682373046875000e+03) (15, -1.38664941406250000000e+03) (16, -1.38664941406250000000e+03) (17, 1.44302844238281250000e+03) (18, 1.49863903808593750000e+03) (19, 9.53565246582031250000e+02) (20, 5.80848632812500000000e+02) (21, 1.47001342773437500000e+03) (22, -6.52082824707031250000e+02) (23, 1.44222692871093750000e+03) (24, 1.44222692871093750000e+03) (25, -1.89781585693359375000e+02) (26, -6.10891601562500000000e+02) (27, 1.45200354003906250000e+03) (28, 1.47129687500000000000e+03) (29, -8.49250976562500000000e+02) (30, 8.76660278320312500000e+02) (31, 2.10664321899414062500e+02) (32, 2.10664321899414062500e+02) (33, 7.61260864257812500000e+02) (34, -6.17262153625488281250e+01) (35, 2.94234497070312500000e+02) (36, 1.85350708007812500000e+02) (37, 1.05315734863281250000e+03) (0, 1.24502648925781250000e+03) (1, 2.13867462158203125000e+02) (2, 1.49975219726562500000e+03) (3, 1.28350817871093750000e+03) (4, 1.24502648925781250000e+03) (5, -5.97194824218750000000e+02) (6, 1.49951916503906250000e+03) (7, -6.07779479980468750000e+02) (8, -1.18686108398437500000e+03) (9, -1.49943786621093750000e+03) (10, 5.07637420654296875000e+02) (11, -1.28702551269531250000e+03) (12, -1.28702551269531250000e+03) (13, -1.49891674804687500000e+03) (14, 2.35811752319335937500e+02) (15, -1.38664941406250000000e+03) (16, -1.38664941406250000000e+03) (17, 1.39045202636718750000e+03) (18, 1.29646508789062500000e+03) (19, 4.31480102539062500000e+01) (20, 3.95830764770507812500e+01) (21, 1.42010632324218750000e+03) (22, 1.31971801757812500000e+02) (23, 1.44222692871093750000e+03) (24, 6.17996276855468750000e+02) (25, 2.77962066650390625000e+02) (26, 1.97393234252929687500e+02) (27, 1.44226269531250000000e+03) (28, 1.44226269531250000000e+03) (29, -8.88458557128906250000e+02) (30, 1.49979235839843750000e+03) (31, 4.33004241943359375000e+02) (32, 2.05853836059570312500e+02) (33, 1.00045159912109375000e+03) (34, 1.91588287353515625000e+02) (35, 2.04951995849609375000e+02) (36, -1.18423980712890625000e+02) (37, 4.09292083740234375000e+02) (0, 1.38057446289062500000e+03) (1, 4.47044555664062500000e+02) (2, 1.49975219726562500000e+03) (3, 1.36667065429687500000e+03) (4, 1.28935961914062500000e+03) (5, 5.59607299804687500000e+02) (6, -1.11030737304687500000e+03) (7, 2.12836898803710937500e+02) (8, 2.91727783203125000000e+02) (9, -1.49943786621093750000e+03) (10, -4.79478759765625000000e+02) (11, -1.30516955566406250000e+03) (12, -9.94408935546875000000e+02) (13, -1.49891674804687500000e+03) (14, -3.18496017456054687500e+01) (15, -1.38664941406250000000e+03) (16, -1.38664941406250000000e+03) (17, 1.39324169921875000000e+03) (18, 1.49226538085937500000e+03) (19, 8.11285858154296875000e+01) (20, 2.26592727661132812500e+02) (21, 1.49571081542968750000e+03) (22, -8.96304870605468750000e+02) (23, 1.04231530761718750000e+03) (24, -3.80801971435546875000e+02) (25, -1.35277941894531250000e+03) (26, -1.49197766113281250000e+03) (27, 8.44987609863281250000e+02) (28, -8.70249267578125000000e+02) (29, -8.49646362304687500000e+02) (30, 1.05241894531250000000e+03) (31, 1.88186950683593750000e+02) (32, -3.85333160400390625000e+02) (33, -1.67048892974853515625e+01) (34, -5.72570312500000000000e+02) (35, 1.00140307617187500000e+03) (36, 2.16679962158203125000e+02) (37, -1.14805957031250000000e+03) (0, 1.45029663085937500000e+03) (1, 1.24675226211547851562e+00) (2, 1.49975219726562500000e+03) (3, 1.47608129882812500000e+03) (4, 1.36176049804687500000e+03) (5, 3.55369018554687500000e+02) (6, 1.35315490722656250000e+03) (7, -1.38423416137695312500e+02) (8, -1.46872787475585937500e+02) (9, -1.49943786621093750000e+03) (10, -2.20731918334960937500e+02) (11, -1.20803723144531250000e+03) (12, -1.19427587890625000000e+03) (13, -1.49891674804687500000e+03) (14, 9.75046936035156250000e+02) (15, -1.42660949707031250000e+03) (16, -1.42660949707031250000e+03) (17, 9.98317199707031250000e+02) (18, 1.49863903808593750000e+03) (19, 4.40554504394531250000e+02) (20, 5.35160156250000000000e+02) (21, 1.48253723144531250000e+03) (22, 1.80198974609375000000e+02) (23, 1.44222692871093750000e+03) (24, 4.68632720947265625000e+02) (25, -6.52578918457031250000e+02) (26, -1.33583227539062500000e+03) (27, 1.44226269531250000000e+03) (28, 1.46010766601562500000e+03) (29, -1.24377368164062500000e+03) (30, 1.09087500000000000000e+03) (31, 9.51449356079101562500e+01) (32, 9.51449356079101562500e+01) (33, 1.24462219238281250000e+03) (34, -3.84115020751953125000e+02) (35, 7.61588562011718750000e+02) (36, 5.20222839355468750000e+02) (37, -1.32649169921875000000e+03) (0, -1.21554821777343750000e+03) (1, -2.07509490966796875000e+02) (2, -1.49944067382812500000e+03) (3, -1.21554821777343750000e+03) (4, -1.28692419433593750000e+03) (5, -1.41532058715820312500e+02) (6, -1.49907629394531250000e+03) (7, 5.87802673339843750000e+02) (8, 8.17039855957031250000e+02) (9, 1.49979553222656250000e+03) (10, -4.16713012695312500000e+02) (11, 1.24100134277343750000e+03) (12, 1.24100134277343750000e+03) (13, 1.49940527343750000000e+03) (14, -2.47969589233398437500e+01) (15, 1.47080126953125000000e+03) (16, 1.47080126953125000000e+03) (17, -1.44366784667968750000e+03) (18, -1.49826306152343750000e+03) (19, 2.07750579833984375000e+02) (20, 2.58786651611328125000e+02) (21, -1.45941992187500000000e+03) (22, 4.28419891357421875000e+02) (23, -1.38087512207031250000e+03) (24, -8.45158996582031250000e+02) (25, 6.56293395996093750000e+02) (26, 4.58529754638671875000e+02) (27, -1.38093408203125000000e+03) (28, -1.42047863769531250000e+03) (29, 7.07294311523437500000e+02) (30, -1.04342431640625000000e+03) (31, 9.37963485717773437500e+01) (32, 9.37963485717773437500e+01) (33, -9.20706420898437500000e+02) (34, 9.85623657226562500000e+02) (35, 1.19047489166259765625e+01) (36, 3.89495880126953125000e+02) (37, -1.24276672363281250000e+03) (0, -1.22060290527343750000e+03) (1, -4.14219177246093750000e+02) (2, -1.49944067382812500000e+03) (3, -1.23109240722656250000e+03) (4, -1.21554821777343750000e+03) (5, 1.20180249023437500000e+03) (6, -7.87303894042968750000e+02) (7, 1.41548583984375000000e+03) (8, 1.41548583984375000000e+03) (9, 1.49979553222656250000e+03) (10, -3.10606353759765625000e+02) (11, 1.39964123535156250000e+03) (12, 1.39964123535156250000e+03) (13, 1.49940527343750000000e+03) (14, -1.49753771972656250000e+03) (15, 1.47083703613281250000e+03) (16, 1.47083703613281250000e+03) (17, -1.16687829589843750000e+03) (18, -1.49826306152343750000e+03) (19, 5.89183959960937500000e+02) (20, 6.28875122070312500000e+02) (21, -7.18614929199218750000e+02) (22, 4.17856781005859375000e+02) (23, -8.80788513183593750000e+02) (24, 1.30372787475585937500e+02) (25, -1.77286209106445312500e+02) (26, 9.62926025390625000000e+02) (27, -1.38093408203125000000e+03) (28, -1.38093408203125000000e+03) (29, 9.06990234375000000000e+02) (30, -6.30743774414062500000e+02) (31, 5.21187316894531250000e+02) (32, 7.16648681640625000000e+02) (33, -1.38723596191406250000e+03) (34, 7.29732849121093750000e+02) (35, -4.25734527587890625000e+02) (36, 4.15490264892578125000e+02) (37, -4.74526062011718750000e+01) (0, 1.24089831542968750000e+03) (1, 3.70762084960937500000e+02) (2, 1.49975219726562500000e+03) (3, 1.24089831542968750000e+03) (4, 1.24089831542968750000e+03) (5, 5.95566894531250000000e+02) (6, 1.43839477539062500000e+03) (7, -7.03071166992187500000e+02) (8, -1.04557128906250000000e+03) (9, -1.49943786621093750000e+03) (10, 2.26076553344726562500e+02) (11, -1.38664941406250000000e+03) (12, -1.38664941406250000000e+03) (13, -1.49891674804687500000e+03) (14, 1.49759997558593750000e+03) (15, -1.38664941406250000000e+03) (16, -1.38664941406250000000e+03) (17, 1.45460937500000000000e+03) (18, 7.97709655761718750000e+01) (19, 7.52651062011718750000e+01) (20, 1.23418632507324218750e+02) (21, 1.44344836425781250000e+03) (22, -3.75460357666015625000e+02) (23, 1.44222692871093750000e+03) (24, 9.25063293457031250000e+02) (25, -5.62921447753906250000e+02) (26, -3.23366821289062500000e+02) (27, 1.48523449707031250000e+03) (28, 1.49902746582031250000e+03) (29, -6.30784057617187500000e+02) (30, 1.28143713378906250000e+03) (31, 7.79944458007812500000e+01) (32, 1.04432929992675781250e+02) (33, 1.24463964843750000000e+03) (34, -4.25429412841796875000e+02) (35, 2.94751739501953125000e+02) (36, 2.94751739501953125000e+02) (37, -5.38752075195312500000e+02) (0, 1.24089831542968750000e+03) (1, 2.43832717895507812500e+02) (2, 1.49975219726562500000e+03) (3, 1.24085302734375000000e+03) (4, 1.24085302734375000000e+03) (5, 2.61922760009765625000e+02) (6, 1.49951916503906250000e+03) (7, 2.92330627441406250000e+02) (8, -9.30645263671875000000e+02) (9, -1.49943786621093750000e+03) (10, 7.01013488769531250000e+02) (11, -1.30516955566406250000e+03) (12, -1.30516955566406250000e+03) (13, -1.49891674804687500000e+03) (14, 9.82047607421875000000e+02) (15, -1.38664941406250000000e+03) (16, -1.38664941406250000000e+03) (17, 1.24161291503906250000e+03) (18, 2.94884552001953125000e+02) (19, -7.96916076660156250000e+02) (20, -7.80398803710937500000e+02) (21, 1.43335925292968750000e+03) (22, -1.85312316894531250000e+02) (23, 1.44222692871093750000e+03) (24, 1.26149597167968750000e+03) (25, -3.79109771728515625000e+02) (26, 9.19258728027343750000e+01) (27, 1.44226269531250000000e+03) (28, 1.44226269531250000000e+03) (29, -6.30785766601562500000e+02) (30, 1.28143713378906250000e+03) (31, 7.33715820312500000000e+01) (32, 7.33715820312500000000e+01) (33, 7.61663940429687500000e+02) (34, 1.73999069213867187500e+02) (35, 2.02458480834960937500e+02) (36, -2.22252693176269531250e+01) (37, 1.49114587402343750000e+03) (0, 1.24502648925781250000e+03) (1, 4.98493080139160156250e+01) (2, 1.49975219726562500000e+03) (3, 1.39879638671875000000e+03) (4, 1.36667065429687500000e+03) (5, 5.46208557128906250000e+02) (6, 1.49951916503906250000e+03) (7, -3.28429809570312500000e+02) (8, -1.19959216308593750000e+03) (9, -1.49943786621093750000e+03) (10, 5.23437500000000000000e+02) (11, -1.38664941406250000000e+03) (12, -1.38664941406250000000e+03) (13, -1.49943786621093750000e+03) (14, 3.96384674072265625000e+02) (15, -1.38670837402343750000e+03) (16, -1.38670837402343750000e+03) (17, 1.24161291503906250000e+03) (18, 1.40860144042968750000e+03) (19, -2.87910949707031250000e+02) (20, -4.75755767822265625000e+02) (21, 1.45532617187500000000e+03) (22, -2.06587463378906250000e+02) (23, 1.44226269531250000000e+03) (24, 1.01387963867187500000e+03) (25, -1.22339775085449218750e+02) (26, 2.00115852355957031250e+01) (27, 1.44226269531250000000e+03) (28, 1.44226269531250000000e+03) (29, -6.30784057617187500000e+02) (30, 1.31715625000000000000e+03) (31, 9.22452392578125000000e+02) (32, 8.07462768554687500000e+02) (33, 7.60696289062500000000e+02) (34, -9.17520751953125000000e+01) (35, 2.94751739501953125000e+02) (36, 1.85868011474609375000e+02) (37, 1.49929187011718750000e+03) (0, 1.35551269531250000000e+03) (1, 1.27255561828613281250e+02) (2, 1.49975219726562500000e+03) (3, 1.43532153320312500000e+03) (4, 1.35547424316406250000e+03) (5, 1.21003799438476562500e+02) (6, 1.34797436523437500000e+03) (7, 9.19161605834960937500e+01) (8, -4.85838317871093750000e+02) (9, -1.49943786621093750000e+03) (10, 5.23437500000000000000e+02) (11, -1.24064953613281250000e+03) (12, -1.24064953613281250000e+03) (13, -1.49891674804687500000e+03) (14, 1.03586694335937500000e+03) (15, -1.35136950683593750000e+03) (16, -1.35136950683593750000e+03) (17, 1.45553820800781250000e+03) (18, 1.49863903808593750000e+03) (19, 6.69612243652343750000e+02) (20, 3.24841888427734375000e+02) (21, 1.43414550781250000000e+03) (22, -1.02628593444824218750e+02) (23, 1.44222692871093750000e+03) (24, 3.88231994628906250000e+02) (25, -2.68575653076171875000e+02) (26, -6.28520629882812500000e+02) (27, 1.44226269531250000000e+03) (28, 1.44226269531250000000e+03) (29, -7.03148254394531250000e+02) (30, 1.28143713378906250000e+03) (31, 2.36936965942382812500e+02) (32, -1.31913070678710937500e+02) (33, 1.22619042968750000000e+03) (34, -3.03408233642578125000e+02) (35, 6.62116027832031250000e+02) (36, 6.62116027832031250000e+02) (37, 1.49968591308593750000e+03) (0, 1.24089831542968750000e+03) (1, 2.44353302001953125000e+02) (2, 1.49975219726562500000e+03) (3, 1.36667065429687500000e+03) (4, 1.24089831542968750000e+03) (5, 3.23090911865234375000e+02) (6, 1.43786560058593750000e+03) (7, -1.78543151855468750000e+02) (8, -5.38060485839843750000e+02) (9, -1.49943786621093750000e+03) (10, 4.36147918701171875000e+02) (11, -1.30516955566406250000e+03) (12, -1.30516955566406250000e+03) (13, -1.49891674804687500000e+03) (14, 3.94475860595703125000e+02) (15, -1.38664941406250000000e+03) (16, -1.38664941406250000000e+03) (17, 1.39262292480468750000e+03) (18, 1.49863903808593750000e+03) (19, 9.09238815307617187500e+01) (20, 1.65352478027343750000e+02) (21, 1.42994836425781250000e+03) (22, -6.52082824707031250000e+02) (23, 1.44222692871093750000e+03) (24, 9.54268493652343750000e+02) (25, -5.11620216369628906250e+01) (26, -2.96846435546875000000e+02) (27, 1.44226269531250000000e+03) (28, 1.44226269531250000000e+03) (29, -7.07117797851562500000e+02) (30, 1.36613305664062500000e+03) (31, -2.14887542724609375000e+01) (32, -2.14887542724609375000e+01) (33, 7.61312377929687500000e+02) (34, 4.43667572021484375000e+02) (35, 5.26890075683593750000e+02) (36, 2.94751739501953125000e+02) (37, 9.29926879882812500000e+02) (0, 1.24502648925781250000e+03) (1, 4.99667243957519531250e+01) (2, 1.49975219726562500000e+03) (3, 1.36667065429687500000e+03) (4, 1.36176049804687500000e+03) (5, -3.88495391845703125000e+02) (6, 1.49951916503906250000e+03) (7, -5.40856506347656250000e+02) (8, -1.39375402832031250000e+03) (9, -1.49943786621093750000e+03) (10, 4.40105682373046875000e+02) (11, -1.38664941406250000000e+03) (12, -1.38664941406250000000e+03) (13, -1.49891674804687500000e+03) (14, -4.31955078125000000000e+02) (15, -1.38664941406250000000e+03) (16, -1.38664941406250000000e+03) (17, 1.00038214111328125000e+03) (18, 1.49863903808593750000e+03) (19, -1.02461376953125000000e+03) (20, -1.36475793457031250000e+03) (21, 1.46572119140625000000e+03) (22, -1.85312316894531250000e+02) (23, 1.44222692871093750000e+03) (24, 1.44222692871093750000e+03) (25, 3.10510131835937500000e+02) (26, 3.88434082031250000000e+02) (27, 1.44226269531250000000e+03) (28, 1.44226269531250000000e+03) (29, -6.29581665039062500000e+02) (30, 1.15528625488281250000e+03) (31, 1.82108886718750000000e+02) (32, 2.20232910156250000000e+02) (33, 7.60696289062500000000e+02) (34, 1.06397521972656250000e+02) (35, 8.91520080566406250000e+01) (36, 3.01667938232421875000e+02) (37, 1.49999609375000000000e+03) (0, 1.24089831542968750000e+03) (1, 2.64876346588134765625e+01) (2, 1.49975219726562500000e+03) (3, 1.36176049804687500000e+03) (4, 1.24089831542968750000e+03) (5, -6.52358764648437500000e+02) (6, 1.49951916503906250000e+03) (7, -3.72014465332031250000e+02) (8, -5.84626220703125000000e+02) (9, -1.40847888183593750000e+03) (10, 2.81359649658203125000e+02) (11, -1.30516955566406250000e+03) (12, -1.30516955566406250000e+03) (13, -1.16781701660156250000e+03) (14, 5.44685485839843750000e+02) (15, -1.38664941406250000000e+03) (16, -1.38664941406250000000e+03) (17, 1.39031359863281250000e+03) (18, 1.49863903808593750000e+03) (19, 3.13022644042968750000e+02) (20, 6.80685668945312500000e+02) (21, 1.48729443359375000000e+03) (22, -9.09103698730468750000e+02) (23, 1.44222692871093750000e+03) (24, 8.25656005859375000000e+02) (25, -4.65774383544921875000e+02) (26, -1.48664123535156250000e+03) (27, 1.44226269531250000000e+03) (28, 1.44226269531250000000e+03) (29, -7.04252075195312500000e+02) (30, 1.40427734375000000000e+03) (31, -7.14829635620117187500e+01) (32, -7.14829635620117187500e+01) (33, 1.00173699951171875000e+03) (34, 3.27943542480468750000e+02) (35, 1.52503997802734375000e+02) (36, 2.72894683837890625000e+02) (37, -1.82989006042480468750e+01) (0, 1.25053063964843750000e+03) (1, 4.68570953369140625000e+02) (2, 1.49975219726562500000e+03) (3, 1.38477148437500000000e+03) (4, 1.38481677246093750000e+03) (5, 1.34416061401367187500e+02) (6, 1.49979980468750000000e+03) (7, 1.25828540039062500000e+03) (8, -2.35485229492187500000e+02) (9, -1.49943786621093750000e+03) (10, 3.37976165771484375000e+02) (11, -1.30565527343750000000e+03) (12, -1.08820751953125000000e+03) (13, -1.49891674804687500000e+03) (14, 4.50276397705078125000e+02) (15, -1.38713513183593750000e+03) (16, -1.38713513183593750000e+03) (17, 1.45401159667968750000e+03) (18, 1.49943310546875000000e+03) (19, -5.42653198242187500000e+02) (20, -9.59747070312500000000e+02) (21, 1.45848291015625000000e+03) (22, -4.08858551025390625000e+02) (23, 1.44222692871093750000e+03) (24, 1.44222692871093750000e+03) (25, -7.17297851562500000000e+02) (26, 8.63750381469726562500e+01) (27, 1.44226269531250000000e+03) (28, 1.44226269531250000000e+03) (29, -7.02574890136718750000e+02) (30, 1.49374877929687500000e+03) (31, 4.11716339111328125000e+02) (32, 4.11716339111328125000e+02) (33, 1.00048651123046875000e+03) (34, -3.57572479248046875000e+02) (35, 1.87837997436523437500e+02) (36, 1.87837997436523437500e+02) (37, 1.50000000000000000000e+03) (0, 1.24502648925781250000e+03) (1, 2.44235900878906250000e+02) (2, 1.49975219726562500000e+03) (3, 1.36176049804687500000e+03) (4, 1.36176049804687500000e+03) (5, -2.62370419502258300781e+00) (6, 4.15217987060546875000e+02) (7, -9.13524963378906250000e+02) (8, -5.37866149902343750000e+02) (9, -1.49943786621093750000e+03) (10, 9.97827880859375000000e+02) (11, -1.30516955566406250000e+03) (12, -1.30516955566406250000e+03) (13, -1.49891674804687500000e+03) (14, 1.49759997558593750000e+03) (15, -1.38664941406250000000e+03) (16, -1.38664941406250000000e+03) (17, 1.49256115722656250000e+03) (18, 1.49863903808593750000e+03) (19, 3.23903320312500000000e+02) (20, -2.58601898193359375000e+02) (21, 1.50000000000000000000e+03) (22, -6.16311828613281250000e+02) (23, 1.45011157226562500000e+03) (24, 7.48507263183593750000e+02) (25, -1.21553027343750000000e+03) (26, -6.89194091796875000000e+02) (27, 1.45014733886718750000e+03) (28, 1.45014733886718750000e+03) (29, -9.94624816894531250000e+02) (30, 5.10366729736328125000e+02) (31, -5.93449951171875000000e+02) (32, -5.93449951171875000000e+02) (33, 4.06069091796875000000e+02) (34, -5.15847473144531250000e+02) (35, 1.40508154296875000000e+03) (36, 1.23212475585937500000e+03) (37, 1.50000000000000000000e+03) (0, -1.29481164550781250000e+03) (1, -2.07509490966796875000e+02) (2, -1.49944067382812500000e+03) (3, -1.32896777343750000000e+03) (4, -1.28692419433593750000e+03) (5, 1.26082617187500000000e+03) (6, -1.10526428222656250000e+03) (7, 1.07986706542968750000e+03) (8, 1.41614990234375000000e+03) (9, 1.49951916503906250000e+03) (10, -3.68140289306640625000e+02) (11, 1.31600134277343750000e+03) (12, 1.31600134277343750000e+03) (13, 1.49940527343750000000e+03) (14, 3.17157928466796875000e+02) (15, 1.43264123535156250000e+03) (16, 1.43264123535156250000e+03) (17, -1.44237878417968750000e+03) (18, -1.49826306152343750000e+03) (19, 2.11226730346679687500e+02) (20, 2.63480529785156250000e+02) (21, -1.26534399414062500000e+03) (22, 5.64805297851562500000e+02) (23, -1.38087512207031250000e+03) (24, -6.27299560546875000000e+02) (25, 8.51688049316406250000e+02) (26, 7.20942138671875000000e+02) (27, -1.38093408203125000000e+03) (28, -1.38093408203125000000e+03) (29, 7.05751770019531250000e+02) (30, -8.61625732421875000000e+02) (31, 5.78965820312500000000e+02) (32, 5.79064331054687500000e+02) (33, -9.20755981445312500000e+02) (34, 1.22818347167968750000e+03) (35, -9.87692184448242187500e+01) (36, -9.87692184448242187500e+01) (37, -8.39618408203125000000e+02) (0, 1.24089831542968750000e+03) (1, 4.25674804687500000000e+02) (2, 1.49975219726562500000e+03) (3, 1.30089172363281250000e+03) (4, 1.24089831542968750000e+03) (5, -4.11881835937500000000e+02) (6, 1.49951916503906250000e+03) (7, 1.37462799072265625000e+02) (8, -6.96086608886718750000e+02) (9, -1.49943786621093750000e+03) (10, 4.57637481689453125000e+02) (11, -1.37908947753906250000e+03) (12, -1.37908947753906250000e+03) (13, -1.49891674804687500000e+03) (14, 3.57198822021484375000e+02) (15, -1.38664941406250000000e+03) (16, -1.38664941406250000000e+03) (17, 9.93783020019531250000e+02) (18, 1.49863903808593750000e+03) (19, -1.25430145263671875000e+02) (20, -2.16974426269531250000e+02) (21, 1.47171765136718750000e+03) (22, -3.65123809814453125000e+02) (23, 1.44222692871093750000e+03) (24, 1.44222692871093750000e+03) (25, 2.58374511718750000000e+02) (26, 3.75853820800781250000e+02) (27, 1.45200354003906250000e+03) (28, 1.47129687500000000000e+03) (29, -6.29582031250000000000e+02) (30, 1.03491809082031250000e+03) (31, 1.92176696777343750000e+02) (32, 1.92176696777343750000e+02) (33, 1.00168695068359375000e+03) (34, 4.93669509887695312500e+01) (35, 1.85868011474609375000e+02) (36, 1.85868011474609375000e+02) (37, 1.46804504394531250000e+03) (0, 1.24502648925781250000e+03) (1, 2.44353302001953125000e+02) (2, 1.49975219726562500000e+03) (3, 1.24089831542968750000e+03) (4, 1.24089831542968750000e+03) (5, 1.60310867309570312500e+02) (6, 1.49951916503906250000e+03) (7, 3.44344253540039062500e+01) (8, -3.05691223144531250000e+02) (9, -1.49943786621093750000e+03) (10, 5.19391357421875000000e+02) (11, -1.30516955566406250000e+03) (12, -1.30516955566406250000e+03) (13, -1.49891674804687500000e+03) (14, 6.01124206542968750000e+02) (15, -1.37906164550781250000e+03) (16, -1.37906164550781250000e+03) (17, 1.48133569335937500000e+03) (18, 1.49863903808593750000e+03) (19, 4.86769287109375000000e+02) (20, 7.19449035644531250000e+02) (21, 1.36576916503906250000e+03) (22, -3.87945465087890625000e+02) (23, 1.44226269531250000000e+03) (24, 9.37515197753906250000e+02) (25, -9.69250106811523437500e+01) (26, 9.19258728027343750000e+01) (27, 1.44226269531250000000e+03) (28, 1.44226269531250000000e+03) (29, -7.03048339843750000000e+02) (30, 1.28143713378906250000e+03) (31, 1.70232849121093750000e+02) (32, 1.70232849121093750000e+02) (33, 1.00104779052734375000e+03) (34, -4.25452606201171875000e+02) (35, 2.94751739501953125000e+02) (36, 1.85868011474609375000e+02) (37, 1.24358691406250000000e+03) (38, -1.47377929687500000000e+03) (39, 1.35547424316406250000e+03) (40, 1.39953820800781250000e+03) (41, -1.11937609863281250000e+03) (42, -1.34614709472656250000e+03) (43, 1.49995654296875000000e+03) (44, -1.49974816894531250000e+03) (45, -8.86622009277343750000e+02) (46, -6.75280475616455078125e+00) (47, 1.39966357421875000000e+03) (48, 1.47069824218750000000e+03) (49, -1.49620532226562500000e+03) (50, 1.49991333007812500000e+03) (51, 1.48434863281250000000e+03) (52, -1.42504101562500000000e+03) (53, -1.38654809570312500000e+03) (54, 1.34862719726562500000e+03) (55, -1.33298461914062500000e+03) (56, 1.39964123535156250000e+03) (57, -1.07423156738281250000e+03) (58, -1.40286206054687500000e+03) (59, 1.48042382812500000000e+03) (60, -1.13621813964843750000e+03) (61, -1.08895568847656250000e+03) (62, -1.39893798828125000000e+03) (63, 1.30472595214843750000e+02) (64, -1.49920153808593750000e+03) (65, -7.42321289062500000000e+02) (66, -4.86593078613281250000e+02) (67, 1.24089831542968750000e+03) (68, -1.21554821777343750000e+03) (69, 1.48278295898437500000e+03) (70, -1.49941540527343750000e+03) (71, -6.64783752441406250000e+02) (72, 1.39953820800781250000e+03) (73, -1.38654809570312500000e+03) (74, -1.33298461914062500000e+03) (75, -1.03070385742187500000e+03) (76, -1.35336962890625000000e+03) (77, -1.38866198730468750000e+03) (78, 1.49995654296875000000e+03) (79, 1.41237927246093750000e+03) (80, -1.17419873046875000000e+03) (81, -7.67093811035156250000e+02) (82, -7.07666992187500000000e+02) (83, -1.49962573242187500000e+03) (84, 1.46664672851562500000e+03) (85, 1.49995654296875000000e+03) (86, -1.48451232910156250000e+03) (87, -1.22314697265625000000e+03) (88, -1.46652575683593750000e+03) (89, -1.24919335937500000000e+03) (90, -1.48855151367187500000e+03) (91, -1.43353759765625000000e+03) (92, -1.25431188964843750000e+03) (93, -1.49212207031250000000e+03) (94, -1.05100952148437500000e+03) (95, 1.48186010742187500000e+03) (96, -1.49920825195312500000e+03) (97, -1.36469055175781250000e+03) (98, 7.84682617187500000000e+02) (38, -1.45733154296875000000e+03) (39, 3.29908081054687500000e+02) (40, 1.40688818359375000000e+03) (41, 1.39953820800781250000e+03) (42, 1.45191198730468750000e+03) (43, -1.49974816894531250000e+03) (44, 1.49995654296875000000e+03) (45, -1.13329650878906250000e+03) (46, 9.04071899414062500000e+02) (47, 1.44624658203125000000e+03) (48, -1.38654809570312500000e+03) (49, -1.37472827148437500000e+03) (50, -1.49962573242187500000e+03) (51, 1.49709777832031250000e+03) (52, -2.54280300140380859375e+01) (53, 1.47069824218750000000e+03) (54, -5.36184082031250000000e+02) (55, -1.29733813476562500000e+03) (56, 8.29718261718750000000e+02) (57, 1.49918383789062500000e+03) (58, -1.02109240722656250000e+03) (59, 1.47358850097656250000e+03) (60, 5.74225036621093750000e+02) (61, -4.01640228271484375000e+02) (62, -1.42475744628906250000e+03) (63, -9.02341674804687500000e+02) (64, -1.14754797363281250000e+03) (65, 1.35461169433593750000e+03) (66, 8.31042480468750000000e+02) (67, -1.21554821777343750000e+03) (68, 1.24089831542968750000e+03) (69, 1.47023278808593750000e+03) (70, -1.48735131835937500000e+03) (71, -7.00799865722656250000e+02) (72, -1.20472900390625000000e+03) (73, 1.47069824218750000000e+03) (74, 1.38677441406250000000e+03) (75, -7.64683776855468750000e+02) (76, 1.65521362304687500000e+02) (77, 2.23048645019531250000e+02) (78, -1.49974816894531250000e+03) (79, 4.05576110839843750000e+02) (80, 9.75398742675781250000e+02) (81, 8.80292297363281250000e+02) (82, 1.23578662109375000000e+03) (83, 1.49991333007812500000e+03) (84, 1.12971557617187500000e+03) (85, -1.49974816894531250000e+03) (86, -1.45913903808593750000e+03) (87, -7.59884719848632812500e+01) (88, 8.33587524414062500000e+02) (89, -1.32238525390625000000e+03) (90, -1.48745520019531250000e+03) (91, -2.04707870483398437500e+02) (92, -9.35924377441406250000e+02) (93, -1.33764843750000000000e+03) (94, 1.20635961914062500000e+03) (95, 1.50000000000000000000e+03) (96, -1.09048608398437500000e+03) (97, 2.81882049560546875000e+02) (98, 2.06103805541992187500e+02) (38, -1.32706018066406250000e+03) (39, 5.51291809082031250000e+02) (40, 1.36049829101562500000e+03) (41, -1.20506823730468750000e+03) (42, -1.45622314453125000000e+03) (43, 1.49995654296875000000e+03) (44, -1.49974816894531250000e+03) (45, -5.30009033203125000000e+02) (46, -6.75280475616455078125e+00) (47, 1.40965441894531250000e+03) (48, 1.47069824218750000000e+03) (49, -1.49620532226562500000e+03) (50, 1.49991333007812500000e+03) (51, 1.48797424316406250000e+03) (52, -6.71456298828125000000e+02) (53, -1.38654809570312500000e+03) (54, 1.40283776855468750000e+03) (55, -1.33298461914062500000e+03) (56, 1.39964123535156250000e+03) (57, -1.22646801757812500000e+03) (58, -1.47974023437500000000e+03) (59, 4.68105926513671875000e+02) (60, -1.10231079101562500000e+03) (61, -5.14238586425781250000e+02) (62, -1.47014355468750000000e+03) (63, -4.19527313232421875000e+02) (64, -1.49851000976562500000e+03) (65, -9.94067626953125000000e+02) (66, -4.97569213867187500000e+02) (67, 1.24089831542968750000e+03) (68, -1.21554821777343750000e+03) (69, 1.38285632324218750000e+03) (70, -1.49941540527343750000e+03) (71, -7.89083984375000000000e+02) (72, 1.39953820800781250000e+03) (73, -1.38654809570312500000e+03) (74, -1.33298461914062500000e+03) (75, -9.73391784667968750000e+02) (76, -1.25617431640625000000e+03) (77, -7.64173339843750000000e+02) (78, 1.49995654296875000000e+03) (79, 1.49995654296875000000e+03) (80, -1.47984948730468750000e+03) (81, -1.27723864746093750000e+03) (82, -9.25848693847656250000e+02) (83, -1.49962573242187500000e+03) (84, 1.47663757324218750000e+03) (85, 1.49995654296875000000e+03) (86, -1.46678527832031250000e+03) (87, -9.12558532714843750000e+02) (88, -1.07333068847656250000e+03) (89, -1.49919335937500000000e+03) (90, -1.47919787597656250000e+03) (91, -1.00359106445312500000e+03) (92, -1.47326440429687500000e+03) (93, -1.49212207031250000000e+03) (94, -1.05100952148437500000e+03) (95, 1.37602221679687500000e+03) (96, -1.49920825195312500000e+03) (97, -1.47988000488281250000e+03) (98, 1.28453088378906250000e+03) (38, -1.36833666992187500000e+03) (39, 5.51291809082031250000e+02) (40, 1.34315795898437500000e+03) (41, -1.20506823730468750000e+03) (42, -1.45622314453125000000e+03) (43, 1.49995654296875000000e+03) (44, -1.49974816894531250000e+03) (45, -5.75877197265625000000e+02) (46, -6.75280475616455078125e+00) (47, 1.40965441894531250000e+03) (48, 1.47069824218750000000e+03) (49, -1.49620532226562500000e+03) (50, 1.49991333007812500000e+03) (51, 1.49105834960937500000e+03) (52, -6.71456298828125000000e+02) (53, -1.38654809570312500000e+03) (54, 1.40283776855468750000e+03) (55, -1.33298461914062500000e+03) (56, 1.39964123535156250000e+03) (57, -1.22646801757812500000e+03) (58, -1.47968798828125000000e+03) (59, 7.82517456054687500000e+02) (60, -1.21554821777343750000e+03) (61, -5.14238586425781250000e+02) (62, -1.46263037109375000000e+03) (63, -5.29572143554687500000e+02) (64, -1.49831188964843750000e+03) (65, -9.94067626953125000000e+02) (66, -5.38406494140625000000e+02) (67, 1.24089831542968750000e+03) (68, -1.21554821777343750000e+03) (69, 1.38043005371093750000e+03) (70, -1.49941540527343750000e+03) (71, -7.89083984375000000000e+02) (72, 1.39953820800781250000e+03) (73, -1.38654809570312500000e+03) (74, -1.33298461914062500000e+03) (75, -9.76605957031250000000e+02) (76, -1.15511621093750000000e+03) (77, -7.64173339843750000000e+02) (78, 1.49995654296875000000e+03) (79, 1.49995654296875000000e+03) (80, -1.47984948730468750000e+03) (81, -1.36457873535156250000e+03) (82, -9.25848693847656250000e+02) (83, -1.49962573242187500000e+03) (84, 1.47663757324218750000e+03) (85, 1.49995654296875000000e+03) (86, -1.44052075195312500000e+03) (87, -9.04729003906250000000e+02) (88, -1.05371862792968750000e+03) (89, -1.49919335937500000000e+03) (90, -1.47915368652343750000e+03) (91, -1.01624304199218750000e+03) (92, -1.47326440429687500000e+03) (93, -1.49212207031250000000e+03) (94, -1.05100952148437500000e+03) (95, 1.37602221679687500000e+03) (96, -1.49920825195312500000e+03) (97, -1.47988000488281250000e+03) (98, -2.02634780883789062500e+02) (38, -1.47647985839843750000e+03) (39, 1.35547424316406250000e+03) (40, 1.39953820800781250000e+03) (41, -1.11937609863281250000e+03) (42, -1.34614709472656250000e+03) (43, 1.49995654296875000000e+03) (44, -1.49974816894531250000e+03) (45, -9.72731933593750000000e+02) (46, -6.75280475616455078125e+00) (47, 1.39966357421875000000e+03) (48, 1.47069824218750000000e+03) (49, -1.49620532226562500000e+03) (50, 1.49991333007812500000e+03) (51, 1.48926318359375000000e+03) (52, -1.29336157226562500000e+03) (53, -1.38654809570312500000e+03) (54, 1.34862719726562500000e+03) (55, -1.33298461914062500000e+03) (56, 1.39964123535156250000e+03) (57, -8.94483398437500000000e+02) (58, -1.39788159179687500000e+03) (59, 1.45993151855468750000e+03) (60, -1.13621813964843750000e+03) (61, -9.50022460937500000000e+02) (62, -1.40112622070312500000e+03) (63, 1.30472595214843750000e+02) (64, -1.49920153808593750000e+03) (65, -6.76521179199218750000e+02) (66, -4.86593078613281250000e+02) (67, 1.24089831542968750000e+03) (68, -1.21554821777343750000e+03) (69, 1.48259667968750000000e+03) (70, -1.49941503906250000000e+03) (71, -6.64784118652343750000e+02) (72, 1.39953820800781250000e+03) (73, -1.38654809570312500000e+03) (74, -1.33298461914062500000e+03) (75, -1.03059301757812500000e+03) (76, -1.35336950683593750000e+03) (77, -1.38866198730468750000e+03) (78, 1.49995654296875000000e+03) (79, 1.41237927246093750000e+03) (80, -1.17419873046875000000e+03) (81, -7.67093811035156250000e+02) (82, -5.41867065429687500000e+02) (83, -1.49962573242187500000e+03) (84, 1.46664672851562500000e+03) (85, 1.49995654296875000000e+03) (86, -1.48451232910156250000e+03) (87, -1.21604516601562500000e+03) (88, -1.46652575683593750000e+03) (89, -1.24919335937500000000e+03) (90, -1.48850170898437500000e+03) (91, -1.43353686523437500000e+03) (92, -1.25431188964843750000e+03) (93, -1.45050427246093750000e+03) (94, -1.05100952148437500000e+03) (95, 1.48186010742187500000e+03) (96, -1.49920825195312500000e+03) (97, -1.26469055175781250000e+03) (98, -1.85599990844726562500e+02) (38, -6.60932006835937500000e+02) (39, 5.74515380859375000000e+02) (40, 1.25076879882812500000e+03) (41, -1.18777600097656250000e+03) (42, -1.45622314453125000000e+03) (43, 1.49995654296875000000e+03) (44, -1.49974816894531250000e+03) (45, -5.89863281250000000000e+02) (46, -6.75280475616455078125e+00) (47, 1.45595019531250000000e+03) (48, 1.47069824218750000000e+03) (49, -1.49620532226562500000e+03) (50, 1.49991333007812500000e+03) (51, 1.47959533691406250000e+03) (52, -6.88508361816406250000e+02) (53, -1.38654809570312500000e+03) (54, 1.40283776855468750000e+03) (55, -1.33298461914062500000e+03) (56, 1.39964123535156250000e+03) (57, -1.25476379394531250000e+03) (58, -1.47164550781250000000e+03) (59, 8.63927856445312500000e+02) (60, -1.10291247558593750000e+03) (61, -3.12641937255859375000e+02) (62, -1.45420275878906250000e+03) (63, -7.16500427246093750000e+02) (64, -1.49790991210937500000e+03) (65, -9.75405273437500000000e+02) (66, -5.18102416992187500000e+02) (67, 1.24089831542968750000e+03) (68, -1.21554821777343750000e+03) (69, 1.39210571289062500000e+03) (70, -1.49941577148437500000e+03) (71, -7.89083984375000000000e+02) (72, 1.39953820800781250000e+03) (73, -1.38654809570312500000e+03) (74, -1.33298461914062500000e+03) (75, -9.76527648925781250000e+02) (76, -1.17057263183593750000e+03) (77, -3.07967010498046875000e+02) (78, 1.49995654296875000000e+03) (79, 1.49995654296875000000e+03) (80, -1.47419873046875000000e+03) (81, -1.36457873535156250000e+03) (82, -9.25848693847656250000e+02) (83, -1.49962573242187500000e+03) (84, 1.47663757324218750000e+03) (85, 1.49995654296875000000e+03) (86, -1.47806347656250000000e+03) (87, -1.66785156250000000000e+02) (88, -1.26330798339843750000e+03) (89, -1.46135913085937500000e+03) (90, -1.48000976562500000000e+03) (91, -7.88148254394531250000e+02) (92, -1.47326440429687500000e+03) (93, -1.49096643066406250000e+03) (94, -1.05100952148437500000e+03) (95, 1.43566284179687500000e+03) (96, -1.49920825195312500000e+03) (97, -1.49057690429687500000e+03) (98, -1.01675573730468750000e+03) (38, 1.39584216308593750000e+03) (39, 1.71782455444335937500e+01) (40, -7.42250610351562500000e+02) (41, 1.39953820800781250000e+03) (42, 1.45994311523437500000e+03) (43, -1.49974816894531250000e+03) (44, 1.49995654296875000000e+03) (45, 1.08503332519531250000e+03) (46, 1.66919998168945312500e+02) (47, -1.35492285156250000000e+03) (48, -1.38654809570312500000e+03) (49, 1.49683923339843750000e+03) (50, -1.49962573242187500000e+03) (51, -1.44288842773437500000e+03) (52, 8.85878906250000000000e+02) (53, 1.47069824218750000000e+03) (54, -1.39432543945312500000e+03) (55, 1.38677441406250000000e+03) (56, -1.30516955566406250000e+03) (57, 1.46512963867187500000e+03) (58, 1.49995654296875000000e+03) (59, -2.63388549804687500000e+02) (60, 1.24089831542968750000e+03) (61, 8.26981323242187500000e+02) (62, 1.49428442382812500000e+03) (63, 6.47004516601562500000e+02) (64, 1.49995654296875000000e+03) (65, 1.28223168945312500000e+03) (66, 8.80327392578125000000e+02) (67, -1.21554821777343750000e+03) (68, 1.24089831542968750000e+03) (69, -1.18801281738281250000e+03) (70, 1.50000000000000000000e+03) (71, 1.06264709472656250000e+03) (72, -1.30506823730468750000e+03) (73, 1.47069824218750000000e+03) (74, 1.38677441406250000000e+03) (75, 1.21859350585937500000e+03) (76, 1.49992407226562500000e+03) (77, 1.04033728027343750000e+03) (78, -1.49974816894531250000e+03) (79, -1.49974816894531250000e+03) (80, 1.49995654296875000000e+03) (81, 1.45648962402343750000e+03) (82, 1.23578662109375000000e+03) (83, 1.49991333007812500000e+03) (84, -1.45578906250000000000e+03) (85, -1.49974816894531250000e+03) (86, 1.49222839355468750000e+03) (87, 1.33636718750000000000e+03) (88, 1.49989782714843750000e+03) (89, 1.49995654296875000000e+03) (90, 1.49993505859375000000e+03) (91, 1.16226538085937500000e+03) (92, 1.48641821289062500000e+03) (93, 1.49306262207031250000e+03) (94, 1.20635961914062500000e+03) (95, -1.32073779296875000000e+03) (96, 1.49995654296875000000e+03) (97, 1.49995654296875000000e+03) (98, 1.45114868164062500000e+03) (38, -7.74155517578125000000e+02) (39, 1.12946594238281250000e+03) (40, 1.13202539062500000000e+03) (41, 1.33003967285156250000e+02) (42, -2.82689300537109375000e+02) (43, -2.47455932617187500000e+02) (44, 1.17512219238281250000e+03) (45, 4.52409667968750000000e+01) (46, 1.49896240234375000000e+03) (47, 1.15726135253906250000e+03) (48, -4.43195922851562500000e+02) (49, 3.67516479492187500000e+02) (50, -5.38742004394531250000e+02) (51, 9.55177124023437500000e+02) (52, -8.31759704589843750000e+02) (53, 7.02206665039062500000e+02) (54, 1.22628308105468750000e+03) (55, -1.35194262695312500000e+03) (56, 7.68956848144531250000e+02) (57, -8.96231628417968750000e+02) (58, -1.35850170898437500000e+03) (59, 1.16762622070312500000e+03) (60, -7.60264282226562500000e+02) (61, 6.45239257812500000000e+02) (62, -6.46860290527343750000e+02) (63, -6.88505798339843750000e+02) (64, -1.39084826660156250000e+03) (65, -1.01402990722656250000e+03) (66, -9.81874267578125000000e+02) (67, 7.16707031250000000000e+02) (68, 6.85229248046875000000e+02) (69, 1.08548754882812500000e+03) (70, -1.42228112792968750000e+03) (71, 2.66174407958984375000e+02) (72, -2.01466110229492187500e+02) (73, 1.16416162109375000000e+03) (74, -6.42857971191406250000e+02) (75, -7.91088867187500000000e+02) (76, -2.07958740234375000000e+02) (77, -9.24418716430664062500e+01) (78, -5.76390991210937500000e+02) (79, 1.18312414550781250000e+03) (80, -3.57332305908203125000e+02) (81, -4.56264862060546875000e+02) (82, -5.68883483886718750000e+02) (83, 1.19078540039062500000e+03) (84, 8.27829895019531250000e+02) (85, 5.85895690917968750000e+02) (86, -1.38154992675781250000e+03) (87, -6.71847717285156250000e+02) (88, 7.92734436035156250000e+02) (89, 6.02243957519531250000e+02) (90, -1.48824670410156250000e+03) (91, 1.23573982238769531250e+02) (92, -4.80562194824218750000e+02) (93, -4.92007385253906250000e+02) (94, -9.29405822753906250000e+02) (95, 1.36790515136718750000e+03) (96, 1.08977416992187500000e+03) (97, 4.47157440185546875000e+02) (98, 9.36090637207031250000e+02) (38, -1.36833666992187500000e+03) (39, 5.51291809082031250000e+02) (40, 1.36049829101562500000e+03) (41, -1.20506823730468750000e+03) (42, -1.45622314453125000000e+03) (43, 1.49995654296875000000e+03) (44, -1.49974816894531250000e+03) (45, -5.75877197265625000000e+02) (46, -6.75280475616455078125e+00) (47, 1.40965441894531250000e+03) (48, 1.47069824218750000000e+03) (49, 